{"generation": 16960, "inputs": ["cart.x", "cart.vel", "bob.x", "bob.y", "bob.vel"], "outputs": ["acceleration"], "layers": [5, 10, 10, 1], "hidden_activation": "tanh", "output_activation": "tanh", "ticks": 4071630000, "time": 111883.32558870316, "weights": [0.24990976453370686, 0.33028931226331304, -0.4458671610122668, -0.2459744014403721, -0.6322543071816542, 0.24088748811519947, -0.671406505137491, 0.4771546364779053, -0.4468973102381346, 0.13580476931278374, 0.8637788132409504, -0.8466235759022074, -0.6930110071000285, -0.8172883122785566, 0.19107127144029543, -0.8628135392782612, -0.4336189701334987, 1.147300437811514, 0.7701724914794285, -0.6863368749429519, -1.0677878176691729, 0.33804421065412704, -0.44432868809678705, -1.0836094231755133, 1.072660665262346, 0.6888386380012751, 1.0348908516190203, 2.6143490867301225, -1.5476480473931553, 0.125927282011494, -0.7019814895028778, 0.8994068800012995, -0.9472341146490717, -0.16029527067272992, 0.5808307806061287, -0.5490232407486773, 0.017915600740716252, -0.19944119759719908, -0.8044869036289765, 0.8025275631626764, -0.4596791090370916, -1.4833626409402103, 0.46352889026279215, -0.12686999459473797, 0.6570113665061125, 0.6459220663252794, 0.426787680012102, -0.6707293121084777, 0.04471762419648482, 0.7281738096397937, 1.0349529046810162, 0.946294297844978, 0.38330952784325717, 0.28361399833313317, 0.2536400853881922, 0.8924531489948696, -0.28269874821969115, 0.8872276395199798, 0.856695778086459, 0.9919891416569111, 0.01795378124645564, -0.38399692792651247, -0.08453046458679778, -0.33536408094646897, -0.4605944357909276, 1.0320407799190483, 0.30458572894437536, -1.1330675427095196, 0.8915609873897588, -0.1510405838823447, -0.016761355944471402, 1.0964914026419748, -0.9578152179144982, 1.287309507817782, 0.11092374224693015, 0.09841695449423335, -0.4677215667013075, -0.8731779367855785, 0.4931829810568858, -0.9219977875709887, 0.26626274759148993, 0.9462976254720988, -0.7556101238992063, 0.6977512914558419, -0.31565565531069023, 0.03346551815056375, -0.9005812788067111, 0.46125454504144814, -0.26454960717912124, 0.3635297125100136, -0.5668218890337892, 0.7768500437667779, 0.04219506886971577, 0.3384394541249602, 0.5998097627000887, -0.5688297610298608, -0.2216580813788985, 0.7015676685127493, -0.726113437924624, 0.39479778745403493, -0.6920036573203517, -0.916657496878136, -0.8772634520897016, 0.7738976203071347, 0.8566726247963551, -0.023132492114459197, 0.32714166626075136, -0.8491021758160222, -0.6033521774765472, -0.023950491681966352, -0.8647406511839948, -0.8623600584616911, 0.91681925511857, -0.598902592614189, 0.7643758639968788, -0.15099706197648996, -0.3317664376701848, -0.5764900960435775, -0.6496025916555416, 0.009006386432272705, -0.34366821187777974, -1.0350327631608707, 0.5991242519049167, -0.7454769110139446, 0.4600929176049109, 0.6367343677265246, -0.8627604170661674, -0.15752931545181814, -0.5965717971783092, 0.4814636975407551, 0.3054302672786215, 0.37724327184241585, 1.4412560892533939, 0.14149214338586955, -0.1631182637198758, -0.8562220211861497, -0.151973099213078, 1.378612614437084, 0.786522258945226, -0.2703622588805327, 0.8734451422015727, -0.6627295697358824, 0.6759589203023234, -0.020235278860611255, 0.7918801017072901, 0.895844691107513, 0.5793798819851909, 0.47881294861954016, 0.5161863575098398, -1.0776630988857576, -0.9482444953403316, -0.5933657094213172, 0.32179816611745105, -0.6030320200319115, -0.2610752792513531, 0.2775619789383167, 0.2698617368163916, 0.17665925874122584, -0.861314007069716, 0.07053240526153984], "biases": [-1.0154147353631624, -1.2538390589656205, -0.9725032597209038, -0.8641901231475667, -0.9009166506984317, -1.139172045066267, -0.9416726780767555, -0.9363546256351796, -0.9497723520588194, -0.9849055882313247, -1.1275843284528342, -0.9739167920713899, -0.3392717859981025, -0.7500332584419691, -1.3719690767843846, -0.7953143846749114, -1.1092978436098884, -0.7447532711837138, -0.9930782884431918, -0.861072509251667, -0.9026537437860017]}