{"generation": 1376, "inputs": ["cart.x", "cart.vel", "bob.x", "bob.y", "bob.vel"], "outputs": ["acceleration"], "layers": [5, 10, 10, 1], "hidden_activation": "tanh", "output_activation": "tanh", "ticks": 321060000, "time": 18505.32305908203, "weights": [0.31790880334968674, 0.32890994142943075, -0.5193753725192458, -0.15953456837792432, -0.8689911836779208, 0.46896918549165434, -0.737254694692393, 0.47812156502342756, -0.5403260920980388, 0.025902735345621382, 0.7425376677792724, -0.7000760869078846, -0.6471343344316779, 0.08415396039348357, 0.17619642694005622, -0.8545862084785937, -0.3885163370054223, -0.8126568287976303, 0.807011731773254, -0.7191536895602079, -1.0190363195363257, 0.5518089055057649, -0.21147292870423653, 0.26838909607590183, 0.9340974850682584, 0.457801091355831, 0.9108155224683183, 0.6193879512441949, -1.1308149255582398, 0.007054276481511844, -0.6859301199851449, 0.6390305841431849, -0.9234165073155826, -0.13792041896438612, 0.6631212491546403, -0.5119336028535609, -0.016178999869357388, -0.12553976682340184, -0.8385607744583502, 0.9573968804795827, -0.19280595226066413, -0.8127537661788085, 0.5553585166775961, -0.7780995040597564, 0.6711354377833052, 0.6360194872434158, 0.5877825443427299, -0.5347854458403152, -0.19441816741901874, 0.5191254684722508, 1.0318615283119983, 0.9446504207304607, 0.4456984398226191, 0.36090086043927494, 0.268641298221551, 0.805916264002995, -0.4046599363093116, 0.8380185058808098, 0.9304729057529505, 0.8059414030090234, -0.04847273851931771, -0.3436976634551169, 0.09389573799843826, -0.27183435320849886, -0.511691418538757, 0.7131245525764855, 0.2491919624457284, -0.8682710990676387, 0.8598093580555481, -0.1349060725573772, -0.6015795902333918, 0.5989256133707049, -0.3531462007792219, 0.6429291092456717, -0.04853297597461248, 0.15661356854708494, 0.029450897600896128, -0.06789636109534297, 0.19491325210263383, 0.3127247893125886, 0.20770703348954564, 0.9039219588309315, -0.5920535453777227, 0.8898040540221465, -0.2852043993454257, 0.13626565033497087, -0.7715316901777749, 0.5689364210006993, -0.2935999118158134, 0.495122821449131, -0.5270296775754502, 0.8140149267350921, 0.08896710279567244, 0.44572892528107505, 0.9761876357857054, -0.7642009604026204, -0.22819185699680508, 0.6762536783130905, -0.6676039101698861, 0.3039702773810964, -0.7494222715324929, -0.9170978602102104, -0.5768571865400737, 0.8215199276687108, 0.8430551065492142, 0.00041439840613033147, 0.33615671322710533, -0.7265981905981579, -0.6120568863390048, 0.05913928754543723, -0.838005754250142, -0.8654098293518895, 0.8281409711106849, -0.5056118818983809, 0.37869719553509684, -0.37283518953552486, -0.3220931442029011, -0.4749511285049737, -0.5873299232770807, 0.020437521366683583, -0.38721509043656416, -0.9550588504314981, 0.8048256114414306, -0.7613140208482911, 0.47793234808554635, 0.659981453555668, -0.8691550776260446, -0.2664069879956969, -0.5397400890343823, 0.4776808957000551, 0.18413334062675227, 0.5811154006769285, 0.8084194617725577, 0.45271142295969613, -0.2743006251302096, -0.7912876009466756, -0.13012515285291038, 0.8864267786557198, 0.9104467352731155, -0.40691610154854196, 0.84698317986885, -0.6102163694838324, 0.7763849161631736, 0.06947353923353365, 0.5864460768851731, 0.8493678774667413, 0.5106449906396306, 0.641540140111369, 0.554228832429201, -0.970833949169791, -1.0066704802589954, -0.6843035754317582, 0.301136523241502, -0.698970426698128, -0.27425117924380926, 0.3674614086588591, 0.18429289359298934, 0.25036109681140195, -0.9151816199590128, 0.1490423873971553], "biases": [-1.0391004938139587, -0.9965200637069638, -0.9951633276688403, -1.0254902314495529, -1.0010584392209425, -1.0435148983486997, -0.8882021793828817, -0.9962621682927685, -1.0177212369095023, -1.0161520396167203, -1.0271850348974094, -1.016563422467553, -0.9968686325830806, -1.0025464457916142, -1.0098846452106747, -0.9972988971829942, -1.0004148328452305, -0.9955429921841178, -1.0078588882720085, -1.0059301567546668, -0.9454460509166065]}