{"generation": 160, "inputs": ["cart.x", "cart.vel", "bob.x", "bob.y", "bob.vel"], "outputs": ["acceleration"], "layers": [5, 10, 10, 1], "hidden_activation": "tanh", "output_activation": "tanh", "ticks": 9660000, "time": 1163.7143700122833, "weights": [0.11793882910895552, 0.32890994142943075, -0.5224322566380336, -0.18705346518004706, -0.8660724801458621, 0.6710120362159475, -0.7339971088963833, 0.6004854957370758, -0.6550021623786028, 0.021195444442836386, 0.7470520378406437, -0.6973101119318437, -0.6457125127919938, 0.12529624612327894, 0.17619642694005622, -0.8591790981111382, -0.3859030130689202, -0.8615303293777854, 0.843871245842954, -0.7203741497569311, -0.8102046684708837, 0.5518089055057649, -0.21050819052983516, 0.28672970593121083, 0.9329931749327307, 0.3078366842419174, 0.9056736398205438, 0.5405776342442203, -0.934640019278716, 0.0180448672236746, -0.6949099670290714, 0.6415019373399331, -0.9205624719002077, -0.18232761226931976, 0.6690120888152935, -0.5312582349895507, -0.010468716564837471, -0.11881183466937616, -0.8506651854899459, 0.9528936360997451, -0.1939780287950177, -0.8127537661788085, 0.5619213634602103, -0.8009443041877278, 0.6711354377833052, 0.6303491777951795, 0.5820192359446996, -0.5019057160730618, -0.19121053439143806, 0.5223671939647125, 0.9808517164136239, 0.8959717287063078, 0.4485587462677316, 0.3587681749179752, 0.2688399363409985, 0.8115402046130771, -0.3887461792092033, 0.8380185058808098, 0.9046846519569575, 0.8044811149250082, -0.0547034180672813, -0.3504422418185091, 0.09389573799843826, -0.25642421707337193, -0.5091693752907038, 0.7079397426255931, 0.2491919624457284, -0.8650904242837938, 0.8572639725375837, -0.1349060725573772, -0.6689747113587154, 0.5228263122817649, -0.3531462007792219, 0.6390344886240822, -0.04853297597461248, 0.15722383013028263, 0.036991323760423835, -0.06497900109134092, 0.1593547806069593, 0.3127247893125886, 0.21566045051398364, 0.908662678957088, -0.5936605862573785, 0.8985724484329527, -0.2766943504290522, 0.14052279964371506, -0.7749712378236873, 0.5770782614986469, -0.28255155473655447, 0.4970339895685838, -0.5129876197207863, 0.8075833782785392, 0.08641295835509626, 0.4514258619064031, 0.979485307923958, -0.7709227410250241, -0.22975757079917045, 0.6809181332842282, -0.6672467831914535, 0.2999260115885747, -0.8358284796377603, -0.9678231127353255, -0.5796057528242864, 0.8215199276687108, 0.8430551065492142, 0.0025446303929343994, 0.3416004482920698, -0.7218644678772581, -0.7029294290816481, 0.06405308784952601, -0.8315339342959255, -0.8496720351493912, 0.8253496380748799, -0.49946566383126734, 0.37869719553509684, -0.3770707493335514, -0.3297139945121861, -0.4749511285049737, -0.5719192318148913, 0.020945098313334354, -0.39560475480504476, -0.9630907367215409, 0.8048256114414306, -0.7610302462673757, 0.47910397672654437, 0.6593816418515247, -0.8691550776260446, -0.2634004031779609, -0.5424114607214023, 0.4748195095527683, 0.20559501748839182, 0.5790850083062431, 0.8084194617725577, 0.4566143343013944, -0.2743006251302096, -0.795040108185644, -0.13012515285291038, 0.8883820851928235, 0.927202450669496, -0.4147296652993913, 0.8340091757683705, -0.6088916820261633, 0.7719970588919112, 0.07634880726098414, 0.5864460768851731, 0.8485296787945951, 0.5106449906396306, 0.641540140111369, 0.5556699053551676, -0.970833949169791, -0.9719473112828234, -0.7261037500658543, 0.3223612963708458, -0.6911623845708224, -0.2658731346181406, 0.3813590971073899, 0.26038169660875454, 0.26133470390213615, -0.8993226013261468, 0.16780412344498497], "biases": [-1.0127387300362731, -0.9996878891569682, -0.9994677869346507, -1.0015222352925661, -1.0007913105141857, -0.9986689511459231, -0.9923506952831127, -0.9963287798859742, -1.0155846633989973, -1.0090462339375386, -1.001859902274644, -0.9997034216122015, -0.9997548655337476, -1.0000209120576435, -1.005077286827462, -0.9970966366328645, -0.9989214081454731, -0.9996883841361257, -1.0049104310392087, -1.0013020589158224, -0.9896675814867483]}