{"generation": 12192, "inputs": ["cart.x", "cart.vel", "bob.x", "bob.y", "bob.vel"], "outputs": ["acceleration"], "layers": [5, 10, 10, 1], "hidden_activation": "tanh", "output_activation": "tanh", "ticks": 2510580000, "time": 69040.16495800018, "weights": [0.2971712225862008, 0.2316312071820335, -0.3257854755957437, -0.1799091601560554, -0.6572314964359751, 0.17555316781937205, -0.5811054765973882, 0.47202173686169063, -0.41825434764976255, 0.005730038936037671, 0.7393831926521457, -1.0040288518311051, -0.710217559943191, -0.6241000421647929, 0.14341266026729105, -0.8938175423869472, -0.39097844616821054, 0.878178725568866, 0.7449369339238618, -0.7236611712604467, -1.066659120953246, 0.3460299920349971, -0.40426472029633786, -0.9920879354142962, 1.103148244887855, 0.5073557751168312, 0.9197835443556146, 2.65094430775686, -1.4389472391929632, 0.054329844825519856, -0.7058026188441527, 0.823035617016488, -0.9535488890862864, -0.13915364142038703, 0.48227028329268323, -0.5052914340810509, -0.0018751602695247817, -0.1840443466759913, -0.8412917739156033, 0.9374309700860806, -0.1998492038351773, -1.4833496926506444, 0.5528124745261841, -0.16639422403675164, 0.7165835462638629, 0.6492136214588478, 0.5877825443427299, -0.46132740391788984, -0.19709745301733858, 0.5098508309315527, 0.974947691332466, 0.9220463504876775, 0.3876622686270253, 0.22563155038653843, 0.09183634630977415, 0.8169114852804273, -0.34133705728061886, 0.8516434983271614, 0.8221108542075487, 1.0120182467025005, -0.04648244988324642, -0.36217666781221347, -0.1179056798474912, -0.34418316318984843, -0.40717918607563436, 0.8763556207662212, 0.24642306355089982, -1.0117825326085046, 0.8739169844972053, -0.1664807940872613, -0.10036688078737328, 0.9497519787926408, -1.0521364414985648, 1.2483082691742184, -0.01170156404280654, 0.13208202268631886, -0.42996522225733474, -0.9257361443302731, 0.5912093709393855, -0.9001025207893817, 0.22792279901532864, 0.9437209638173295, -0.8228748003371452, 0.7037270130896304, -0.18665518334532188, 0.06584679108590352, -0.8626371812554022, 0.4645032583076323, -0.304620437891105, 0.40292697650609643, -0.5384779101183111, 0.77356278589911, 0.10777465202872939, 0.358641112365649, 0.7567641690764776, -0.6735576838889861, -0.20007266069338941, 0.7109398414695294, -0.6676039101698861, 0.36563193100039343, -0.6891704552434043, -0.8743976995045076, -0.9933767450816082, 0.7387496172230716, 0.9529380088462206, 0.01730979515085564, 0.2583358628472043, -0.8430845955876041, -0.5856806167231152, 0.04411574046395681, -0.8387948632490854, -0.8659134770226895, 0.9479669699874204, -0.6677621707894403, 0.6937914014450237, -0.17134024924384703, -0.3454965424784175, -0.48200303780138953, -0.6146884801214486, 0.056187690618909096, -0.36793549399943454, -0.9884494208503218, 0.7227543888071756, -0.7802485923337367, 0.4830302955715889, 0.7728149623676761, -0.8625509597118312, -0.2253237297803757, -0.5213053863406016, 0.5122250969508915, 0.2155288084024338, 0.3357081173276112, 1.5380160968911831, 0.2844253409422731, -0.35440786539714264, -0.7987154411862982, -0.10975695048262735, 1.2479765964193943, 0.7607077088371262, -0.2908382197951298, 0.8356250388538549, -0.66181080960214, 0.8177762020854147, -0.006809604621303408, 0.5416782236794561, 0.8952093169753067, 0.5261290473034032, 0.5355216670357529, 0.5835077981541845, -1.0035236761044535, -0.9337584818980422, -0.6476751025916754, 0.301136523241502, -0.7375843939823725, -0.2744547748871115, 0.2994114529627177, 0.17767706924238946, 0.252749838100239, -0.8822333994582606, 0.10669990094749743], "biases": [-1.055306826738496, -1.0951505358278386, -0.9539345610351684, -0.925059298472661, -0.9340969788141694, -1.1008490025126028, -0.8941934033942425, -0.9524435105202445, -0.9701691696719478, -0.9615013422482698, -0.9981004722130473, -0.9740596690351689, -0.42695112043073724, -0.8367183991284032, -1.3363863826875502, -0.9679032848351588, -1.011429536440175, -0.8878259836731028, -0.929187119559212, -0.8195530004248237, -0.9328421108998202]}