{"generation": 12760, "inputs": ["cart.x", "cart.vel", "bob.x", "bob.y", "bob.vel"], "outputs": ["acceleration"], "layers": [5, 10, 10, 1], "hidden_activation": "tanh", "output_activation": "tanh", "ticks": 2612820000, "time": 70688.72590994835, "weights": [0.14758491374689128, 0.255367565253129, -0.48249484723137426, -0.2601315931207274, -0.5528345393917979, 0.21875542957597383, -0.6105440680219973, 0.5192094949683166, -0.44654400482263223, 0.055792737273862365, 0.8374147724172297, -0.9614736125408653, -0.7019274466635093, -0.5975102452385831, 0.192156469128753, -0.9004657364932399, -0.24965250700577768, 0.9515007429521902, 0.6847505225996384, -0.6472781189170681, -1.153476912607475, 0.319414604116457, -0.4145613302991171, -1.0192361562916699, 1.2266627958715752, 0.5823374240575611, 0.9935150007161778, 2.6223977209002403, -1.44240555118593, 0.21415551607279104, -0.7058026188441527, 0.872511700717595, -0.9535488890862864, -0.13915364142038703, 0.5870992422680933, -0.5052914340810509, 0.01916020506251335, -0.1840443466759913, -0.8412917739156033, 0.8235558504867407, -0.12082065886976766, -1.4833496926506444, 0.5145003353797759, -0.13752173903996937, 0.7291831952287067, 0.536818967889629, 0.6345029315702714, -0.4894817043925447, -0.14122107929720418, 0.4931910883745838, 1.0271899802599924, 0.889586168270435, 0.3876622686270253, 0.2558569478696234, 0.16852550571425118, 0.792828888576591, -0.30311428572391563, 0.8652660084543022, 0.8221108542075487, 0.9771390678081797, -0.04648244988324642, -0.35958684975295213, -0.10360594897583131, -0.34418316318984843, -0.4220639666039502, 0.8818753966186599, 0.2871723230326158, -1.0378164893616995, 0.8739169844972053, -0.1664807940872613, -0.04652051346446006, 1.0370015975940996, -0.9671756679534996, 1.2607870376813746, 0.15458495000054073, 0.19459714462021138, -0.42728555898352033, -0.958300832266463, 0.552728037946767, -0.9214346618673405, 0.2347438305508091, 0.9437209638173295, -0.7086117265731628, 0.7037270130896304, -0.19808414798979818, 0.14349487469955277, -0.9030374667518861, 0.4645032583076323, -0.2635685771075633, 0.37162472544261865, -0.5384779101183111, 0.77356278589911, 0.084714326652167, 0.358641112365649, 0.7729300756105175, -0.6051751567941265, -0.18452744763815251, 0.7174976978837766, -0.7183928370312007, 0.36563193100039343, -0.6891704552434043, -0.8743976995045076, -1.0397961714678856, 0.7653967960395741, 0.8987443109091188, 0.023742009460479014, 0.27592820732504697, -0.8855948520174952, -0.5856806167231152, 0.02179728193169206, -0.8387948632490854, -0.8659134770226895, 0.9479669699874204, -0.6497975861659057, 0.7451776806851418, -0.17391826550334286, -0.34239317467127073, -0.4629819894973037, -0.642915919995226, 0.03876902185781144, -0.3673565262613655, -0.9884494208503218, 0.7114742111796437, -0.7802485923337367, 0.5297852440957598, 0.8043834937114411, -0.8730944852873308, -0.24390041130750506, -0.5183136380850356, 0.4787372217797706, 0.2665402202641183, 0.3302298986486097, 1.5396545290466637, 0.2134306022587954, -0.35724610628080994, -0.7843207756615859, -0.13794389127968798, 1.3525677611442932, 0.798641574165485, -0.33979315542756594, 0.8427156984528393, -0.66181080960214, 0.7834989303912652, -0.006809604621303408, 0.518004250168556, 0.8999742724409443, 0.5261290473034032, 0.4910257562379986, 0.5341094990085445, -1.0035236761044535, -0.9969864674807293, -0.647470737301889, 0.31817081563542066, -0.673736883194119, -0.29486559465464285, 0.2994114529627177, 0.17767706924238946, 0.20342528098190774, -0.9219913617344035, 0.10669990094749743], "biases": [-1.0236735461600657, -1.1362176529751826, -0.9319676497342969, -0.9040391673006134, -0.9404413382245632, -1.1011439456062175, -0.8969852066353334, -0.9637711153747064, -0.9968470921389219, -0.9852438580383246, -1.0069829422584304, -0.9833070689637239, -0.3310362581633156, -0.8265657342301488, -1.4379505280289147, -0.961101962870704, -1.00567798974849, -0.8014237108449148, -0.9801890326732591, -0.7813644855082613, -0.9214394310695379]}