{"generation": 10448, "inputs": ["cart.x", "cart.vel", "bob.x", "bob.y", "bob.vel"], "outputs": ["acceleration"], "layers": [5, 10, 10, 1], "hidden_activation": "tanh", "output_activation": "tanh", "ticks": 2196660000, "time": 64231.64553308487, "weights": [0.2976500579729368, 0.2860442971280933, -0.3259625991172335, -0.21529100878244659, -0.6419130014938571, 0.19797935704519676, -0.5570974436247109, 0.34368237434983284, -0.465510506566378, 0.005730038936037671, 0.7498472341619892, -0.9683039052666518, -0.710217559943191, -0.6186115146268972, 0.1359123251934994, -0.8611337319513359, -0.3946774106775492, 0.8260399649100045, 0.7995815696511742, -0.7236611712604467, -1.0268210829201623, 0.344773463869904, -0.4169743842784186, -0.9754871743630734, 1.08231486507071, 0.5033453683990554, 0.9282353714552758, 2.517857376214953, -1.404123204287576, 0.05094874966151828, -0.7058026188441527, 0.823035617016488, -0.9535488890862864, -0.13915364142038703, 0.4784955577652078, -0.5052914340810509, -0.0018751602695247817, -0.1840443466759913, -0.8412917739156033, 0.9532493205133248, -0.1998492038351773, -1.3811422083151095, 0.5528124745261841, -0.19168582259512973, 0.6793011217628439, 0.6360194872434158, 0.5877825443427299, -0.5661484952915736, -0.19709745301733858, 0.5098508309315527, 0.9961358692636034, 0.9220463504876775, 0.3876622686270253, 0.22563155038653843, 0.09311835383034647, 0.8824897071874249, -0.34133705728061886, 0.8516434983271614, 0.8221108542075487, 1.00978077026147, -0.04637511571379536, -0.36217666781221347, -0.11384032991485071, -0.34418316318984843, -0.40622672982112507, 0.8763556207662212, 0.24909988246473785, -1.015425800005931, 0.8570673289529808, -0.1664807940872613, -0.19097298626972362, 0.9716085175462784, -0.950873696853224, 1.2880965186968036, 0.04904694291645866, 0.09253773709474258, -0.43185591010426244, -0.7225781739481671, 0.6348640595591254, -0.7583835195844852, 0.22792279901532864, 0.9437209638173295, -0.8297432655297572, 0.6953697413871819, -0.23765926276758575, 0.08322765898719735, -0.8429647261706011, 0.4645032583076323, -0.304620437891105, 0.40292697650609643, -0.5384779101183111, 0.77356278589911, 0.10777465202872939, 0.3581804812493213, 0.8681382687091126, -0.6735576838889861, -0.20007266069338941, 0.7109398414695294, -0.6676039101698861, 0.38732000737986716, -0.6891704552434043, -0.8743976995045076, -0.9682011827635479, 0.7389130006096857, 1.051575388880739, 0.018018791216770115, 0.2583358628472043, -0.888343737987894, -0.5878782431513109, 0.04411574046395681, -0.8387948632490854, -0.8659134770226895, 0.9446766630649402, -0.6677621707894403, 0.6485184862266725, -0.28791349169288666, -0.3454965424784175, -0.48856743598480923, -0.6146884801214486, 0.056187690618909096, -0.36793549399943454, -0.9877688891795142, 0.7227543888071756, -0.7802485923337367, 0.5209487613046746, 0.7688888135527081, -0.8625509597118312, -0.2253237297803757, -0.5213053863406016, 0.5067249059108341, 0.2374034116939444, 0.38251107989022326, 1.5303384473293158, 0.30815494939319266, -0.44762551065821604, -0.8296886116717325, -0.11332351668285554, 1.2383953928561033, 0.7607077088371262, -0.2908382197951298, 0.8356250388538549, -0.66181080960214, 0.8177762020854147, -0.006809604621303408, 0.5666455140740292, 0.98501496606, 0.5264308870771981, 0.5003710145635332, 0.5835077981541845, -1.0012821877705156, -0.9016035726702076, -0.6476751025916754, 0.301136523241502, -0.7375843939823725, -0.2744547748871115, 0.330011955105848, 0.17767706924238946, 0.252749838100239, -0.8822333994582606, 0.10669990094749743], "biases": [-1.0592332819029544, -1.1312836452919521, -0.953944748463307, -0.9436813992319524, -0.9178629603325289, -1.1014427702557166, -0.8945724146125201, -0.9457785532106192, -0.9630874863382655, -0.9557263034336506, -1.0270103669517032, -0.9625516275886548, -0.444407784900185, -0.8367183991284032, -1.279921869292609, -0.992469791378426, -0.9893077019487069, -0.9067521146191967, -0.9556439314256596, -0.8162943831657627, -0.9328421108998202]}