{"generation": 1225, "inputs": ["cart.x", "cart.vel", "bob.x", "bob.y", "bob.vel"], "outputs": ["acceleration"], "layers": [5, 10, 10, 1], "hidden_activation": "tanh", "output_activation": "tanh", "ticks": 239520000, "time": 14494.203463077545, "weights": [0.31790880334968674, 0.32890994142943075, -0.5193753725192458, -0.15953456837792432, -0.8689911836779208, 0.489452638850385, -0.7556496927666719, 0.48776284681621324, -0.5404220976597077, 0.025902735345621382, 0.7438946309396872, -0.6973101119318437, -0.6471343344316779, 0.09516412231480068, 0.17619642694005622, -0.8545862084785937, -0.3901719573993438, -0.824582611830513, 0.8105861636980249, -0.7165347846665883, -0.9974379148601402, 0.5518089055057649, -0.21147292870423653, 0.2712095244685013, 0.9340974850682584, 0.43689736831781806, 0.9080259200917329, 0.6026026835363276, -1.1005858309111165, 0.007054276481511844, -0.6859301199851449, 0.6390305841431849, -0.9234165073155826, -0.1404154646437981, 0.6631212491546403, -0.5119336028535609, -0.01776574893393179, -0.12264375166568378, -0.8385607744583502, 0.9573968804795827, -0.19280595226066413, -0.8127537661788085, 0.5553585166775961, -0.7884984544598176, 0.6711354377833052, 0.6360194872434158, 0.5877825443427299, -0.5320624870269424, -0.19441816741901874, 0.5191254684722508, 1.0318615283119983, 0.9446504207304607, 0.4456984398226191, 0.36090086043927494, 0.268641298221551, 0.805916264002995, -0.4046599363093116, 0.8380185058808098, 0.9304729057529505, 0.8059414030090234, -0.04847273851931771, -0.3436976634551169, 0.09389573799843826, -0.26673668527111094, -0.511691418538757, 0.7079397426255931, 0.2491919624457284, -0.8682710990676387, 0.8598093580555481, -0.1349060725573772, -0.6243560857631366, 0.5760364712940671, -0.3531462007792219, 0.6429291092456717, -0.04853297597461248, 0.15661356854708494, 0.029450897600896128, -0.06789636109534297, 0.1843051923336862, 0.3127247893125886, 0.20770703348954564, 0.9039219588309315, -0.5920535453777227, 0.8898040540221465, -0.2852043993454257, 0.13626565033497087, -0.7715316901777749, 0.5689364210006993, -0.2935999118158134, 0.495122821449131, -0.5270296775754502, 0.8140149267350921, 0.08896710279567244, 0.44572892528107505, 0.9771500463175696, -0.7667608916285832, -0.22819185699680508, 0.6762536783130905, -0.6676039101698861, 0.3039702773810964, -0.7499151867560083, -0.9217136042830498, -0.5768571865400737, 0.8215199276687108, 0.8430551065492142, 0.0025446303929343994, 0.33615671322710533, -0.7265981905981579, -0.6160924033924222, 0.05913928754543723, -0.838005754250142, -0.8654098293518895, 0.8281409711106849, -0.5039301743656639, 0.37869719553509684, -0.37283518953552486, -0.3220931442029011, -0.4749511285049737, -0.5873299232770807, 0.020437521366683583, -0.38321024720919705, -0.9550588504314981, 0.8048256114414306, -0.7607584112494455, 0.47793234808554635, 0.659981453555668, -0.8691550776260446, -0.2664069879956969, -0.5397400890343823, 0.4776808957000551, 0.18413334062675227, 0.5811154006769285, 0.8084194617725577, 0.45271142295969613, -0.2743006251302096, -0.7912876009466756, -0.13012515285291038, 0.8864267786557198, 0.9104467352731155, -0.40691610154854196, 0.84698317986885, -0.6102163694838324, 0.7763849161631736, 0.07688547770696152, 0.5864460768851731, 0.8493678774667413, 0.5106449906396306, 0.641540140111369, 0.554228832429201, -0.970833949169791, -1.0133279111428275, -0.6843035754317582, 0.301136523241502, -0.698970426698128, -0.27425117924380926, 0.3674614086588591, 0.1890411638854863, 0.2515685671970481, -0.9115014662194754, 0.15066541274595235], "biases": [-1.038639707709485, -0.993738585685616, -0.993319878701869, -1.028585083824262, -1.0018334686994288, -1.0431465218057159, -0.8877397441648939, -0.9965118635468385, -1.0204703039336867, -1.0163158866765227, -1.0271318318098688, -1.0153262876381164, -0.9981328763984294, -1.0051584837497343, -1.0097761304126427, -0.9966972602183388, -1.0011065752690884, -0.9963418585293623, -1.010622667880666, -1.0085551578888252, -0.9471137911085328]}