{"generation": 16980, "inputs": ["cart.x", "cart.vel", "bob.x", "bob.y", "bob.vel"], "outputs": ["acceleration"], "layers": [5, 10, 10, 1], "hidden_activation": "tanh", "output_activation": "tanh", "ticks": 4075230000, "time": 112000.28476881981, "weights": [0.24990976453370686, 0.33028931226331304, -0.4458671610122668, -0.2459744014403721, -0.6322543071816542, 0.24068445081434814, -0.671406505137491, 0.4771546364779053, -0.4468973102381346, 0.13580476931278374, 0.8637788132409504, -0.8466235759022074, -0.6930001921227894, -0.8172883122785566, 0.19107127144029543, -0.8628135392782612, -0.4336189701334987, 1.1478482886815735, 0.7701724914794285, -0.6863368749429519, -1.0677878176691729, 0.33804421065412704, -0.44432868809678705, -1.0830656329671846, 1.072660665262346, 0.6896658919064368, 1.0348908516190203, 2.6143490867301225, -1.5476480473931553, 0.12579321149896705, -0.7019814895028778, 0.8994068800012995, -0.9465270285745218, -0.16029527067272992, 0.5808307806061287, -0.549072112624354, 0.01876015633743573, -0.19944119759719908, -0.8044869036289765, 0.8025275631626764, -0.4596791090370916, -1.4833626409402103, 0.46433471513313107, -0.12707061695217026, 0.6570113665061125, 0.6457216388908792, 0.426787680012102, -0.6716902832084845, 0.043945521656413994, 0.7272218088368095, 1.0349529046810162, 0.9457065805924632, 0.38330952784325717, 0.28361399833313317, 0.2536400853881922, 0.8924531489948696, -0.282398603160975, 0.8872276395199798, 0.856695778086459, 0.9919891416569111, 0.017542547231501577, -0.3835941474929912, -0.08453046458679778, -0.33536408094646897, -0.4605944357909276, 1.0320579986030087, 0.30458572894437536, -1.1330675427095196, 0.8909528910346999, -0.1510405838823447, -0.016761355944471402, 1.0964914026419748, -0.9578152179144982, 1.287309507817782, 0.11235218075949036, 0.09863497952727422, -0.46725793040557223, -0.873734431131496, 0.4931829810568858, -0.9219977875709887, 0.2674003257508079, 0.945508824570949, -0.7556101238992063, 0.6977512914558419, -0.31565565531069023, 0.03258948306015284, -0.9005812788067111, 0.46125454504144814, -0.26454960717912124, 0.3635297125100136, -0.5668481248680592, 0.7763308582538647, 0.04219506886971577, 0.33836036535558733, 0.5998097627000887, -0.5697290468441564, -0.22256622990249408, 0.7015676685127493, -0.726113437924624, 0.39479778745403493, -0.6920036573203517, -0.916657496878136, -0.8772634520897016, 0.7738976203071347, 0.8566726247963551, -0.023132492114459197, 0.32686800614130584, -0.8491021758160222, -0.6029659362757371, -0.023950491681966352, -0.8647406511839948, -0.8618333052230297, 0.91681925511857, -0.598902592614189, 0.7643758639968788, -0.15099706197648996, -0.3317664376701848, -0.5758700920658061, -0.6496025916555416, 0.009006386432272705, -0.3432573288023065, -1.0350327631608707, 0.5995411583942527, -0.7454769110139446, 0.4600929176049109, 0.6367343677265246, -0.8626728359327056, -0.15752931545181814, -0.5965717971783092, 0.4814636975407551, 0.30492067374207243, 0.37724327184241585, 1.4412560892533939, 0.14149214338586955, -0.1631182637198758, -0.8562220211861497, -0.1523036337340675, 1.3779033542671262, 0.7864749745920324, -0.2703622588805327, 0.8734451422015727, -0.6627295697358824, 0.6759589203023234, -0.020235278860611255, 0.7918801017072901, 0.8971555805617429, 0.5788679522654391, 0.47881294861954016, 0.5161863575098398, -1.0776630988857576, -0.9482444953403316, -0.5926442097098886, 0.32179816611745105, -0.6030320200319115, -0.2610752792513531, 0.27712878555741843, 0.2697407390994821, 0.17665925874122584, -0.8624043222673571, 0.07010601228681261], "biases": [-1.015486480583863, -1.2539423717138276, -0.972634978576482, -0.8631500755983619, -0.9020751330323237, -1.1396571707443999, -0.9418670469734303, -0.9366809137400776, -0.9491700743595047, -0.9848887549834685, -1.127884216929184, -0.9745482824643684, -0.33882487939182593, -0.7496716379552882, -1.3719949535610152, -0.7949941956609439, -1.109243931855369, -0.7442840435024828, -0.9919497805471589, -0.8614312457812919, -0.9034761795422617]}