{"generation": 15460, "inputs": ["cart.x", "cart.vel", "bob.x", "bob.y", "bob.vel"], "outputs": ["acceleration"], "layers": [5, 10, 10, 1], "hidden_activation": "tanh", "output_activation": "tanh", "ticks": 3423900000, "time": 91876.0735476017, "weights": [0.24909003771745145, 0.3300683103926125, -0.44236086665760915, -0.2452905604541777, -0.6314275887042116, 0.24120676916159242, -0.6719842378009724, 0.4751454386809186, -0.44674235629716613, 0.13654446104620754, 0.8620704117615607, -0.8464967044920461, -0.6924981135115459, -0.817091227623525, 0.19277209149637586, -0.8626710829481387, -0.43245882635916477, 1.1464606647844298, 0.7706945605429846, -0.6863368749429519, -1.0693237023311324, 0.3385783400545336, -0.4479852547484196, -1.0825341747748336, 1.0704385784210884, 0.6875695249071343, 1.0347877260462004, 2.6151225178654904, -1.5493623533368235, 0.12563470176298125, -0.7045985807781708, 0.9013312760770398, -0.9535488890862864, -0.1594418430979171, 0.5802772564493459, -0.5455212147659877, 0.01780483481731843, -0.19878931919884738, -0.8050763683498297, 0.8026233849115728, -0.4596234407094548, -1.4820394178442704, 0.465221306656003, -0.12632243511516814, 0.6573928180279229, 0.6456933262109225, 0.42783031432211566, -0.6693951688515939, 0.04471762419648482, 0.727810655377923, 1.0337703175272508, 0.9468916517381577, 0.3825954703695781, 0.28100883477073035, 0.25477831724271793, 0.8942794541651006, -0.28506437440408505, 0.8870569476797115, 0.8577034966072484, 0.9912858766332485, 0.017289461112623798, -0.3856759213595281, -0.08465663018010382, -0.33588152282162875, -0.46131560455041826, 1.0331610805108342, 0.3041978828855798, -1.1305933680645557, 0.890231096253012, -0.151828415464754, -0.015856876388572805, 1.0970230594104027, -0.9592656315339583, 1.287423810716427, 0.11100019705939249, 0.09516876180035647, -0.4674212934108406, -0.8731949336320031, 0.4928803753770952, -0.9208661381928012, 0.2653347236896861, 0.9435513881887935, -0.7554971854097841, 0.6970464022483096, -0.3185211957417844, 0.034243063023286245, -0.897747214112444, 0.45926675556302476, -0.2635685771075633, 0.36330177191044166, -0.5672255020050264, 0.7758133180102998, 0.042506340375799694, 0.33744195422586765, 0.5998097627000887, -0.5694215455811162, -0.22098704322540094, 0.7011789129624858, -0.7260785564408074, 0.3954854895197286, -0.6914462420537038, -0.9183465450178138, -0.878203155465971, 0.771939634511804, 0.8560977485247145, -0.023386379229078064, 0.3272326657658097, -0.8490961189398436, -0.6036643448527415, -0.02319649057039481, -0.863733856966692, -0.863575370909568, 0.9183827151291988, -0.5999909641197413, 0.7650843405097553, -0.15090448815357815, -0.3305868769371094, -0.5769860227528165, -0.6516269132162404, 0.008117566496146362, -0.3452576000911874, -1.0353846620518823, 0.6000992007105389, -0.7460885091066437, 0.46214677126344883, 0.6368954778993509, -0.8638270190055563, -0.15643969000712085, -0.5990589674540929, 0.48166919829387134, 0.3059709433040587, 0.3766513964472335, 1.4421330993202037, 0.14212611990829593, -0.16282825827960998, -0.855608715447206, -0.15154827772659737, 1.3801494015246083, 0.786522258945226, -0.2714203431223198, 0.8726920744679254, -0.6622171473666826, 0.6757260899684482, -0.02075575568946445, 0.7908837046383378, 0.8956737741376645, 0.5786581551001833, 0.47738598100561214, 0.5157682027390761, -1.0776965366588311, -0.9487821277140535, -0.5960974567524976, 0.321160391242517, -0.6011140222680484, -0.25903184310524147, 0.27840828997960015, 0.27000790256757257, 0.1774626121264222, -0.8603940927001471, 0.07082685121754405], "biases": [-1.0120871717781086, -1.2541273772672261, -0.9684361840208238, -0.8624602477213948, -0.9004883713522832, -1.139376466323461, -0.940207088823938, -0.938874314431, -0.9492217965539882, -0.9874948837276528, -1.125522775730037, -0.9727667482397452, -0.33807920891713256, -0.7511532886104859, -1.3707531438167189, -0.7960902174829528, -1.1103913754327328, -0.7473624097976077, -0.9931588478257067, -0.860427316583786, -0.900498471088184]}