{"generation": 12370, "inputs": ["cart.x", "cart.vel", "bob.x", "bob.y", "bob.vel"], "outputs": ["acceleration"], "layers": [5, 10, 10, 1], "hidden_activation": "tanh", "output_activation": "tanh", "ticks": 2542620000, "time": 69531.99160003662, "weights": [0.2971712225862008, 0.22333732379369337, -0.34935667903966444, -0.2926814234460439, -0.6725042246988628, 0.17555316781937205, -0.5396949025936726, 0.47202173686169063, -0.3820880520527053, -0.015029413733041223, 0.7393831926521457, -1.0040288518311051, -0.6904014443723431, -0.6475361542732623, 0.14341266026729105, -0.8938175423869472, -0.35043102333775955, 0.9023557279036771, 0.7147240509339867, -0.7697163285704705, -1.1239510762802616, 0.3460299920349971, -0.3901911129771942, -0.9421863470903427, 1.1270282454086007, 0.5254753161538502, 0.9583583385128019, 2.65094430775686, -1.4389472391929632, 0.07278972297241061, -0.7058026188441527, 0.872511700717595, -0.9535488890862864, -0.13915364142038703, 0.5150442530493045, -0.5052914340810509, -0.0018751602695247817, -0.1840443466759913, -0.8412917739156033, 0.9281354711327171, -0.2360975303734555, -1.4833496926506444, 0.581371285233595, -0.11901427005672559, 0.7067522056859659, 0.5953842230185945, 0.6142530761948067, -0.5078035003105089, -0.19713370223662263, 0.5098508309315527, 0.9543035977812644, 0.9220463504876775, 0.3876622686270253, 0.30352008700195793, 0.08300485936382604, 0.8273973877422431, -0.30311428572391563, 0.8516434983271614, 0.8221108542075487, 0.9822411131927482, -0.04648244988324642, -0.36217666781221347, -0.1179056798474912, -0.34418316318984843, -0.39915701753570193, 0.8412866587365987, 0.24642306355089982, -1.0117825326085046, 0.8739169844972053, -0.1664807940872613, -0.023785264729885257, 1.0370015975940996, -1.0615292379065617, 1.2483082691742184, 0.020399457923884277, 0.11438293249780322, -0.42996522225733474, -0.958300832266463, 0.5684855424187645, -0.9264564000391377, 0.22792279901532864, 0.9437209638173295, -0.7446719341321573, 0.7037270130896304, -0.237835056761446, 0.04504818691093123, -0.8626371812554022, 0.4645032583076323, -0.2635685771075633, 0.40292697650609643, -0.5384779101183111, 0.77356278589911, 0.10777465202872939, 0.358641112365649, 0.7439529399252339, -0.6735576838889861, -0.20007266069338941, 0.7109398414695294, -0.6676039101698861, 0.36563193100039343, -0.6891704552434043, -0.8743976995045076, -0.9933767450816082, 0.7278401693746003, 0.893189720418498, 0.01730979515085564, 0.2583358628472043, -0.8430845955876041, -0.5856806167231152, 0.04411574046395681, -0.8387948632490854, -0.8659134770226895, 0.9479669699874204, -0.6677621707894403, 0.6937914014450237, -0.17134024924384703, -0.3454965424784175, -0.48200303780138953, -0.6146884801214486, 0.052455042752330545, -0.36793549399943454, -0.9884494208503218, 0.7412585146352036, -0.7802485923337367, 0.5297852440957598, 0.7728149623676761, -0.8579097527819728, -0.2253237297803757, -0.5183136380850356, 0.4787372217797706, 0.2155288084024338, 0.3357081173276112, 1.5380160968911831, 0.2844253409422731, -0.2750582111107864, -0.7843207756615859, -0.14291861221996788, 1.2664819484859586, 0.7607077088371262, -0.2908382197951298, 0.8356250388538549, -0.66181080960214, 0.8259951186370734, -0.006809604621303408, 0.5047332268108216, 0.8952093169753067, 0.5261290473034032, 0.5355216670357529, 0.5341094990085445, -1.0035236761044535, -0.9788663554748114, -0.6476751025916754, 0.2853938710478861, -0.7375843939823725, -0.2744547748871115, 0.2994114529627177, 0.17767706924238946, 0.252749838100239, -0.8822333994582606, 0.10669990094749743], "biases": [-1.0380662349057903, -1.121326533465564, -0.9543118708050531, -0.930503157624885, -0.9419487945671877, -1.1008490025126028, -0.8943169391636094, -0.9679490534292754, -0.9654203177140672, -0.9299195701440118, -1.0025490600286062, -0.9877066565345921, -0.4042613268828697, -0.8428456841061727, -1.3364218358182585, -0.9659631575503422, -1.0111917030809403, -0.8755903294456451, -0.9322925707085526, -0.8157467093076443, -0.9409042374804429]}