{"generation": 11861, "inputs": ["cart.x", "cart.vel", "bob.x", "bob.y", "bob.vel"], "outputs": ["acceleration"], "layers": [5, 10, 10, 1], "hidden_activation": "tanh", "output_activation": "tanh", "ticks": 2451000000, "time": 68175.7902584076, "weights": [0.2971712225862008, 0.28764700755339717, -0.3257854755957437, -0.1799091601560554, -0.6572314964359751, 0.17555316781937205, -0.5811054765973882, 0.4093910649090354, -0.46570914085706794, 0.005730038936037671, 0.7498472341619892, -1.0059480262934215, -0.710217559943191, -0.6241000421647929, 0.14341266026729105, -0.8611337319513359, -0.39097844616821054, 0.845383861506663, 0.7795772772765189, -0.7236611712604467, -1.066659120953246, 0.298667415485752, -0.4041531733815472, -0.9928761317691702, 1.061043936853356, 0.5073557751168312, 0.9451217780508169, 2.65094430775686, -1.404123204287576, 0.054329844825519856, -0.7058026188441527, 0.823035617016488, -0.9535488890862864, -0.13915364142038703, 0.4784955577652078, -0.5052914340810509, -0.0018751602695247817, -0.1840443466759913, -0.8412917739156033, 0.9374309700860806, -0.1998492038351773, -1.4833496926506444, 0.5528124745261841, -0.19168582259512973, 0.6969815603270222, 0.6358269399003661, 0.5877825443427299, -0.4746690955153545, -0.19709745301733858, 0.5098508309315527, 0.9961358692636034, 0.9220463504876775, 0.3876622686270253, 0.22563155038653843, 0.09370055007055383, 0.7808162600460857, -0.34133705728061886, 0.8516434983271614, 0.8221108542075487, 1.0120182467025005, -0.04648244988324642, -0.36217666781221347, -0.11384032991485071, -0.34418316318984843, -0.40717918607563436, 0.8763556207662212, 0.24642306355089982, -1.0117825326085046, 0.8570673289529808, -0.1664807940872613, -0.10036688078737328, 0.9959405557189485, -1.0418959140266784, 1.2640887766098206, 0.03180335584002131, 0.13382052119937615, -0.42996522225733474, -0.8425411565931931, 0.6145429743413323, -0.9077035208730393, 0.22792279901532864, 0.9437209638173295, -0.8080572924953031, 0.6953697413871819, -0.18665518334532188, 0.06584679108590352, -0.8626371812554022, 0.4645032583076323, -0.304620437891105, 0.40292697650609643, -0.5384779101183111, 0.77356278589911, 0.10777465202872939, 0.35848274152388526, 0.8022541101694658, -0.6735576838889861, -0.20007266069338941, 0.7109398414695294, -0.6676039101698861, 0.36563193100039343, -0.6891704552434043, -0.8743976995045076, -0.9567478198688952, 0.7387496172230716, 1.016895922203042, 0.02824827725916446, 0.2583358628472043, -0.888343737987894, -0.5856806167231152, 0.04411574046395681, -0.8387948632490854, -0.8659134770226895, 0.9479669699874204, -0.6677621707894403, 0.6937914014450237, -0.1737587923524213, -0.3454965424784175, -0.4936102063289885, -0.6146884801214486, 0.056187690618909096, -0.36793549399943454, -0.9884494208503218, 0.7227543888071756, -0.7802485923337367, 0.4830302955715889, 0.7945281780631122, -0.8625509597118312, -0.2253237297803757, -0.5213053863406016, 0.5122250969508915, 0.2374034116939444, 0.38251107989022326, 1.5380160968911831, 0.30778987530495866, -0.36066150441971145, -0.7693159666249751, -0.12465610280514655, 1.2479765964193943, 0.7607077088371262, -0.2908382197951298, 0.8356250388538549, -0.66181080960214, 0.8177762020854147, -0.006809604621303408, 0.5612323788115672, 0.9161861029891146, 0.5261290473034032, 0.5003710145635332, 0.5835077981541845, -1.0035236761044535, -0.9016035726702076, -0.6476751025916754, 0.301136523241502, -0.7375843939823725, -0.2744547748871115, 0.330011955105848, 0.17767706924238946, 0.252749838100239, -0.8822333994582606, 0.10669990094749743], "biases": [-1.0592332819029544, -1.1163456947152317, -0.953944748463307, -0.9436813992319524, -0.9277080085800208, -1.1008490025126028, -0.8941934033942425, -0.9457785532106192, -0.9630874863382655, -0.9815033090852787, -1.025819543624639, -0.964589303139391, -0.42695112043073724, -0.8367183991284032, -1.3093919040066206, -0.9938112095189667, -1.0025716850723312, -0.9160602317252077, -0.9557100752000461, -0.8404146142122773, -0.9328421108998202]}