{"generation": 16280, "inputs": ["cart.x", "cart.vel", "bob.x", "bob.y", "bob.vel"], "outputs": ["acceleration"], "layers": [5, 10, 10, 1], "hidden_activation": "tanh", "output_activation": "tanh", "ticks": 3792900000, "time": 103042.308157444, "weights": [0.2494454635827399, 0.3298218354285209, -0.44482968595943534, -0.24681024088520087, -0.6316603983499169, 0.24136251216567828, -0.6719842378009724, 0.47635539158738816, -0.446181308550465, 0.13647220276542163, 0.8620704117615607, -0.8464968591223944, -0.692525502787566, -0.8176275398219554, 0.19204364785540842, -0.8626710829481387, -0.4328779392496678, 1.1471452510705995, 0.7710605227389195, -0.6863368749429519, -1.0684792716345994, 0.3385783400545336, -0.44705607051775476, -1.0830658453066069, 1.071435276302089, 0.6878052740532953, 1.035753739022164, 2.6145161756775286, -1.5480616188268272, 0.1262110057250804, -0.7045985807781708, 0.9012532992646332, -0.9537271585026168, -0.1596883281576508, 0.5808307806061287, -0.5469041331115414, 0.017898242078518006, -0.19944119759719908, -0.8049328899444138, 0.8028618799100464, -0.4596234407094548, -1.4833626409402103, 0.46534116690367683, -0.12632243511516814, 0.6570113665061125, 0.6458788554054, 0.42783031432211566, -0.6698333661174898, 0.04471762419648482, 0.7281900891230134, 1.0337703175272508, 0.9468916517381577, 0.3835173053047519, 0.28186082044131516, 0.25227189622566554, 0.8942794541651006, -0.2849271789544592, 0.8872546411923645, 0.8577034966072484, 0.9928184027289682, 0.01708098836510289, -0.3856759213595281, -0.08411180526261393, -0.33588152282162875, -0.46006379853485796, 1.0322946141514906, 0.3041978828855798, -1.1310873439950073, 0.8902131831584867, -0.15024244139447665, -0.015856876388572805, 1.0964914026419748, -0.9580748760637721, 1.287363124440803, 0.11100019705939249, 0.09695342274741764, -0.4674212934108406, -0.8715230930405266, 0.4924570747026937, -0.921276617823696, 0.2654367171306967, 0.9444563259733906, -0.7550399293825739, 0.6967527107540628, -0.3172908278434726, 0.03369104901083056, -0.9005812788067111, 0.4625039909043312, -0.265117512421254, 0.36330177191044166, -0.5672255020050264, 0.7758133180102998, 0.04304255889026513, 0.33744195422586765, 0.5998097627000887, -0.5691573270092823, -0.22102625846469884, 0.7011789129624858, -0.7260785564408074, 0.3945997764700999, -0.6928997675136047, -0.9172553510856005, -0.878203155465971, 0.7720995188723638, 0.8562812431017772, -0.02370575434264924, 0.3272326657658097, -0.8491021758160222, -0.6036643448527415, -0.02262418092871138, -0.8642157117240998, -0.8627119861175689, 0.9184944344452014, -0.5993024333754716, 0.764223296562767, -0.15179360663231717, -0.3307835347743006, -0.5769860227528165, -0.6506231702396935, 0.008979950326963684, -0.34366821187777974, -1.0353846620518823, 0.6001070597917345, -0.7460885091066437, 0.46126639484988824, 0.6362825671036425, -0.86356715661938, -0.15619992516298575, -0.597584432119838, 0.48166919829387134, 0.3059709433040587, 0.3766513964472335, 1.4421330993202037, 0.14180745476882745, -0.16261203152067452, -0.8562220211861497, -0.15038173615425934, 1.3802818588482941, 0.786522258945226, -0.27079557671963783, 0.8725797280170225, -0.6625714189403903, 0.6757260899684482, -0.02120870569567561, 0.7914347344682435, 0.8959805177441773, 0.5789629263701109, 0.4770889151627436, 0.5156760062762297, -1.0784650818064634, -0.9487821277140535, -0.594461019412117, 0.321160391242517, -0.6011140222680484, -0.25904815233590256, 0.27840828997960015, 0.27011322964714307, 0.1774626121264222, -0.8604572678260926, 0.07072142874606864], "biases": [-1.011872303052107, -1.2531423301606102, -0.9689647137103653, -0.8629149463813098, -0.900160554865134, -1.1394658621140932, -0.9409466317208778, -0.9377510709483301, -0.9491718760008514, -0.9865749202699118, -1.1255103029182405, -0.9727260351167611, -0.33819571498024054, -0.7500182845501959, -1.372028201036518, -0.7961854778195456, -1.1104291567779354, -0.7467835466960219, -0.9941813159516413, -0.861926576382739, -0.9006074334229967]}