{"generation": 1031, "inputs": ["cart.x", "cart.vel", "bob.x", "bob.y", "bob.vel"], "outputs": ["acceleration"], "layers": [5, 10, 10, 1], "hidden_activation": "tanh", "output_activation": "tanh", "ticks": 134760000, "time": 9360.441545009613, "weights": [0.3161022258220011, 0.32890994142943075, -0.5193753725192458, -0.1571879644918856, -0.8689911836779208, 0.5072856708545521, -0.7625699614001333, 0.48776284681621324, -0.5404220976597077, 0.025902735345621382, 0.7459412280377796, -0.6973101119318437, -0.6471343344316779, 0.10916158691241906, 0.17619642694005622, -0.8565680849989616, -0.39131815387538077, -0.8428191589338841, 0.8284754030712526, -0.7165347846665883, -0.9649407223298476, 0.5518089055057649, -0.21147292870423653, 0.27493151558411316, 0.9340974850682584, 0.4055334815933604, 0.9049460986459372, 0.5773885631254022, -1.0727059173339792, 0.007054276481511844, -0.6859301199851449, 0.6390305841431849, -0.9234165073155826, -0.14600679889305587, 0.6631212491546403, -0.5141889313319201, -0.01776574893393179, -0.12264375166568378, -0.8403944110776169, 0.9573968804795827, -0.19280595226066413, -0.8127537661788085, 0.5553585166775961, -0.7981227251267164, 0.6711354377833052, 0.6360194872434158, 0.587845706496249, -0.5127427915206848, -0.19441816741901874, 0.5191254684722508, 1.0318615283119983, 0.936215916322396, 0.4456984398226191, 0.36090086043927494, 0.268641298221551, 0.805916264002995, -0.4046599363093116, 0.8380185058808098, 0.9304729057529505, 0.8059414030090234, -0.04681576830091891, -0.3436976634551169, 0.09389573799843826, -0.26673668527111094, -0.511691418538757, 0.7079397426255931, 0.2491919624457284, -0.8682710990676387, 0.8598093580555481, -0.1349060725573772, -0.6451162373371992, 0.5530372585689177, -0.3531462007792219, 0.640227785115075, -0.04853297597461248, 0.15661356854708494, 0.029450897600896128, -0.06789636109534297, 0.1729882818052113, 0.3127247893125886, 0.2110271893623669, 0.9058788664900411, -0.5920535453777227, 0.8898040540221465, -0.2852043993454257, 0.13626565033497087, -0.7715316901777749, 0.5689364210006993, -0.2935999118158134, 0.495122821449131, -0.5249759785612041, 0.8114519214979784, 0.08896710279567244, 0.45107907168636746, 0.9771500463175696, -0.7667608916285832, -0.22975757079917045, 0.6762536783130905, -0.6661473293561059, 0.3039702773810964, -0.7516848805267123, -0.9335596575293764, -0.5768571865400737, 0.8215199276687108, 0.8430551065492142, 0.0025446303929343994, 0.33615671322710533, -0.7265981905981579, -0.6195841149052446, 0.05913928754543723, -0.838005754250142, -0.8654098293518895, 0.8255743973005597, -0.501141156342005, 0.37869719553509684, -0.37283518953552486, -0.3220931442029011, -0.4749511285049737, -0.5873299232770807, 0.020437521366683583, -0.38422690611129817, -0.9550588504314981, 0.8048256114414306, -0.7607584112494455, 0.47793234808554635, 0.659981453555668, -0.8691550776260446, -0.2664069879956969, -0.5337980681917657, 0.4776808957000551, 0.18302787069124024, 0.5785954372697392, 0.8084194617725577, 0.45271142295969613, -0.2743006251302096, -0.7912876009466756, -0.13012515285291038, 0.8864267786557198, 0.9104467352731155, -0.40691610154854196, 0.84698317986885, -0.6102163694838324, 0.7763849161631736, 0.07688547770696152, 0.5864460768851731, 0.8493678774667413, 0.5106449906396306, 0.641540140111369, 0.554228832429201, -0.970833949169791, -1.0221290273842079, -0.6843035754317582, 0.301136523241502, -0.698970426698128, -0.27425117924380926, 0.3684922745043824, 0.19497352529332213, 0.2534986485906258, -0.9072653246766545, 0.15066541274595235], "biases": [-1.039316158647728, -0.9939617176030923, -0.995813453086248, -1.0278287732175964, -1.001929433938871, -1.0386169680525337, -0.8872688951716842, -0.9979477135916281, -1.021296208724612, -1.0186150671434941, -1.0219081045442167, -1.0130974402622461, -0.9974122309635238, -1.0061010588137547, -1.0108580059607428, -0.9981937837012093, -1.000956374207141, -0.995597300360465, -1.0102429499964167, -1.0079596749280602, -0.948672923134455]}