{"generation": 16930, "inputs": ["cart.x", "cart.vel", "bob.x", "bob.y", "bob.vel"], "outputs": ["acceleration"], "layers": [5, 10, 10, 1], "hidden_activation": "tanh", "output_activation": "tanh", "ticks": 4066230000, "time": 111669.15544986725, "weights": [0.2500958959360053, 0.33028931226331304, -0.4456364529479526, -0.2459744014403721, -0.6322543071816542, 0.24188440950993773, -0.671406505137491, 0.4771546364779053, -0.4468973102381346, 0.13580476931278374, 0.8624831877529742, -0.8466235759022074, -0.692525502787566, -0.8178067879561317, 0.19107127144029543, -0.8618769282795807, -0.43267298501065865, 1.147300437811514, 0.7703288752820238, -0.6863368749429519, -1.0677878176691729, 0.33804421065412704, -0.44432868809678705, -1.0836094231755133, 1.0718514158641814, 0.6888386380012751, 1.0348908516190203, 2.6143490867301225, -1.5476480473931553, 0.12698307947388038, -0.7041776937869363, 0.8994068800012995, -0.9504506583060075, -0.16029527067272992, 0.5808307806061287, -0.5485606618816689, 0.017265148148284754, -0.19944119759719908, -0.8044869036289765, 0.8025275631626764, -0.4596234407094548, -1.4833626409402103, 0.46445722561462705, -0.12686999459473797, 0.6570113665061125, 0.6459220663252794, 0.42783031432211566, -0.6707293121084777, 0.04471762419648482, 0.7281900891230134, 1.0337703175272508, 0.946294297844978, 0.38252509520172706, 0.28361399833313317, 0.2536400853881922, 0.8924531489948696, -0.28269874821969115, 0.8872276395199798, 0.856695778086459, 0.9919891416569111, 0.018102835060151236, -0.38399692792651247, -0.08453046458679778, -0.33536408094646897, -0.4605944357909276, 1.0320407799190483, 0.30458572894437536, -1.1330675427095196, 0.8909528910346999, -0.1510405838823447, -0.016698337559932035, 1.0964914026419748, -0.9582631851644158, 1.287309507817782, 0.11126121767014019, 0.09841695449423335, -0.46719871768514465, -0.872478468412105, 0.49253651441922225, -0.921893098006625, 0.26626274759148993, 0.9462976254720988, -0.7550723010343575, 0.6968769577926655, -0.31702422057960483, 0.03269679427386168, -0.9005812788067111, 0.46125454504144814, -0.26454960717912124, 0.36330177191044166, -0.5672255020050264, 0.7759987102050988, 0.04219506886971577, 0.3379560397740969, 0.5998097627000887, -0.5688297610298608, -0.22197215021229558, 0.701550265140603, -0.7260785564408074, 0.3942592993548388, -0.6928997675136047, -0.9172553510856005, -0.8772634520897016, 0.77300731336404, 0.8562812431017772, -0.023132492114459197, 0.32714166626075136, -0.8491021758160222, -0.6036643448527415, -0.023635175447355578, -0.8647406511839948, -0.8623600584616911, 0.91681925511857, -0.5991845854700761, 0.7640089290626175, -0.1511069335137322, -0.3317664376701848, -0.5764900960435775, -0.6496025916555416, 0.009006386432272705, -0.34366821187777974, -1.0350327631608707, 0.5991242519049167, -0.7454769110139446, 0.4606926531824446, 0.6367343677265246, -0.8643569700642837, -0.15752931545181814, -0.596713203223337, 0.4814636975407551, 0.3049168740155332, 0.37724327184241585, 1.4419542953230018, 0.14071958178039487, -0.1631182637198758, -0.8562220211861497, -0.151973099213078, 1.3792760375269728, 0.786522258945226, -0.2703622588805327, 0.8734451422015727, -0.6631628731203041, 0.6759589203023234, -0.020952034800423045, 0.7918801017072901, 0.8962731018469774, 0.5791302695476525, 0.4781315848732161, 0.5156661811330449, -1.0776630988857576, -0.9482444953403316, -0.5949500691770935, 0.321160391242517, -0.6030320200319115, -0.25940964395254534, 0.27840828997960015, 0.2698617368163916, 0.17665925874122584, -0.8609669313020383, 0.07072142874606864], "biases": [-1.0152550226860342, -1.2535896480327848, -0.9711863659877231, -0.8638084959923059, -0.9004256297023319, -1.139238518882164, -0.9412822883695424, -0.936852175762648, -0.9496487603142293, -0.9851685196948456, -1.126605554683532, -0.9733649839086507, -0.3381679723554436, -0.7502634258839599, -1.3717779027940256, -0.7951842236819128, -1.109533242530727, -0.745054008266691, -0.9929352100098962, -0.861333401761822, -0.9026297853831933]}