{"generation": 12680, "inputs": ["cart.x", "cart.vel", "bob.x", "bob.y", "bob.vel"], "outputs": ["acceleration"], "layers": [5, 10, 10, 1], "hidden_activation": "tanh", "output_activation": "tanh", "ticks": 2598420000, "time": 70434.00261807442, "weights": [0.1844928064572367, 0.255367565253129, -0.4166377775347698, -0.28888125218754424, -0.6407610119943775, 0.2378445346174161, -0.6105440680219973, 0.5192094949683166, -0.43429097594654936, 0.055792737273862365, 0.8374147724172297, -0.9614736125408653, -0.6972647690746818, -0.61328980103688, 0.192156469128753, -0.9315135755076199, -0.2522108750799224, 0.9515007429521902, 0.6847505225996384, -0.7252918118068303, -1.1619357829611394, 0.319414604116457, -0.4145613302991171, -0.9916706778639958, 1.2266627958715752, 0.5823374240575611, 0.9935150007161778, 2.6223977209002403, -1.44240555118593, 0.152828110958999, -0.7058026188441527, 0.872511700717595, -0.9535488890862864, -0.13915364142038703, 0.5928374280788858, -0.5052914340810509, -0.0018751602695247817, -0.1840443466759913, -0.8412917739156033, 0.8611931799501241, -0.14108595140350963, -1.4833496926506444, 0.5145003353797759, -0.13752173903996937, 0.6901643664961529, 0.5243960194494535, 0.6564665623765694, -0.5127540422006069, -0.10328518542745134, 0.46137344367874755, 1.0271899802599924, 0.889586168270435, 0.3876622686270253, 0.23204067936533018, 0.15351412560528904, 0.8184238344139635, -0.30311428572391563, 0.8086289453245509, 0.8221108542075487, 0.9771390678081797, -0.04648244988324642, -0.35958684975295213, -0.10360594897583131, -0.34418316318984843, -0.4419584253138482, 0.8749348489354712, 0.2871723230326158, -1.024884093835672, 0.8739169844972053, -0.1664807940872613, -0.023785264729885257, 1.0370015975940996, -0.9671756679534996, 1.221018611534388, 0.1141043774374152, 0.19459714462021138, -0.45772492227769856, -0.958300832266463, 0.5893610135941771, -0.9214346618673405, 0.2347438305508091, 0.9437209638173295, -0.7086117265731628, 0.7037270130896304, -0.1978514524779997, 0.1623940552580192, -0.9030374667518861, 0.4645032583076323, -0.2635685771075633, 0.3799890989006151, -0.5384779101183111, 0.77356278589911, 0.084714326652167, 0.358641112365649, 0.7439529399252339, -0.6051751567941265, -0.18452744763815251, 0.7174976978837766, -0.7183928370312007, 0.36563193100039343, -0.6891704552434043, -0.8743976995045076, -0.9933767450816082, 0.7653967960395741, 0.8987443109091188, 0.01730979515085564, 0.27592820732504697, -0.9059977400831882, -0.5856806167231152, 0.04411574046395681, -0.8387948632490854, -0.8659134770226895, 0.9479669699874204, -0.6497975861659057, 0.7451776806851418, -0.17391826550334286, -0.34239317467127073, -0.4629819894973037, -0.6146884801214486, 0.03876902185781144, -0.3673565262613655, -0.9884494208503218, 0.7114742111796437, -0.7802485923337367, 0.5297852440957598, 0.8257693286868383, -0.8730944852873308, -0.24390041130750506, -0.5183136380850356, 0.4787372217797706, 0.22165384708021885, 0.3302298986486097, 1.5396545290466637, 0.2693533001712154, -0.35724610628080994, -0.7843207756615859, -0.13794389127968798, 1.3265726271444707, 0.798641574165485, -0.33979315542756594, 0.8427156984528393, -0.66181080960214, 0.7834989303912652, -0.006809604621303408, 0.518004250168556, 0.8999742724409443, 0.5261290473034032, 0.4910257562379986, 0.5341094990085445, -1.0035236761044535, -0.9969864674807293, -0.647470737301889, 0.2853938710478861, -0.7078620829160481, -0.2744547748871115, 0.2994114529627177, 0.17767706924238946, 0.21649334473627566, -0.9219913617344035, 0.10669990094749743], "biases": [-1.0255536245776933, -1.1794040632501406, -0.9317713951910872, -0.9040261012198276, -0.9582137045061548, -1.1011439456062175, -0.8975654311394913, -0.9655435291254644, -0.977192282721241, -0.9702481945669796, -1.0104658562930766, -0.9888432656301471, -0.3653122805512457, -0.8313156305523461, -1.4117449170888265, -0.9810048899112802, -1.0269429355166302, -0.8441010012784775, -0.9495095458010983, -0.7787955282296352, -0.9360733639537268]}