{"generation": 16140, "inputs": ["cart.x", "cart.vel", "bob.x", "bob.y", "bob.vel"], "outputs": ["acceleration"], "layers": [5, 10, 10, 1], "hidden_activation": "tanh", "output_activation": "tanh", "ticks": 3729900000, "time": 101126.77418971062, "weights": [0.2494454635827399, 0.3298218354285209, -0.44401323951580135, -0.24681024088520087, -0.6316603983499169, 0.2412506060926884, -0.6719842378009724, 0.47635539158738816, -0.4458793922723749, 0.13693791428273172, 0.8620704117615607, -0.8463075176395551, -0.692525502787566, -0.8176275398219554, 0.19147364063588485, -0.8626710829481387, -0.4328779392496678, 1.1471452510705995, 0.770858015005359, -0.6863368749429519, -1.0684792716345994, 0.3385783400545336, -0.44705607051775476, -1.0830658453066069, 1.0722888498200394, 0.6875695249071343, 1.035753739022164, 2.6146892270413753, -1.5480616188268272, 0.1262110057250804, -0.7045985807781708, 0.9012532992646332, -0.9537271585026168, -0.1596883281576508, 0.5808307806061287, -0.5462244905637381, 0.017898242078518006, -0.19878931919884738, -0.8049328899444138, 0.8026233849115728, -0.4596234407094548, -1.4833626409402103, 0.46534116690367683, -0.12632243511516814, 0.6568678909878808, 0.6458788554054, 0.42783031432211566, -0.6698333661174898, 0.04471762419648482, 0.7281900891230134, 1.0337703175272508, 0.9468916517381577, 0.3831706863002698, 0.28186082044131516, 0.25275121348726926, 0.8942794541651006, -0.2849271789544592, 0.8870569476797115, 0.8577034966072484, 0.9918232542445851, 0.01708098836510289, -0.3856759213595281, -0.08411180526261393, -0.33588152282162875, -0.46006379853485796, 1.0327469558229032, 0.3041978828855798, -1.1318841847527958, 0.8901500240475188, -0.15024244139447665, -0.015856876388572805, 1.0967410527035568, -0.957715676192604, 1.287423810716427, 0.11100019705939249, 0.09695342274741764, -0.4674212934108406, -0.8715230930405266, 0.4928803753770952, -0.921276617823696, 0.2654367171306967, 0.9435513881887935, -0.7550399293825739, 0.6970464022483096, -0.3179257474836347, 0.034243063023286245, -0.9005812788067111, 0.4625039909043312, -0.26443746094747517, 0.36330177191044166, -0.5672255020050264, 0.7758133180102998, 0.04304255889026513, 0.33744195422586765, 0.5998097627000887, -0.5691573270092823, -0.22102625846469884, 0.7011789129624858, -0.7260785564408074, 0.3945997764700999, -0.6928997675136047, -0.9174658795651679, -0.878203155465971, 0.7720995188723638, 0.8562812431017772, -0.02370575434264924, 0.3272326657658097, -0.8497371373349613, -0.6036643448527415, -0.02262418092871138, -0.8642157117240998, -0.8627119861175689, 0.9183827151291988, -0.5992914551474652, 0.764223296562767, -0.1517026292924174, -0.3307835347743006, -0.5769860227528165, -0.6506231702396935, 0.008979950326963684, -0.3443878768251974, -1.0353846620518823, 0.599482386955152, -0.7460885091066437, 0.46126639484988824, 0.6362092578500719, -0.8638270190055563, -0.15704804789307572, -0.597584432119838, 0.48166919829387134, 0.3059709433040587, 0.3766513964472335, 1.4421330993202037, 0.14176651740959412, -0.16261203152067452, -0.8562220211861497, -0.15116251004785358, 1.3802818588482941, 0.786522258945226, -0.27079557671963783, 0.8725797280170225, -0.6625714189403903, 0.6757260899684482, -0.02120870569567561, 0.7908837046383378, 0.8956051486493419, 0.5789629263701109, 0.47693080018060935, 0.5156760062762297, -1.0784650818064634, -0.9487821277140535, -0.594461019412117, 0.321160391242517, -0.6011140222680484, -0.25904815233590256, 0.27840828997960015, 0.27011322964714307, 0.1774626121264222, -0.8604572678260926, 0.07072142874606864], "biases": [-1.0121696720003803, -1.2536627153000595, -0.9689647137103653, -0.8630817076282696, -0.900160554865134, -1.1402134730298787, -0.941007096664511, -0.9381648434733041, -0.9491933942385552, -0.987243498345403, -1.1256165775390112, -0.9731360188598772, -0.3378672746582773, -0.7503427725519285, -1.371584611804318, -0.7962635318608885, -1.110180206570157, -0.7466931376585223, -0.9938831762406998, -0.8612556031934471, -0.9004851088773278]}