{"generation": 16880, "inputs": ["cart.x", "cart.vel", "bob.x", "bob.y", "bob.vel"], "outputs": ["acceleration"], "layers": [5, 10, 10, 1], "hidden_activation": "tanh", "output_activation": "tanh", "ticks": 4057230000, "time": 111285.32438397408, "weights": [0.25062434579245135, 0.33028931226331304, -0.4456364529479526, -0.24658100990308415, -0.6316603983499169, 0.24188440950993773, -0.6715352072220907, 0.4771546364779053, -0.446181308550465, 0.13580476931278374, 0.8626528488920231, -0.8466235759022074, -0.692525502787566, -0.8178067879561317, 0.19144343748881987, -0.8626710829481387, -0.4328779392496678, 1.1471452510705995, 0.7703288752820238, -0.6863368749429519, -1.0684792716345994, 0.33804421065412704, -0.4461268941898624, -1.0824584140511526, 1.0718514158641814, 0.6873627889086933, 1.0348908516190203, 2.6145161756775286, -1.5476977473648803, 0.1262110057250804, -0.705395245299016, 0.8996802574155516, -0.9537271585026168, -0.16029527067272992, 0.5808307806061287, -0.5469041331115414, 0.017898242078518006, -0.19944119759719908, -0.8049328899444138, 0.8025275631626764, -0.4596234407094548, -1.4833626409402103, 0.46534116690367683, -0.12632243511516814, 0.6570113665061125, 0.6459220663252794, 0.42783031432211566, -0.6698333661174898, 0.04471762419648482, 0.7281900891230134, 1.0337703175272508, 0.946294297844978, 0.38252509520172706, 0.28266025673775386, 0.2536400853881922, 0.8924531489948696, -0.2844737675423018, 0.8872546411923645, 0.8575321710039036, 0.9928003548234102, 0.01715702162026344, -0.38568844967768284, -0.0849133088142907, -0.33492643483505874, -0.46006379853485796, 1.0322946141514906, 0.3038990791592815, -1.1320861729426108, 0.8902131831584867, -0.1510405838823447, -0.016698337559932035, 1.0964914026419748, -0.9574490312470444, 1.287363124440803, 0.11126121767014019, 0.09737986362262474, -0.4674212934108406, -0.872478468412105, 0.4924570747026937, -0.9211281638936387, 0.2654367171306967, 0.9451675882124914, -0.7550723010343575, 0.6967011753351643, -0.31702422057960483, 0.03369104901083056, -0.9005812788067111, 0.4622161090496645, -0.265117512421254, 0.36330177191044166, -0.5672255020050264, 0.7758133180102998, 0.04219506886971577, 0.33778060698524015, 0.5998097627000887, -0.5690269175215288, -0.22197215021229558, 0.7015991034915465, -0.7260785564408074, 0.3942592993548388, -0.6928997675136047, -0.9172553510856005, -0.8772634520897016, 0.7720995188723638, 0.8562812431017772, -0.023132492114459197, 0.32714166626075136, -0.8491021758160222, -0.6036643448527415, -0.022739546818184568, -0.8637036355784615, -0.8623600584616911, 0.9174020225626766, -0.5993024333754716, 0.7635852101798323, -0.15179360663231717, -0.33077816191649423, -0.5764900960435775, -0.649682518014797, 0.008979950326963684, -0.34366821187777974, -1.0353846620518823, 0.5991242519049167, -0.7460885091066437, 0.46060130049810927, 0.6362825671036425, -0.8638901022233723, -0.1576508772059959, -0.597584432119838, 0.48166919829387134, 0.30575474448784445, 0.37659373673454816, 1.4419542953230018, 0.14111310423171938, -0.16261203152067452, -0.8562220211861497, -0.15111705040332143, 1.3804465954511809, 0.786522258945226, -0.2703622588805327, 0.8735360605741758, -0.6625714189403903, 0.6752011467424152, -0.02120870569567561, 0.7914347344682435, 0.8959805177441773, 0.5798264744686037, 0.4781315848732161, 0.5157599342233656, -1.0775986204523795, -0.9487821277140535, -0.5943735209888943, 0.321160391242517, -0.6011774164042796, -0.25904876615873434, 0.27840828997960015, 0.2698617368163916, 0.1774626121264222, -0.8604572678260926, 0.07072142874606864], "biases": [-1.011971449239794, -1.252263920610767, -0.9697395977991765, -0.86336746131068, -0.9012415292327715, -1.1394337161622092, -0.9411834990885297, -0.9370978536834633, -0.9490983676116388, -0.9857320505903034, -1.1249655082724082, -0.9735814349573092, -0.3383465130869792, -0.7491444292042642, -1.372565753873263, -0.794955801892567, -1.1094509795259566, -0.7455283838561287, -0.9938340171178439, -0.8619949059317372, -0.9008155135634126]}