{"generation": 13200, "inputs": ["cart.x", "cart.vel", "bob.x", "bob.y", "bob.vel"], "outputs": ["acceleration"], "layers": [5, 10, 10, 1], "hidden_activation": "tanh", "output_activation": "tanh", "ticks": 2692020000, "time": 72473.10735273361, "weights": [0.17876326705418893, 0.3265121391666499, -0.45726106674347206, -0.19779460756641518, -0.5572243402723854, 0.31244828317856727, -0.5266671099161419, 0.4932043889130043, -0.4056060128869254, 0.12351810173099219, 0.8629623013124217, -0.9688034881253892, -0.6198967085791348, -0.638429629327175, 0.2447200798661576, -0.9005774826487465, -0.22310866570991844, 1.032078521365922, 0.7069889274151624, -0.7049434768711126, -1.0885908771777093, 0.22998644184792655, -0.43873921818685957, -0.9799355305225712, 1.1753651510199716, 0.6483593370683692, 1.0194362098976315, 2.643420849313335, -1.4771538619980986, 0.11637647239096076, -0.7058026188441527, 0.9079827767877761, -0.9535488890862864, -0.13915364142038703, 0.5808553751809642, -0.5052914340810509, 0.01916020506251335, -0.1840443466759913, -0.8412917739156033, 0.8205937823487967, -0.259499437517242, -1.5246704942844418, 0.5216138564289496, -0.14627112577711268, 0.771645572982076, 0.5434753461282975, 0.6776100264559531, -0.5716869912331808, -0.12156368409039141, 0.4740493592200513, 1.036841142529327, 0.9321034069692429, 0.38761233999196437, 0.266049633107746, 0.2098870539096142, 0.8440388899415727, -0.30311428572391563, 0.8611476071601878, 0.857831399391301, 0.9886853381013221, -0.04648244988324642, -0.35958684975295213, -0.10360594897583131, -0.333733314645479, -0.40061121658085924, 0.9037697901328328, 0.2871723230326158, -1.0569554793799174, 0.8739169844972053, -0.13940408270174123, -0.05869154917488774, 1.0467989339058115, -0.9671756679534996, 1.2180625252353763, 0.18497214225426337, 0.20136228441992635, -0.42728555898352033, -0.958300832266463, 0.5646852071820075, -0.9214346618673405, 0.24073679688738572, 0.9437209638173295, -0.7299251697285082, 0.7159660390801115, -0.2501683031263133, 0.09998624000412701, -0.9030374667518861, 0.44916090182008866, -0.2635685771075633, 0.37162472544261865, -0.5384779101183111, 0.7756820691212557, 0.052848618213654816, 0.3828076924133054, 0.7455226672179013, -0.622016528598199, -0.18452744763815251, 0.7174976978837766, -0.7269985295638194, 0.3688261672588137, -0.6776941241226077, -0.8743976995045076, -0.9963240962503191, 0.7371273106672089, 0.8529162774532074, 0.016520279086504847, 0.27968591414092847, -0.9330978042068374, -0.5856806167231152, -0.028032012498563103, -0.8444376935437378, -0.8659134770226895, 0.9120748507938028, -0.6497975861659057, 0.7893577895668903, -0.20089348984739863, -0.37235451334019515, -0.5680995071537018, -0.642915919995226, 0.03876902185781144, -0.34622429219290807, -0.9884494208503218, 0.7193641389435235, -0.7802485923337367, 0.34882620540890774, 0.7818030914199652, -0.8720443605847334, -0.20255070948947915, -0.5183136380850356, 0.45256575222771267, 0.26772001260502926, 0.3302298986486097, 1.445218405304139, 0.1669301054281564, -0.18328251489575648, -0.8526647040009606, -0.1576044648275475, 1.3780606128146706, 0.8214827325457579, -0.28052726473547923, 0.8516080185881851, -0.66181080960214, 0.7650966460882204, -0.006809604621303408, 0.5033438241223535, 0.8583709482934153, 0.5453499163563492, 0.4910257562379986, 0.5341094990085445, -1.0035236761044535, -0.9969864674807293, -0.6536790058333631, 0.31817081563542066, -0.6641006700962666, -0.2970203180709168, 0.2994114529627177, 0.17731375500487553, 0.20342528098190774, -0.9219913617344035, 0.10669990094749743], "biases": [-1.029066179718899, -1.2262897923844744, -0.925488280057583, -0.8592075138051508, -0.8897188566074222, -1.1263152375092234, -0.8990702586386132, -0.9677895143588472, -0.9785528736917842, -0.973152707645759, -1.056830415353041, -0.9771038420965059, -0.37559207337033773, -0.8089278768979592, -1.3547844962324584, -0.8037436782937866, -1.0509461979638959, -0.7622423833395213, -0.9846023256691381, -0.8216841335522189, -0.9400791739176426]}