{"generation": 13800, "inputs": ["cart.x", "cart.vel", "bob.x", "bob.y", "bob.vel"], "outputs": ["acceleration"], "layers": [5, 10, 10, 1], "hidden_activation": "tanh", "output_activation": "tanh", "ticks": 2800020000, "time": 75107.28773975372, "weights": [0.20317322454978926, 0.3659903709147952, -0.4109855355116861, -0.25456331349335376, -0.5426817099233286, 0.31244828317856727, -0.5875365010125273, 0.5120835671165727, -0.4462850452812688, 0.11741929106403053, 0.9074323922815668, -0.9116861634568572, -0.6867581476892889, -0.7813579101492156, 0.20251281282286723, -0.8774024570143195, -0.4505184748156342, 1.1595340857612662, 0.7379718992704852, -0.6647913212055812, -1.066024838001551, 0.2783536216344069, -0.42880874760873317, -1.039889968792878, 1.0694082873566135, 0.6867763769554515, 1.0057369968750987, 2.645333652719212, -1.4815833307771948, 0.14691152225945375, -0.7058026188441527, 0.9285668102713708, -0.9535488890862864, -0.13915364142038703, 0.5808553751809642, -0.5052914340810509, 0.00873819172482711, -0.19444812555316657, -0.8412917739156033, 0.786203996392711, -0.4371619789201161, -1.4825007438837863, 0.4304023929974854, -0.11386708135346556, 0.6572703349991208, 0.5767254305674222, 0.39527556846891826, -0.6693951688515939, 0.013648325552050554, 0.6498263342032792, 1.0177765901676565, 0.928364240276307, 0.3984470416190613, 0.266049633107746, 0.31389632009962565, 0.8522143428551441, -0.26741930787930634, 0.8613990418255935, 0.857831399391301, 1.0028797861596517, -0.04648244988324642, -0.35958684975295213, -0.0657127116306695, -0.33522511995355775, -0.45936894469847805, 1.0101318504985017, 0.2871723230326158, -1.0999212928136717, 0.890231096253012, -0.1558098828708655, -0.014020242195447077, 1.1052932524899215, -0.9585520390316958, 1.270657133284791, 0.057837873840659, 0.04155969937975737, -0.4481647487931913, -0.9017295725197555, 0.5267478154173806, -0.9253548940797756, 0.2712202493800239, 0.9437209638173295, -0.7559203405401927, 0.7159660390801115, -0.28990948366551184, 0.0595736615299842, -0.8985828090110477, 0.4616488144437197, -0.2635685771075633, 0.36330177191044166, -0.566525790572722, 0.7756820691212557, 0.04226986404424079, 0.3385002880457421, 0.6867202436838484, -0.5817628313695069, -0.2036426336674045, 0.6893710692196613, -0.7269985295638194, 0.36825981560143517, -0.6776941241226077, -0.8749620184250216, -0.974165726621359, 0.7371273106672089, 0.8849044764994648, 0.057822155400613015, 0.3244867476697081, -0.9330978042068374, -0.5597200790907056, -0.05925235575460687, -0.8444376935437378, -0.8766023150426201, 0.9120748507938028, -0.6497975861659057, 0.8190885277759242, -0.1198908756865327, -0.35828906340238126, -0.5679963445640646, -0.6298640086909328, 0.01764141511703761, -0.37408939314601514, -1.030440566190284, 0.6792812570832738, -0.74614876238123, 0.43086074726216333, 0.6833902704870403, -0.8490728360984866, -0.1598555813051783, -0.5625786835875325, 0.45256575222771267, 0.26722679238764246, 0.403863207380686, 1.4741103464085517, 0.16416382549676592, -0.1973552004133352, -0.8727986555144153, -0.1576044648275475, 1.3692073210357831, 0.7825564149967795, -0.24699989877342182, 0.868395772442595, -0.66181080960214, 0.7650966460882204, -0.006809604621303408, 0.6047696551030729, 0.8813284032783071, 0.5878086739544875, 0.5016721456370241, 0.5341094990085445, -1.030736955327355, -0.9495562875984787, -0.6067632717278758, 0.31817081563542066, -0.6373118051354674, -0.25903184310524147, 0.2994114529627177, 0.266362438590633, 0.16104619705579712, -0.9044350204330034, 0.07082685121754405], "biases": [-1.0165821683475524, -1.2230805303724879, -0.9484660902353467, -0.846552412365258, -0.8971379236884865, -1.1280640069390089, -0.9280994053458353, -0.9536033992336111, -0.9884854556002087, -0.8915865903343196, -1.0635671566866938, -0.9605427579667172, -0.3784480345840064, -0.7741870831079611, -1.3753000959828057, -0.7982153572204902, -1.0712341075259126, -0.7427256377025944, -0.9829540929782965, -0.8195920808762951, -0.9267486275145744]}