{"generation": 13980, "inputs": ["cart.x", "cart.vel", "bob.x", "bob.y", "bob.vel"], "outputs": ["acceleration"], "layers": [5, 10, 10, 1], "hidden_activation": "tanh", "output_activation": "tanh", "ticks": 2832420000, "time": 75607.93233776093, "weights": [0.25198692725726124, 0.32330627041790977, -0.44100687159317337, -0.24491943555209766, -0.5771860075966035, 0.31244828317856727, -0.6499044814086185, 0.4685637353403183, -0.4462850452812688, 0.12907144622196218, 0.8620704117615607, -0.8485057483617507, -0.6867581476892889, -0.8167250879809943, 0.192763149510079, -0.8900014999772231, -0.41355897674841596, 1.1595340857612662, 0.7702498940088723, -0.6928432890372639, -1.074315675659323, 0.3178798572311685, -0.42880874760873317, -1.0865985626661108, 1.0694082873566135, 0.7332226301240536, 1.0007363750641631, 2.6204425766644075, -1.557463939515628, 0.11814909781907326, -0.7074989589377557, 0.9285668102713708, -0.9535488890862864, -0.1594418430979171, 0.5808553751809642, -0.5445311451271108, 0.00873819172482711, -0.19873205180021505, -0.8055752956865221, 0.8152927783311299, -0.4268955585863076, -1.4825007438837863, 0.465225420725801, -0.12610743805594618, 0.6572703349991208, 0.645809125099892, 0.39937982871927247, -0.6693951688515939, 0.044862246107606744, 0.6862320443413443, 1.0339232025441856, 0.9468916517381577, 0.40555462088407657, 0.2806657256712753, 0.2693550219295219, 0.89309837757201, -0.28506437440408505, 0.8893869830580563, 0.857831399391301, 1.0028797861596517, 0.017289461112623798, -0.3856759213595281, -0.0785049066196952, -0.33522511995355775, -0.45936894469847805, 1.02954303215631, 0.3040938896565635, -1.143661299358003, 0.890231096253012, -0.1558098828708655, -0.014020242195447077, 1.1052932524899215, -0.9585520390316958, 1.2870750182023813, 0.01772898620525492, 0.04155969937975737, -0.4674212934108406, -0.9229183185472005, 0.5210135221039359, -0.9189494637404432, 0.26311811008741554, 0.9437209638173295, -0.7559203405401927, 0.6878900190145235, -0.28990948366551184, 0.06407474490867529, -0.8985828090110477, 0.4611272897247003, -0.2635685771075633, 0.36330177191044166, -0.566525790572722, 0.7756820691212557, 0.04226986404424079, 0.3385002880457421, 0.6867202436838484, -0.5722107682180451, -0.2218315472164402, 0.6810557565950971, -0.7269985295638194, 0.39139220965198335, -0.6776941241226077, -0.8943511769185102, -0.8786441879890075, 0.7696007755879176, 0.8849044764994648, -0.028138923203147655, 0.3244867476697081, -0.8553505446308733, -0.6036643448527415, -0.02285255272106658, -0.863733856966692, -0.8653313942407295, 0.9191434734082448, -0.6497975861659057, 0.7897422889119996, -0.1198908756865327, -0.3299733020661458, -0.5771346926363814, -0.6516328162439392, 0.020674193919019125, -0.3488604412574747, -1.0370093859668272, 0.6294979914671633, -0.74614876238123, 0.43086074726216333, 0.6439473016697208, -0.8490728360984866, -0.1598555813051783, -0.568235847574907, 0.4821754013542665, 0.26722679238764246, 0.37648402536645575, 1.4385072983714657, 0.1436494393516239, -0.16030208281649672, -0.8499118720891886, -0.1504092796131996, 1.4081438651318843, 0.7960538138871516, -0.24699989877342182, 0.8726920744679254, -0.66181080960214, 0.6756087444667324, -0.021029822385227034, 0.6871916378778471, 0.944563009251425, 0.5878086739544875, 0.4845679977623697, 0.5160563656603088, -1.073042710535782, -0.9495562875984787, -0.6067632717278758, 0.3160413602781649, -0.6011140222680484, -0.25903184310524147, 0.27840828997960015, 0.266362438590633, 0.17809065489199452, -0.8615618748650163, 0.07082685121754405], "biases": [-1.0118385914426524, -1.2366381892682288, -0.96805210385207, -0.8563660522116342, -0.9011861896080562, -1.1408304580803232, -0.9235961369437972, -0.977463520578764, -0.9823108274212298, -0.9781240679273356, -1.1031937040972262, -0.9730789742555692, -0.32129764363714397, -0.7486764926029482, -1.3579756957264977, -0.7919502987673919, -1.0917623029239778, -0.7124643773189896, -0.9959550912874178, -0.8511281366142063, -0.9029257572294858]}