{"generation": 1859, "inputs": ["cart.x", "cart.vel", "bob.x", "bob.y", "bob.vel"], "outputs": ["acceleration"], "layers": [5, 10, 10, 1], "hidden_activation": "tanh", "output_activation": "tanh", "ticks": 581880000, "time": 22866.624193906784, "weights": [0.31790880334968674, 0.2591000225562871, -0.4325739199019633, -0.260752718186954, -0.8281607069954714, 0.3710902428147619, -0.5918583278674151, 0.3124262663383854, -0.5697366349451944, 0.050952767220456587, 0.7425376677792724, -0.7187892457139469, -0.6894167485212175, 0.010499243101478775, 0.21797394060909842, -0.8523242744340148, -0.3885163370054223, -0.8071625362076472, 0.8048442783096386, -0.719868880254971, -1.0562669070447899, 0.5470699342556685, -0.30543002511235867, -0.11446283275256613, 0.9725891226071248, 0.4908934622595108, 0.925577407337155, 1.2863001478710059, -1.1983542263872216, -0.015886737499278263, -0.6859301199851449, 0.6390305841431849, -0.9234165073155826, -0.13792041896438612, 0.6750597905576022, -0.5119336028535609, -0.016178999869357388, -0.12553976682340184, -0.8385607744583502, 0.9536858227186806, -0.19280595226066413, -0.8236522771253172, 0.5553585166775961, -0.7780995040597564, 0.6673703356506611, 0.6360194872434158, 0.5877825443427299, -0.572824996874123, -0.19441816741901874, 0.5191254684722508, 1.0318615283119983, 0.9247048319152993, 0.4177931106604491, 0.36090086043927494, 0.280628373596422, 0.7762587308919987, -0.4196568339980726, 0.8481949352252345, 0.9304729057529505, 0.773574799153103, -0.04847273851931771, -0.3436976634551169, 0.09129645088158746, -0.27183435320849886, -0.5264369875952943, 0.7027534928328969, 0.2491919624457284, -0.8683256975486483, 0.8626150861023584, -0.10022056754820981, -0.6015795902333918, 0.5989256133707049, -0.4290326190679759, 0.6544775264106641, 0.018350641823332257, 0.1544239674479187, 0.018081374182782828, -0.11583436096020502, 0.25821733771665467, 0.35443003313751764, 0.20770703348954564, 0.9039219588309315, -0.6371454158672067, 0.8898040540221465, -0.2885881495040495, 0.21371728099679832, -0.7715316901777749, 0.5252420611503852, -0.30877942526869434, 0.495122821449131, -0.5270296775754502, 0.8126866705170493, 0.059608077621357315, 0.43394822685396084, 0.9692538073353546, -0.7344110729332065, -0.2327548764726557, 0.6762536783130905, -0.6676039101698861, 0.2616545167152289, -0.743797329558516, -0.8996035302198662, -0.5768571865400737, 0.8214657606595474, 0.8767399247498124, -0.008494263225298775, 0.33615671322710533, -0.7707210727544724, -0.6120568863390048, 0.02530649548338685, -0.838005754250142, -0.8654098293518895, 0.8861378331814109, -0.5496793397565433, 0.37662603525829175, -0.37283518953552486, -0.3220931442029011, -0.4749511285049737, -0.5873299232770807, 0.020437521366683583, -0.3812356957938743, -0.9550588504314981, 0.7612715360886161, -0.7613140208482911, 0.5450672848402043, 0.6798679495735964, -0.8691550776260446, -0.2664069879956969, -0.5397400890343823, 0.48409229637965595, 0.3163670600075451, 0.5356232977170766, 0.9360998838185848, 0.45271142295969613, -0.2969038601260401, -0.7710893855897154, -0.1485441678447089, 0.8940920996797297, 0.9104467352731155, -0.4264937790929749, 0.84698317986885, -0.6102163694838324, 0.8017469335499825, 0.030670347994222164, 0.5667070205589936, 0.8493678774667413, 0.5278650018228443, 0.641540140111369, 0.554228832429201, -0.970833949169791, -0.9980686652858098, -0.6381526142216798, 0.301136523241502, -0.698970426698128, -0.27425117924380926, 0.3674614086588591, 0.1819584600577156, 0.25147960823205323, -0.9151816199590128, 0.1490423873971553], "biases": [-1.0384804040299727, -1.001216607383212, -0.9979881071881037, -1.044729500079137, -1.0321052857062674, -1.0433317266681483, -0.8898924658061503, -0.9972713567856495, -1.0139616575381558, -1.1012411443590002, -1.0211616925261833, -1.0201384041220682, -0.9402745266379464, -1.0112742418155718, -0.9974992481894527, -0.9442267428788228, -0.9912962819334574, -0.9973939688815795, -0.9996389180252078, -0.9893648473072084, -0.9460731812753859]}