{"generation": 16870, "inputs": ["cart.x", "cart.vel", "bob.x", "bob.y", "bob.vel"], "outputs": ["acceleration"], "layers": [5, 10, 10, 1], "hidden_activation": "tanh", "output_activation": "tanh", "ticks": 4055430000, "time": 111174.36907887459, "weights": [0.2500931074335385, 0.33010266091760077, -0.4456364529479526, -0.24658100990308415, -0.6316603983499169, 0.24188440950993773, -0.6715352072220907, 0.4771546364779053, -0.446181308550465, 0.13559760968282622, 0.8620704117615607, -0.8466235759022074, -0.692525502787566, -0.8178067879561317, 0.19144343748881987, -0.8626710829481387, -0.4328779392496678, 1.1471452510705995, 0.7703288752820238, -0.6863368749429519, -1.0684792716345994, 0.33804421065412704, -0.446088570650118, -1.0824584140511526, 1.0718514158641814, 0.6881927431823851, 1.0348908516190203, 2.6145161756775286, -1.5476977473648803, 0.1262110057250804, -0.7050131181894539, 0.8996802574155516, -0.9537271585026168, -0.15959193091315757, 0.5808307806061287, -0.5469041331115414, 0.017898242078518006, -0.19944119759719908, -0.8049328899444138, 0.8030162333206328, -0.4596234407094548, -1.4833626409402103, 0.46534116690367683, -0.12632243511516814, 0.6570113665061125, 0.6459220663252794, 0.42783031432211566, -0.6698333661174898, 0.04471762419648482, 0.7281900891230134, 1.0337703175272508, 0.946294297844978, 0.38252509520172706, 0.28266025673775386, 0.2528577801967181, 0.8939538224972052, -0.2844737675423018, 0.8872546411923645, 0.8577560378070709, 0.9928184027289682, 0.01715702162026344, -0.385519759668569, -0.0849133088142907, -0.33588801183858785, -0.46006379853485796, 1.0322946141514906, 0.30425343355459866, -1.1320861729426108, 0.8902131831584867, -0.1510405838823447, -0.016698337559932035, 1.0964914026419748, -0.9574490312470444, 1.287363124440803, 0.11126121767014019, 0.09737986362262474, -0.4674212934108406, -0.872478468412105, 0.4924570747026937, -0.9211281638936387, 0.2654367171306967, 0.9451675882124914, -0.7549938367211836, 0.6974380682806288, -0.31702422057960483, 0.03369104901083056, -0.9005812788067111, 0.4622161090496645, -0.265117512421254, 0.36330177191044166, -0.5672255020050264, 0.7758133180102998, 0.04219506886971577, 0.33778060698524015, 0.5998097627000887, -0.5690269175215288, -0.22251967208861265, 0.7015991034915465, -0.7260785564408074, 0.3942592993548388, -0.6928997675136047, -0.9172553510856005, -0.8772634520897016, 0.7720995188723638, 0.8562812431017772, -0.023132492114459197, 0.32714166626075136, -0.8491021758160222, -0.6036643448527415, -0.022739546818184568, -0.8637036355784615, -0.8623600584616911, 0.9174020225626766, -0.5993024333754716, 0.7643678438396845, -0.15179360663231717, -0.33163956765747626, -0.5764900960435775, -0.649682518014797, 0.008979950326963684, -0.34366821187777974, -1.0353846620518823, 0.5991242519049167, -0.7460885091066437, 0.46060130049810927, 0.6362825671036425, -0.8635452704271775, -0.1576508772059959, -0.597584432119838, 0.48166919829387134, 0.30575474448784445, 0.37659373673454816, 1.4419542953230018, 0.14111310423171938, -0.16261203152067452, -0.8562220211861497, -0.15111705040332143, 1.3802818588482941, 0.786522258945226, -0.2703622588805327, 0.8725797280170225, -0.6625714189403903, 0.6757260899684482, -0.02120870569567561, 0.7914347344682435, 0.8959805177441773, 0.5798264744686037, 0.4781315848732161, 0.5157599342233656, -1.0775986204523795, -0.9487821277140535, -0.5943735209888943, 0.321160391242517, -0.6011774164042796, -0.25904815233590256, 0.27840828997960015, 0.2698617368163916, 0.1774626121264222, -0.8604572678260926, 0.07072142874606864], "biases": [-1.0122525964362916, -1.252263920610767, -0.9695551143488534, -0.8632656511977014, -0.9010621019061266, -1.1393338947374618, -0.9411928893251559, -0.9370978536834633, -0.9490983676116388, -0.986133784181935, -1.1246504252663814, -0.9737791286173744, -0.3382808433813447, -0.7493492287935645, -1.3722674068618328, -0.794955801892567, -1.1094509795259566, -0.745947450315275, -0.9938340171178439, -0.8619949059317372, -0.9011398911517243]}