{"generation": 16940, "inputs": ["cart.x", "cart.vel", "bob.x", "bob.y", "bob.vel"], "outputs": ["acceleration"], "layers": [5, 10, 10, 1], "hidden_activation": "tanh", "output_activation": "tanh", "ticks": 4068030000, "time": 111737.49277758598, "weights": [0.2500958959360053, 0.33028931226331304, -0.4458671610122668, -0.2459744014403721, -0.6322543071816542, 0.24188440950993773, -0.671406505137491, 0.4771546364779053, -0.4468973102381346, 0.13580476931278374, 0.8634562058535898, -0.8466235759022074, -0.692525502787566, -0.8172883122785566, 0.19107127144029543, -0.8628135392782612, -0.43267298501065865, 1.147300437811514, 0.7703288752820238, -0.6863368749429519, -1.0677878176691729, 0.33804421065412704, -0.44432868809678705, -1.0836094231755133, 1.0718514158641814, 0.6888386380012751, 1.0348908516190203, 2.6143490867301225, -1.5476480473931553, 0.12658084689113028, -0.7036406669572568, 0.8994068800012995, -0.9481445024457837, -0.16029527067272992, 0.5808307806061287, -0.5485606618816689, 0.017265148148284754, -0.19944119759719908, -0.8044869036289765, 0.8025275631626764, -0.4596234407094548, -1.4833626409402103, 0.46445722561462705, -0.12686999459473797, 0.6570113665061125, 0.6459220663252794, 0.426787680012102, -0.6707293121084777, 0.04471762419648482, 0.7281738096397937, 1.0349529046810162, 0.946294297844978, 0.38252509520172706, 0.28361399833313317, 0.2536400853881922, 0.8924531489948696, -0.28269874821969115, 0.8872276395199798, 0.856695778086459, 0.9919891416569111, 0.018102835060151236, -0.38399692792651247, -0.08453046458679778, -0.33536408094646897, -0.4605944357909276, 1.0320407799190483, 0.30458572894437536, -1.1330675427095196, 0.8909528910346999, -0.1510405838823447, -0.016698337559932035, 1.0964914026419748, -0.9582631851644158, 1.287309507817782, 0.11092374224693015, 0.09841695449423335, -0.46719871768514465, -0.872478468412105, 0.4931829810568858, -0.921893098006625, 0.26626274759148993, 0.9462976254720988, -0.7550723010343575, 0.6968769577926655, -0.31702422057960483, 0.03269679427386168, -0.9005812788067111, 0.46125454504144814, -0.26454960717912124, 0.3635297125100136, -0.5668218890337892, 0.7759987102050988, 0.04219506886971577, 0.3384394541249602, 0.5998097627000887, -0.5688297610298608, -0.22197215021229558, 0.701550265140603, -0.7260785564408074, 0.3942592993548388, -0.6928997675136047, -0.9172553510856005, -0.8772634520897016, 0.77300731336404, 0.8562813013268541, -0.023132492114459197, 0.32714166626075136, -0.8491021758160222, -0.6036643448527415, -0.023635175447355578, -0.8647406511839948, -0.8623600584616911, 0.91681925511857, -0.5991845854700761, 0.7643758639968788, -0.1511069335137322, -0.3317664376701848, -0.5764900960435775, -0.6496025916555416, 0.009006386432272705, -0.34366821187777974, -1.0350327631608707, 0.5991242519049167, -0.7454769110139446, 0.4600929176049109, 0.6367343677265246, -0.8636143950746201, -0.15752931545181814, -0.5971453247288444, 0.4814636975407551, 0.3049168740155332, 0.37724327184241585, 1.4412560892533939, 0.14071958178039487, -0.1631182637198758, -0.8562220211861497, -0.151973099213078, 1.3792760375269728, 0.786522258945226, -0.2703622588805327, 0.8734451422015727, -0.6631628731203041, 0.6759589203023234, -0.020952034800423045, 0.7918801017072901, 0.895844691107513, 0.5791302695476525, 0.47881294861954016, 0.5156661811330449, -1.0776630988857576, -0.9482444953403316, -0.5949500691770935, 0.321160391242517, -0.6030320200319115, -0.26010672076554064, 0.27840828997960015, 0.2698617368163916, 0.17665925874122584, -0.861314007069716, 0.07072142874606864], "biases": [-1.015630101523887, -1.2535896480327848, -0.9718906406022234, -0.8638681273056985, -0.900762925459303, -1.1393600424231891, -0.9417538338671618, -0.9367436484385616, -0.9496487603142293, -0.984677115246347, -1.1276262753492754, -0.9733649839086507, -0.3381679723554436, -0.7500332584419691, -1.3719934294203837, -0.7950128461680107, -1.1090114366756645, -0.7450983392070021, -0.9930782884431918, -0.8615403748908164, -0.9024868378753624]}