{"generation": 12270, "inputs": ["cart.x", "cart.vel", "bob.x", "bob.y", "bob.vel"], "outputs": ["acceleration"], "layers": [5, 10, 10, 1], "hidden_activation": "tanh", "output_activation": "tanh", "ticks": 2524620000, "time": 69245.56790995598, "weights": [0.2971712225862008, 0.22333732379369337, -0.34935667903966444, -0.2482909787087736, -0.6725042246988628, 0.17555316781937205, -0.5811054765973882, 0.47202173686169063, -0.41825434764976255, -0.015029413733041223, 0.7393831926521457, -1.0040288518311051, -0.6734324340789534, -0.6475361542732623, 0.14341266026729105, -0.8938175423869472, -0.35043102333775955, 0.878178725568866, 0.6518358757547532, -0.7697163285704705, -1.12989617223848, 0.3460299920349971, -0.38169620897984236, -0.9421863470903427, 1.1429350736095492, 0.546869377664533, 0.9583583385128019, 2.65094430775686, -1.4389472391929632, 0.04770983467737116, -0.7058026188441527, 0.8250429707803175, -0.9535488890862864, -0.13915364142038703, 0.5150442530493045, -0.5052914340810509, -0.0018751602695247817, -0.1840443466759913, -0.8412917739156033, 0.9374309700860806, -0.1998492038351773, -1.4833496926506444, 0.5528124745261841, -0.11901427005672559, 0.6868067402244453, 0.6239031982650644, 0.5877825443427299, -0.46132740391788984, -0.19713370223662263, 0.5098508309315527, 0.999624348707109, 0.9220463504876775, 0.3876622686270253, 0.30352008700195793, 0.08300485936382604, 0.8273973877422431, -0.30311428572391563, 0.8516434983271614, 0.8221108542075487, 1.0120182467025005, -0.04648244988324642, -0.36217666781221347, -0.1179056798474912, -0.34418316318984843, -0.40717918607563436, 0.8763556207662212, 0.24642306355089982, -1.0117825326085046, 0.8739169844972053, -0.1664807940872613, -0.061172925571862366, 0.9497519787926408, -1.0521364414985648, 1.2483082691742184, -0.01170156404280654, 0.12552650763267134, -0.42996522225733474, -0.978088396450841, 0.5912093709393855, -0.9382451780921865, 0.22792279901532864, 0.9437209638173295, -0.7446719341321573, 0.7037270130896304, -0.19460787015977923, 0.06584679108590352, -0.8626371812554022, 0.4645032583076323, -0.304620437891105, 0.40292697650609643, -0.5384779101183111, 0.77356278589911, 0.10777465202872939, 0.358641112365649, 0.7567641690764776, -0.6735576838889861, -0.20007266069338941, 0.7109398414695294, -0.6676039101698861, 0.36563193100039343, -0.6891704552434043, -0.8743976995045076, -0.9933767450816082, 0.7387496172230716, 0.9529380088462206, 0.01730979515085564, 0.2583358628472043, -0.8430845955876041, -0.5856806167231152, 0.04411574046395681, -0.8387948632490854, -0.8659134770226895, 0.9479669699874204, -0.6677621707894403, 0.6937914014450237, -0.17134024924384703, -0.3454965424784175, -0.48200303780138953, -0.6146884801214486, 0.052455042752330545, -0.36793549399943454, -0.9884494208503218, 0.7412585146352036, -0.7802485923337367, 0.4830302955715889, 0.7728149623676761, -0.8579097527819728, -0.2253237297803757, -0.5183136380850356, 0.4787372217797706, 0.2155288084024338, 0.3357081173276112, 1.5380160968911831, 0.2844253409422731, -0.3079300456867834, -0.7987154411862982, -0.14291861221996788, 1.2664819484859586, 0.7607077088371262, -0.2908382197951298, 0.8356250388538549, -0.66181080960214, 0.8259951186370734, -0.006809604621303408, 0.5416782236794561, 0.8952093169753067, 0.5261290473034032, 0.5355216670357529, 0.5835077981541845, -1.0035236761044535, -0.9336336939493443, -0.6476751025916754, 0.2853938710478861, -0.7375843939823725, -0.2744547748871115, 0.2994114529627177, 0.17767706924238946, 0.252749838100239, -0.8822333994582606, 0.10669990094749743], "biases": [-1.0456557931082946, -1.1134216389720668, -0.9543118708050531, -0.930503157624885, -0.9222117920837362, -1.1008490025126028, -0.8943169391636094, -0.9679490534292754, -0.9654203177140672, -0.9407410711647235, -0.9994014069721389, -0.9740596690351689, -0.394319198271791, -0.8428456841061727, -1.367208641423049, -0.9714972530643875, -1.011429536440175, -0.8691398312094702, -0.9203573894202708, -0.8143297497325208, -0.9365899743300908]}