{"generation": 15040, "inputs": ["cart.x", "cart.vel", "bob.x", "bob.y", "bob.vel"], "outputs": ["acceleration"], "layers": [5, 10, 10, 1], "hidden_activation": "tanh", "output_activation": "tanh", "ticks": 3234900000, "time": 86363.77622961998, "weights": [0.24973941524422774, 0.3294079122676534, -0.44186660306742176, -0.24484559655998117, -0.6306476503715971, 0.24120676916159242, -0.672152785167164, 0.47226007251623625, -0.4462850452812688, 0.13654446104620754, 0.8620704117615607, -0.8464967044920461, -0.6924981135115459, -0.8167250879809943, 0.19250592076720754, -0.8626710829481387, -0.43245882635916477, 1.1464606647844298, 0.7702498940088723, -0.6861296302796419, -1.0699118054502754, 0.3386856062865218, -0.4482336031982849, -1.0825341747748336, 1.069712934412937, 0.6885674345024275, 1.0359105351371916, 2.6173171614453032, -1.550756372791234, 0.12496035387219304, -0.7042978672259125, 0.9020487114851728, -0.9535488890862864, -0.1594418430979171, 0.580350838001953, -0.5455212147659877, 0.01780483481731843, -0.19872178300795892, -0.8055752956865221, 0.8026233849115728, -0.45973312576585634, -1.4825007438837863, 0.465225420725801, -0.12632243511516814, 0.6573928180279229, 0.645809125099892, 0.4280133920406624, -0.6693951688515939, 0.04471762419648482, 0.7272233258595922, 1.0339232025441856, 0.9468916517381577, 0.38225493519424103, 0.2814595895967003, 0.2563272979730641, 0.8942794541651006, -0.28506437440408505, 0.8879470221571498, 0.857831399391301, 0.9908251564620333, 0.017289461112623798, -0.3856759213595281, -0.08425510961369714, -0.33588152282162875, -0.4607647148046619, 1.0331610805108342, 0.3040938896565635, -1.1321812637831963, 0.890231096253012, -0.15270416163300948, -0.014907039520362972, 1.0970230594104027, -0.9592656315339583, 1.287102692214348, 0.11100019705939249, 0.09516876180035647, -0.4674212934108406, -0.8729788466038078, 0.4919399252776757, -0.9208661381928012, 0.2653347236896861, 0.9438496747720262, -0.7554971854097841, 0.6970464022483096, -0.3196560552514121, 0.03431965938837202, -0.897747214112444, 0.45926057899019157, -0.2635685771075633, 0.36330177191044166, -0.5672255020050264, 0.7756820691212557, 0.042506340375799694, 0.33744195422586765, 0.5998097627000887, -0.5694215455811162, -0.2209938874731155, 0.7007851424370065, -0.7260785564408074, 0.3954854895197286, -0.6914462420537038, -0.9183465450178138, -0.8776481570433337, 0.7709579611913675, 0.8551934045127044, -0.023386379229078064, 0.32706830369433326, -0.8492272724039195, -0.6036643448527415, -0.02319649057039481, -0.863733856966692, -0.8648606672428426, 0.9183827151291988, -0.6002143405790844, 0.7646523240656159, -0.15090448815357815, -0.3299733020661458, -0.5759213342197298, -0.6516328162439392, 0.008277289643342695, -0.3453198183737583, -1.0351384565611708, 0.6000992007105389, -0.746054188854489, 0.4624299960094082, 0.6360587408819286, -0.8632312256943523, -0.1577211380084735, -0.5990589674540929, 0.4824627373786203, 0.30650848561200605, 0.37648402536645575, 1.4419001058583796, 0.14212611990829593, -0.16294842700001538, -0.8546146298798383, -0.15103598814085695, 1.3801514560862664, 0.786522258945226, -0.27082503267641994, 0.8726920744679254, -0.66181080960214, 0.6757260899684482, -0.02075575568946445, 0.7916364981656864, 0.8955349528838169, 0.5786581551001833, 0.47738598100561214, 0.516207996040556, -1.077055526666101, -0.9495562875984787, -0.5975084743030408, 0.3211838586668381, -0.6011140222680484, -0.25903184310524147, 0.27840828997960015, 0.27000790256757257, 0.17809065489199452, -0.8603940927001471, 0.07082685121754405], "biases": [-1.012367234878105, -1.2557279612567767, -0.9683754220555211, -0.8615851179647469, -0.9004515618923983, -1.1396810864165052, -0.9407129883069155, -0.9394994063596116, -0.9496860928473467, -0.9865087734841419, -1.1256902462263867, -0.97286164140428, -0.3385547544290131, -0.7505313794683107, -1.371147219584487, -0.793761225274079, -1.1106470558558563, -0.7468431472135973, -0.9933779652934689, -0.8611240504231138, -0.9006266711478067]}