{"generation": 15250, "inputs": ["cart.x", "cart.vel", "bob.x", "bob.y", "bob.vel"], "outputs": ["acceleration"], "layers": [5, 10, 10, 1], "hidden_activation": "tanh", "output_activation": "tanh", "ticks": 3329400000, "time": 89085.89167070389, "weights": [0.24973941524422774, 0.3294079122676534, -0.44236086665760915, -0.24484559655998117, -0.6314275887042116, 0.24120676916159242, -0.672152785167164, 0.4734782777080919, -0.4462850452812688, 0.13654446104620754, 0.8620704117615607, -0.8464967044920461, -0.6924981135115459, -0.8167250879809943, 0.19277209149637586, -0.8626710829481387, -0.43245882635916477, 1.1464606647844298, 0.7702498940088723, -0.6861296302796419, -1.0699118054502754, 0.3385783400545336, -0.4482336031982849, -1.0825341747748336, 1.0704385784210884, 0.688372693978874, 1.0359105351371916, 2.6173171614453032, -1.550756372791234, 0.12496035387219304, -0.7045985807781708, 0.9020487114851728, -0.9535488890862864, -0.1594418430979171, 0.580350838001953, -0.5455212147659877, 0.01780483481731843, -0.19872178300795892, -0.8055752956865221, 0.8026233849115728, -0.4596234407094548, -1.4820394178442704, 0.465225420725801, -0.12632243511516814, 0.6573928180279229, 0.645809125099892, 0.4280133920406624, -0.6693951688515939, 0.04471762419648482, 0.7272233258595922, 1.0337703175272508, 0.9468916517381577, 0.38225493519424103, 0.28100883477073035, 0.25477831724271793, 0.8942794541651006, -0.28506437440408505, 0.8879470221571498, 0.857831399391301, 0.9908251564620333, 0.017289461112623798, -0.3856759213595281, -0.08425510961369714, -0.33588152282162875, -0.4607647148046619, 1.0331610805108342, 0.3043527695506042, -1.1321812637831963, 0.890231096253012, -0.151828415464754, -0.015856876388572805, 1.0970230594104027, -0.9592656315339583, 1.2874301438385438, 0.11100019705939249, 0.09516876180035647, -0.4674212934108406, -0.8729788466038078, 0.4928803753770952, -0.9208661381928012, 0.2653347236896861, 0.9435513881887935, -0.7554971854097841, 0.6970464022483096, -0.3196560552514121, 0.03431965938837202, -0.897747214112444, 0.45926057899019157, -0.2635685771075633, 0.36330177191044166, -0.5672255020050264, 0.7758133180102998, 0.042506340375799694, 0.33744195422586765, 0.5998097627000887, -0.5694215455811162, -0.22098704322540094, 0.7011789129624858, -0.7260785564408074, 0.3954854895197286, -0.6914462420537038, -0.9183465450178138, -0.8776481570433337, 0.771939634511804, 0.8559541309143813, -0.023386379229078064, 0.32706830369433326, -0.8490961189398436, -0.6036643448527415, -0.02319649057039481, -0.863733856966692, -0.8639488344836715, 0.9183827151291988, -0.5999909641197413, 0.7653295317184254, -0.15090448815357815, -0.3299733020661458, -0.5759213342197298, -0.6516328162439392, 0.008277289643342695, -0.3453198183737583, -1.0351384565611708, 0.6000992007105389, -0.7460885091066437, 0.4624299960094082, 0.6360587408819286, -0.8632312256943523, -0.15711465049149537, -0.5990589674540929, 0.48166919829387134, 0.30650848561200605, 0.3766513964472335, 1.4422076501991683, 0.14212611990829593, -0.16294842700001538, -0.8545686999993342, -0.15103598814085695, 1.3799292881737266, 0.786522258945226, -0.2714203431223198, 0.8726920744679254, -0.6621428211624799, 0.6757260899684482, -0.02075575568946445, 0.7916364981656864, 0.8955349528838169, 0.5786581551001833, 0.47738598100561214, 0.516207996040556, -1.077055526666101, -0.9495562875984787, -0.5966058478197458, 0.3211838586668381, -0.6011140222680484, -0.25903184310524147, 0.27840828997960015, 0.27000790256757257, 0.17809065489199452, -0.8603940927001471, 0.07082685121754405], "biases": [-1.0120018213806443, -1.2554917302862785, -0.9683754220555211, -0.8619583925653705, -0.9002828190789524, -1.1397673190200361, -0.9403819153697646, -0.9395665721193109, -0.9496733898846469, -0.986759320748016, -1.1256902462263867, -0.9733167734729844, -0.33901376235726866, -0.7509167046943871, -1.3705119648592285, -0.7936782387756454, -1.1102132575228638, -0.7467929682584363, -0.9933707752638302, -0.8607754856072726, -0.9005510552265544]}