{"generation": 13720, "inputs": ["cart.x", "cart.vel", "bob.x", "bob.y", "bob.vel"], "outputs": ["acceleration"], "layers": [5, 10, 10, 1], "hidden_activation": "tanh", "output_activation": "tanh", "ticks": 2785620000, "time": 74902.65003752708, "weights": [0.20317322454978926, 0.3659903709147952, -0.43250362536066467, -0.25456331349335376, -0.5426817099233286, 0.31244828317856727, -0.5603367154060706, 0.4920224745595507, -0.4102662120176509, 0.11741929106403053, 0.9074323922815668, -0.9119770222707541, -0.65976734317936, -0.8030441749635039, 0.20251281282286723, -0.8937776358979752, -0.4189994299029414, 1.1595340857612662, 0.7465989822259828, -0.6647913212055812, -1.1089695506470845, 0.24238431377473754, -0.40639992712998424, -1.039889968792878, 1.066530614223038, 0.6867763769554515, 1.0057369968750987, 2.645333652719212, -1.4815833307771948, 0.14691152225945375, -0.7058026188441527, 0.9285668102713708, -0.9535488890862864, -0.13915364142038703, 0.5808553751809642, -0.5052914340810509, 0.00873819172482711, -0.19444812555316657, -0.8412917739156033, 0.787092968372574, -0.4853043815446522, -1.4825007438837863, 0.45449311507986023, -0.1611766690764915, 0.7042566086602001, 0.5767254305674222, 0.4409399990055119, -0.6267977554567763, -0.02586311826064072, 0.6498263342032792, 1.0177765901676565, 0.928364240276307, 0.3971312701473292, 0.266049633107746, 0.29348769254507046, 0.8463007260716814, -0.26741930787930634, 0.8613990418255935, 0.857831399391301, 1.0028797861596517, -0.04648244988324642, -0.35958684975295213, -0.0657127116306695, -0.29415200458260143, -0.45936894469847805, 1.0101318504985017, 0.2871723230326158, -1.0999212928136717, 0.934562743578835, -0.1558098828708655, -0.014020242195447077, 1.1052932524899215, -0.9585520390316958, 1.270657133284791, 0.10050745223551943, 0.04155969937975737, -0.42728555898352033, -0.8799741224040847, 0.5267478154173806, -0.8857365901222419, 0.2712202493800239, 0.9437209638173295, -0.7559203405401927, 0.7159660390801115, -0.28990948366551184, 0.0595736615299842, -0.9030374667518861, 0.4616488144437197, -0.2635685771075633, 0.36330177191044166, -0.566525790572722, 0.7756820691212557, 0.04226986404424079, 0.3385002880457421, 0.6867202436838484, -0.5817628313695069, -0.1334668901844001, 0.6893710692196613, -0.7269985295638194, 0.36825981560143517, -0.6776941241226077, -0.8743976995045076, -1.0099173670632464, 0.7371273106672089, 0.8474401612917396, 0.057822155400613015, 0.27968591414092847, -0.9330978042068374, -0.5597200790907056, -0.024506622456725594, -0.8444376935437378, -0.8766023150426201, 0.9120748507938028, -0.6497975861659057, 0.8190885277759242, -0.1198908756865327, -0.35828906340238126, -0.5679963445640646, -0.6298640086909328, 0.03876902185781144, -0.37408939314601514, -1.030440566190284, 0.6792812570832738, -0.74614876238123, 0.43086074726216333, 0.6995400273665761, -0.8490728360984866, -0.1598555813051783, -0.5625786835875325, 0.45256575222771267, 0.26722679238764246, 0.403863207380686, 1.4741103464085517, 0.15640462597698226, -0.1614017859804187, -0.8727986555144153, -0.1576044648275475, 1.3780606128146706, 0.7825564149967795, -0.24699989877342182, 0.8633731641911346, -0.66181080960214, 0.7650966460882204, -0.006809604621303408, 0.6047696551030729, 0.8813284032783071, 0.5878086739544875, 0.5016721456370241, 0.5341094990085445, -1.030736955327355, -0.9920957628520565, -0.6067632717278758, 0.31817081563542066, -0.6373118051354674, -0.2970203180709168, 0.2994114529627177, 0.2269303876565768, 0.16104619705579712, -0.9044350204330034, 0.07082685121754405], "biases": [-1.0165821683475524, -1.2493158452938062, -0.9484660902353467, -0.846552412365258, -0.8966322675293429, -1.1373287779431636, -0.9124904407088119, -0.952709854844884, -0.9929409944653242, -0.8789287261759571, -1.0534358694698334, -0.9605427579667172, -0.36447432469976604, -0.7741870831079611, -1.3549549640141947, -0.8126289174225817, -1.0731303960105263, -0.742786704751689, -0.9782628982988029, -0.8158906222339437, -0.9267486275145744]}