{"generation": 12630, "inputs": ["cart.x", "cart.vel", "bob.x", "bob.y", "bob.vel"], "outputs": ["acceleration"], "layers": [5, 10, 10, 1], "hidden_activation": "tanh", "output_activation": "tanh", "ticks": 2589420000, "time": 70278.00286984444, "weights": [0.2540338581730242, 0.255367565253129, -0.4166377775347698, -0.3162038433629456, -0.6823455595130495, 0.2378445346174161, -0.5644912256279322, 0.5192094949683166, -0.43429097594654936, 0.055792737273862365, 0.8374147724172297, -1.0040288518311051, -0.6817546271336389, -0.61328980103688, 0.192156469128753, -0.9597522904069338, -0.2522108750799224, 0.9515007429521902, 0.6847505225996384, -0.7252918118068303, -1.1619357829611394, 0.319414604116457, -0.4145613302991171, -0.9916706778639958, 1.2359352378595538, 0.5647378668073285, 0.9935150007161778, 2.6275759037971134, -1.44240555118593, 0.152828110958999, -0.7058026188441527, 0.872511700717595, -0.9535488890862864, -0.13915364142038703, 0.5649151150990651, -0.5052914340810509, -0.0018751602695247817, -0.1840443466759913, -0.8412917739156033, 0.8611931799501241, -0.18167561464531162, -1.4833496926506444, 0.5466024717240036, -0.13752173903996937, 0.7374374003329098, 0.5243960194494535, 0.687277670933149, -0.5127540422006069, -0.10328518542745134, 0.4454263422805012, 0.9797374907055313, 0.8840967127315652, 0.3876622686270253, 0.22378815577243097, 0.08300485936382604, 0.8184238344139635, -0.30311428572391563, 0.8086289453245509, 0.8221108542075487, 0.9571209467143424, -0.04648244988324642, -0.35958684975295213, -0.10360594897583131, -0.34418316318984843, -0.4419584253138482, 0.8749348489354712, 0.24642306355089982, -1.024884093835672, 0.8739169844972053, -0.1664807940872613, -0.023785264729885257, 1.0370015975940996, -0.9671756679534996, 1.2280594359348669, 0.1141043774374152, 0.19459714462021138, -0.45772492227769856, -0.958300832266463, 0.5893610135941771, -0.9214346618673405, 0.2347438305508091, 0.9437209638173295, -0.7086117265731628, 0.7037270130896304, -0.1978514524779997, 0.13965458246232787, -0.8626371812554022, 0.4645032583076323, -0.2635685771075633, 0.40292697650609643, -0.5384779101183111, 0.77356278589911, 0.10777465202872939, 0.358641112365649, 0.7439529399252339, -0.6510237416831822, -0.18452744763815251, 0.7174976978837766, -0.7183928370312007, 0.36563193100039343, -0.6891704552434043, -0.8743976995045076, -0.9933767450816082, 0.7278401693746003, 0.8987443109091188, 0.01730979515085564, 0.2590666002344572, -0.8821882013337087, -0.5856806167231152, 0.04411574046395681, -0.8387948632490854, -0.8659134770226895, 0.9479669699874204, -0.6497975861659057, 0.7451776806851418, -0.1885220498099482, -0.34239317467127073, -0.4629819894973037, -0.6146884801214486, 0.03876902185781144, -0.3673565262613655, -0.9884494208503218, 0.7412585146352036, -0.7802485923337367, 0.5297852440957598, 0.8257693286868383, -0.8730944852873308, -0.22984502308866195, -0.5183136380850356, 0.4787372217797706, 0.22165384708021885, 0.3302298986486097, 1.5396545290466637, 0.2693533001712154, -0.35724610628080994, -0.7843207756615859, -0.15469543939736338, 1.3169463181811385, 0.7502061458886793, -0.33979315542756594, 0.8427156984528393, -0.66181080960214, 0.7834989303912652, -0.006809604621303408, 0.5163435554449494, 0.8999742724409443, 0.5261290473034032, 0.4861657292518538, 0.5341094990085445, -1.0035236761044535, -0.9969864674807293, -0.647470737301889, 0.2853938710478861, -0.7375843939823725, -0.2744547748871115, 0.2994114529627177, 0.17767706924238946, 0.21649334473627566, -0.9219913617344035, 0.10669990094749743], "biases": [-1.0255536245776933, -1.1586630855690574, -0.9317713951910872, -0.9241565644899336, -0.9506949245048008, -1.1005284909892667, -0.8975654311394913, -0.9655435291254644, -0.977192282721241, -0.9833048741546704, -1.0103847533359631, -0.983315536766427, -0.3619839802743966, -0.8420738989513037, -1.4151036220386777, -0.9993745993361672, -1.0186124883247478, -0.8510237510577058, -0.9318220498879863, -0.7946222125906671, -0.9360733639537268]}