{"generation": 12520, "inputs": ["cart.x", "cart.vel", "bob.x", "bob.y", "bob.vel"], "outputs": ["acceleration"], "layers": [5, 10, 10, 1], "hidden_activation": "tanh", "output_activation": "tanh", "ticks": 2569620000, "time": 70002.35733389854, "weights": [0.2971712225862008, 0.255367565253129, -0.394774894856865, -0.3162038433629456, -0.6725042246988628, 0.22733743065768236, -0.5419656674983757, 0.5088715148146599, -0.3820880520527053, 0.015018493038465523, 0.8524452318420613, -1.0040288518311051, -0.7018652708978205, -0.6196941944624731, 0.192156469128753, -0.8937585371846533, -0.32046644133343266, 0.9492844621281407, 0.6847505225996384, -0.7993745916795977, -1.1619357829611394, 0.3460299920349971, -0.40872239992175363, -0.9575407145039208, 1.2180935227767447, 0.5254753161538502, 0.974140355515911, 2.65094430775686, -1.44240555118593, 0.07278972297241061, -0.7058026188441527, 0.872511700717595, -0.9535488890862864, -0.13915364142038703, 0.5150442530493045, -0.5052914340810509, -0.0018751602695247817, -0.1840443466759913, -0.8412917739156033, 0.8969831644668843, -0.18167561464531162, -1.4833496926506444, 0.5559148382805912, -0.13752173903996937, 0.7067522056859659, 0.5697734598035957, 0.6597249504041214, -0.5127540422006069, -0.19713370223662263, 0.5212717865197446, 0.9543035977812644, 0.9220463504876775, 0.3876622686270253, 0.2644054462579797, 0.08300485936382604, 0.7888670874261956, -0.30311428572391563, 0.8086289453245509, 0.8221108542075487, 0.9571209467143424, -0.04648244988324642, -0.36217666781221347, -0.1179056798474912, -0.34418316318984843, -0.4295991269260066, 0.8426586166286333, 0.24642306355089982, -1.0442278289067415, 0.8739169844972053, -0.1664807940872613, -0.023785264729885257, 1.0370015975940996, -0.9671756679534996, 1.1981128586901122, 0.0746916914011228, 0.19459714462021138, -0.4137545180770127, -0.958300832266463, 0.5893610135941771, -0.9214346618673405, 0.2347438305508091, 0.9437209638173295, -0.7086117265731628, 0.7037270130896304, -0.1978514524779997, 0.04504818691093123, -0.8626371812554022, 0.4645032583076323, -0.2635685771075633, 0.40292697650609643, -0.5384779101183111, 0.77356278589911, 0.10777465202872939, 0.358641112365649, 0.7439529399252339, -0.6510237416831822, -0.20007266069338941, 0.7174976978837766, -0.7086490599952686, 0.36563193100039343, -0.6891704552434043, -0.8743976995045076, -0.9933767450816082, 0.7278401693746003, 0.893189720418498, 0.01730979515085564, 0.2590666002344572, -0.8430845955876041, -0.5856806167231152, 0.04411574046395681, -0.8387948632490854, -0.8659134770226895, 0.9479669699874204, -0.6677621707894403, 0.7451776806851418, -0.16425421595152873, -0.3454965424784175, -0.48200303780138953, -0.6146884801214486, 0.052455042752330545, -0.36793549399943454, -0.9884494208503218, 0.7412585146352036, -0.7802485923337367, 0.5297852440957598, 0.8288083210514845, -0.8579097527819728, -0.2293757237615485, -0.5183136380850356, 0.4787372217797706, 0.2155288084024338, 0.3357081173276112, 1.5396545290466637, 0.2693533001712154, -0.3087043474103986, -0.7843207756615859, -0.14495501118753612, 1.283543823893395, 0.7736588659363757, -0.2899751255810915, 0.8427156984528393, -0.66181080960214, 0.8259951186370734, -0.006809604621303408, 0.5163435554449494, 0.8999742724409443, 0.5261290473034032, 0.4861657292518538, 0.5341094990085445, -1.0035236761044535, -0.9788663554748114, -0.647470737301889, 0.2853938710478861, -0.7375843939823725, -0.2744547748871115, 0.2994114529627177, 0.17767706924238946, 0.21649334473627566, -0.9181861962502265, 0.10669990094749743], "biases": [-1.0380662349057903, -1.154366062409472, -0.9273758809696341, -0.9223043524763389, -0.9551285787237288, -1.1008490025126028, -0.894057197414285, -0.9677764923076192, -0.9646239936138323, -0.9452806116809902, -1.016995720182279, -0.9869335729089271, -0.38808085409187515, -0.8550362104023412, -1.3717194807243025, -0.9787927342081408, -1.013646009066394, -0.8758096635814252, -0.9323867186955024, -0.8005653053601038, -0.941368514992427]}