{"generation": 16890, "inputs": ["cart.x", "cart.vel", "bob.x", "bob.y", "bob.vel"], "outputs": ["acceleration"], "layers": [5, 10, 10, 1], "hidden_activation": "tanh", "output_activation": "tanh", "ticks": 4059030000, "time": 111373.95566797256, "weights": [0.25062434579245135, 0.33028931226331304, -0.4456364529479526, -0.24658100990308415, -0.6325900271391551, 0.24188440950993773, -0.671406505137491, 0.4771546364779053, -0.446181308550465, 0.13580476931278374, 0.8626528488920231, -0.8466235759022074, -0.692525502787566, -0.8178067879561317, 0.19144343748881987, -0.8618769282795807, -0.4328779392496678, 1.147300437811514, 0.7703288752820238, -0.6863368749429519, -1.0684792716345994, 0.33804421065412704, -0.445310778468585, -1.0827712843153734, 1.0718514158641814, 0.6881483782132822, 1.0348908516190203, 2.6143490867301225, -1.5483306259489071, 0.12590699981067166, -0.705395245299016, 0.8992203277988909, -0.9537271585026168, -0.16029527067272992, 0.5808307806061287, -0.5469041331115414, 0.017898242078518006, -0.19944119759719908, -0.8049328899444138, 0.8025275631626764, -0.4596234407094548, -1.4833626409402103, 0.46534116690367683, -0.12632243511516814, 0.6570113665061125, 0.6459220663252794, 0.42783031432211566, -0.6698333661174898, 0.04471762419648482, 0.7281900891230134, 1.0337703175272508, 0.946294297844978, 0.38252509520172706, 0.28266025673775386, 0.2536400853881922, 0.8924531489948696, -0.2844737675423018, 0.8871793106705004, 0.8575321710039036, 0.9928003548234102, 0.01715702162026344, -0.3848034835859304, -0.0849133088142907, -0.33492643483505874, -0.46006379853485796, 1.0322946141514906, 0.3038990791592815, -1.1320861729426108, 0.8902131831584867, -0.1510405838823447, -0.016698337559932035, 1.0964914026419748, -0.9574490312470444, 1.287309507817782, 0.11126121767014019, 0.09737986362262474, -0.46719871768514465, -0.872478468412105, 0.4924570747026937, -0.921893098006625, 0.26626274759148993, 0.9451675882124914, -0.7550723010343575, 0.6967011753351643, -0.31702422057960483, 0.03369104901083056, -0.9005812788067111, 0.4622161090496645, -0.265117512421254, 0.36330177191044166, -0.5672255020050264, 0.7758133180102998, 0.04219506886971577, 0.33778060698524015, 0.5998097627000887, -0.5688297610298608, -0.22197215021229558, 0.7015991034915465, -0.7260785564408074, 0.3942592993548388, -0.6928997675136047, -0.9172553510856005, -0.8772634520897016, 0.7720995188723638, 0.8562812431017772, -0.023132492114459197, 0.32714166626075136, -0.8491021758160222, -0.6036643448527415, -0.022739546818184568, -0.8642379006735982, -0.8623600584616911, 0.9174020225626766, -0.5993024333754716, 0.7635852101798323, -0.15179360663231717, -0.33077816191649423, -0.5764900960435775, -0.649682518014797, 0.008979950326963684, -0.34366821187777974, -1.0353846620518823, 0.5991242519049167, -0.7460885091066437, 0.46060130049810927, 0.6362825671036425, -0.8638901022233723, -0.1576508772059959, -0.597584432119838, 0.48166919829387134, 0.30575474448784445, 0.37724327184241585, 1.4419542953230018, 0.14071958178039487, -0.16288330390868258, -0.8562220211861497, -0.15111705040332143, 1.3804465954511809, 0.786522258945226, -0.2703622588805327, 0.8735360605741758, -0.6625714189403903, 0.6752011467424152, -0.02120870569567561, 0.7914347344682435, 0.8959805177441773, 0.5791302695476525, 0.4781315848732161, 0.5158944926420826, -1.0775736799462476, -0.9487821277140535, -0.5943239672874779, 0.321160391242517, -0.6010219382738955, -0.25904876615873434, 0.27840828997960015, 0.2698617368163916, 0.1774626121264222, -0.8598814356529533, 0.07072142874606864], "biases": [-1.0129956860747154, -1.2521964087126127, -0.9697395977991765, -0.8631880365469328, -0.9016214982875642, -1.1394337161622092, -0.941288209848862, -0.9370978536834633, -0.9493641144482499, -0.9860888454998348, -1.1249141293179326, -0.9732007028437814, -0.33846687203291975, -0.7493667775646289, -1.3728437594561538, -0.7951852519754843, -1.1095566344625285, -0.7455283838561287, -0.9936637340167648, -0.8619949059317372, -0.9013089346178007]}