{"generation": 13450, "inputs": ["cart.x", "cart.vel", "bob.x", "bob.y", "bob.vel"], "outputs": ["acceleration"], "layers": [5, 10, 10, 1], "hidden_activation": "tanh", "output_activation": "tanh", "ticks": 2737020000, "time": 73950.91862368584, "weights": [0.20039554893049105, 0.3659903709147952, -0.4937434130215891, -0.22942512905070794, -0.5650615027298446, 0.31244828317856727, -0.5255870986250878, 0.511539926310454, -0.4056060128869254, 0.11741929106403053, 0.8564218389122437, -0.9794466310516857, -0.5659614277801824, -0.685374265150659, 0.2447200798661576, -0.9005774826487465, -0.2825696905933336, 1.117184502378487, 0.7159953957862786, -0.6768260015162568, -1.13442540123269, 0.22998644184792655, -0.45088082871854657, -1.0251809561591276, 1.1998361644860216, 0.6483593370683692, 0.9576579863422329, 2.639762291588296, -1.4901241301140344, 0.08241123335863332, -0.7058026188441527, 0.9285668102713708, -0.9535488890862864, -0.13915364142038703, 0.5808553751809642, -0.5052914340810509, 0.00873819172482711, -0.1840443466759913, -0.8412917739156033, 0.8362279418597295, -0.3678329540644073, -1.4825007438837863, 0.4756682676008422, -0.1927421543192882, 0.771645572982076, 0.5411948492268421, 0.47273785354772085, -0.5356957560795544, -0.04449130696360651, 0.4705113805496143, 1.036841142529327, 0.9218548505818729, 0.3971312701473292, 0.266049633107746, 0.3519597680224174, 0.7871939619818784, -0.26741930787930634, 0.8611476071601878, 0.857831399391301, 0.9763792121851591, -0.04648244988324642, -0.35958684975295213, -0.10360594897583131, -0.30695850787616885, -0.44686809610471756, 0.9642289368514072, 0.2871723230326158, -1.0569554793799174, 0.8739169844972053, -0.1558098828708655, -0.03463499070500824, 1.126343870009518, -0.9671756679534996, 1.2814028213758435, 0.12119953357490468, 0.14248725170230797, -0.42728555898352033, -0.9158668958680186, 0.5330684751970991, -0.9370582424841514, 0.24073679688738572, 0.9437209638173295, -0.7299251697285082, 0.7159660390801115, -0.2640131172929034, 0.09998624000412701, -0.9030374667518861, 0.4616488144437197, -0.2635685771075633, 0.37907772179378335, -0.5384779101183111, 0.7756820691212557, 0.04226986404424079, 0.3385002880457421, 0.7093724918601895, -0.6212290539210727, -0.18452744763815251, 0.6893710692196613, -0.7269985295638194, 0.3688261672588137, -0.6776941241226077, -0.8743976995045076, -1.0099173670632464, 0.7371273106672089, 0.8474401612917396, 0.016520279086504847, 0.27968591414092847, -0.9330978042068374, -0.5597200790907056, -0.028032012498563103, -0.8444376935437378, -0.8659134770226895, 0.9120748507938028, -0.6497975861659057, 0.8190885277759242, -0.15547896233994746, -0.35828906340238126, -0.5679963445640646, -0.642915919995226, 0.03876902185781144, -0.3455859534384205, -1.030440566190284, 0.6792812570832738, -0.7955887135548263, 0.38977662229895865, 0.7818030914199652, -0.8720443605847334, -0.1598555813051783, -0.5625786835875325, 0.45256575222771267, 0.26772001260502926, 0.3302298986486097, 1.4481745345397625, 0.21051466711311384, -0.17058319729787585, -0.8872803784540779, -0.1576044648275475, 1.3780606128146706, 0.7825564149967795, -0.24699989877342182, 0.8516080185881851, -0.66181080960214, 0.7650966460882204, -0.006809604621303408, 0.579666921056951, 0.8813284032783071, 0.5453499163563492, 0.4910257562379986, 0.5341094990085445, -1.0017778277116935, -0.9913460198572466, -0.6067632717278758, 0.31817081563542066, -0.6641006700962666, -0.2970203180709168, 0.2994114529627177, 0.17731375500487553, 0.1820853311339482, -0.9044350204330034, 0.07082685121754405], "biases": [-1.032606268143844, -1.230916094667327, -0.926570689782289, -0.8616137003672791, -0.9176255169967937, -1.1365386465609137, -0.8979138151853701, -0.9679514190524918, -0.9781355155344011, -0.9135671319628269, -1.046265185761629, -0.9783245442176761, -0.35714120179276404, -0.7922804946264969, -1.3536345951141098, -0.8133765440747183, -1.0869316499248887, -0.7598838887594289, -0.9956311471098788, -0.8334692589937875, -0.9271697365422533]}