{"generation": 11280, "inputs": ["cart.x", "cart.vel", "bob.x", "bob.y", "bob.vel"], "outputs": ["acceleration"], "layers": [5, 10, 10, 1], "hidden_activation": "tanh", "output_activation": "tanh", "ticks": 2346420000, "time": 66721.43984127045, "weights": [0.2971712225862008, 0.3146985960699967, -0.3257854755957437, -0.21529100878244659, -0.6572314964359751, 0.17555316781937205, -0.5680917260100836, 0.3576803132550984, -0.46570914085706794, 0.005730038936037671, 0.7498472341619892, -1.013175798657201, -0.710217559943191, -0.6241000421647929, 0.17186709719738252, -0.8611337319513359, -0.3946774106775492, 0.8350560940706808, 0.7795772772765189, -0.7236611712604467, -1.066659120953246, 0.298667415485752, -0.4169743842784186, -0.9839513899664079, 1.061043936853356, 0.5073557751168312, 0.9451217780508169, 2.6049449614686724, -1.404123204287576, 0.05020187746726192, -0.7058026188441527, 0.823035617016488, -0.9535488890862864, -0.13915364142038703, 0.4784955577652078, -0.5052914340810509, -0.0018751602695247817, -0.1840443466759913, -0.8412917739156033, 0.9374309700860806, -0.1998492038351773, -1.4129077065791997, 0.5528124745261841, -0.19168582259512973, 0.6969815603270222, 0.6358269399003661, 0.5877825443427299, -0.5090738616351028, -0.19709745301733858, 0.5098508309315527, 0.9961358692636034, 0.9220463504876775, 0.3876622686270253, 0.22563155038653843, 0.09370055007055383, 0.8360823453871425, -0.34133705728061886, 0.8516434983271614, 0.8221108542075487, 1.00978077026147, -0.04637511571379536, -0.36217666781221347, -0.11384032991485071, -0.34418316318984843, -0.41053469315299423, 0.8763556207662212, 0.24642306355089982, -1.015425800005931, 0.8570673289529808, -0.1664807940872613, -0.15047048280286038, 1.0064922972715153, -0.9951281837780491, 1.2640887766098206, 0.02482517999914953, 0.13382052119937615, -0.46072388038909695, -0.7857883897530035, 0.6279828971152757, -0.9182861481384051, 0.22792279901532864, 0.9437209638173295, -0.8080572924953031, 0.6953697413871819, -0.18665518334532188, 0.06584679108590352, -0.8626371812554022, 0.4645032583076323, -0.304620437891105, 0.40292697650609643, -0.5384779101183111, 0.77356278589911, 0.10777465202872939, 0.3581804812493213, 0.7836699162117851, -0.6735576838889861, -0.20007266069338941, 0.7109398414695294, -0.6676039101698861, 0.38732000737986716, -0.6891704552434043, -0.8743976995045076, -0.9567478198688952, 0.7387496172230716, 1.0274281654393453, 0.02824827725916446, 0.2583358628472043, -0.888343737987894, -0.5856806167231152, 0.04411574046395681, -0.8387948632490854, -0.8659134770226895, 0.9479669699874204, -0.6677621707894403, 0.6605505348633102, -0.1737587923524213, -0.3454965424784175, -0.4936102063289885, -0.6146884801214486, 0.056187690618909096, -0.36793549399943454, -0.9884494208503218, 0.7227543888071756, -0.7802485923337367, 0.5209487613046746, 0.7945281780631122, -0.8625509597118312, -0.2253237297803757, -0.5213053863406016, 0.5067249059108341, 0.2374034116939444, 0.38251107989022326, 1.524842662652635, 0.30815494939319266, -0.4050283666117068, -0.797809176207285, -0.12465610280514655, 1.2479765964193943, 0.7607077088371262, -0.2908382197951298, 0.8356250388538549, -0.66181080960214, 0.8177762020854147, -0.006809604621303408, 0.5666455140740292, 0.9161861029891146, 0.5261290473034032, 0.5003710145635332, 0.5835077981541845, -1.0035236761044535, -0.9016035726702076, -0.6476751025916754, 0.301136523241502, -0.7375843939823725, -0.2744547748871115, 0.330011955105848, 0.17767706924238946, 0.252749838100239, -0.8822333994582606, 0.10669990094749743], "biases": [-1.0592332819029544, -1.1261908528657456, -0.953944748463307, -0.9436813992319524, -0.9383936358155096, -1.1008490025126028, -0.8941934033942425, -0.9457785532106192, -0.9630874863382655, -0.9785407710825258, -1.027142479477084, -0.964589303139391, -0.4269814367844652, -0.8367183991284032, -1.2713320162259152, -0.9771071918943642, -1.0026275507860154, -0.9195083882919532, -0.9557100752000461, -0.8397793010545684, -0.9328421108998202]}