{"generation": 1573, "inputs": ["cart.x", "cart.vel", "bob.x", "bob.y", "bob.vel"], "outputs": ["acceleration"], "layers": [5, 10, 10, 1], "hidden_activation": "tanh", "output_activation": "tanh", "ticks": 427440000, "time": 20466.887449026108, "weights": [0.31790880334968674, 0.2912383405632025, -0.5193753725192458, -0.24162995182448416, -0.8689911836779208, 0.46428192332939733, -0.6605313383960508, 0.4219066915789556, -0.5403260920980388, 0.050952767220456587, 0.7425376677792724, -0.7000760869078846, -0.6733838060953707, 0.010499243101478775, 0.20962193829024428, -0.8523242744340148, -0.3885163370054223, -0.8071625362076472, 0.8048442783096386, -0.7191536895602079, -1.0562669070447899, 0.5178065502419898, -0.35403237705520035, 0.0713524041629886, 0.9721854530726453, 0.4908934622595108, 0.9128477205984815, 0.8675033883293379, -1.1694795392372672, -0.015886737499278263, -0.6859301199851449, 0.6390305841431849, -0.9234165073155826, -0.13792041896438612, 0.6596029377402114, -0.5119336028535609, -0.016178999869357388, -0.12553976682340184, -0.8385607744583502, 0.9573968804795827, -0.19280595226066413, -0.8127537661788085, 0.5553585166775961, -0.7780995040597564, 0.6673703356506611, 0.6360194872434158, 0.5877825443427299, -0.5724691260464936, -0.19441816741901874, 0.5191254684722508, 1.0318615283119983, 0.9247048319152993, 0.39638737080229614, 0.36090086043927494, 0.2533688491461181, 0.8014713880150541, -0.40302411693733814, 0.8380185058808098, 0.9304729057529505, 0.7912836867261621, -0.04847273851931771, -0.3436976634551169, 0.09129645088158746, -0.27183435320849886, -0.511691418538757, 0.7131245525764855, 0.2491919624457284, -0.8683256975486483, 0.8626150861023584, -0.1349060725573772, -0.6015795902333918, 0.5989256133707049, -0.3681344332285828, 0.6701550253668488, -0.04423136462440467, 0.11539106069542306, 0.018081374182782828, -0.11583436096020502, 0.2224472040077657, 0.3060273380717551, 0.20770703348954564, 0.9039219588309315, -0.5920535453777227, 0.8898040540221465, -0.2852043993454257, 0.17505852019307472, -0.7715316901777749, 0.5252420611503852, -0.30877942526869434, 0.495122821449131, -0.5270296775754502, 0.8140149267350921, 0.04606672302726258, 0.43394822685396084, 0.9761876357857054, -0.7642009604026204, -0.22819185699680508, 0.6762536783130905, -0.6676039101698861, 0.2616545167152289, -0.743797329558516, -0.9153282160865178, -0.5768571865400737, 0.8200687562059034, 0.8430551065492142, -0.03677566798153969, 0.33615671322710533, -0.7707210727544724, -0.6120568863390048, 0.02530649548338685, -0.838005754250142, -0.8654098293518895, 0.844195429021081, -0.5056118818983809, 0.3605450425390371, -0.37283518953552486, -0.3220931442029011, -0.4749511285049737, -0.5873299232770807, 0.020437521366683583, -0.38721509043656416, -0.9550588504314981, 0.7612715360886161, -0.7613140208482911, 0.48824384435190216, 0.6913390540110547, -0.8691550776260446, -0.2664069879956969, -0.5397400890343823, 0.4776808957000551, 0.31914342470193335, 0.5811154006769285, 0.8084194617725577, 0.45271142295969613, -0.25553636454692596, -0.7912876009466756, -0.1485441678447089, 0.8864267786557198, 0.9104467352731155, -0.43731859634768017, 0.84698317986885, -0.6102163694838324, 0.7794494280746933, 0.0518951884018491, 0.5760776008611208, 0.8493678774667413, 0.5278650018228443, 0.641540140111369, 0.554228832429201, -0.970833949169791, -0.9980686652858098, -0.6843035754317582, 0.301136523241502, -0.698970426698128, -0.27425117924380926, 0.3674614086588591, 0.1819584600577156, 0.25147960823205323, -0.9151816199590128, 0.1490423873971553], "biases": [-1.0384804040299727, -0.9883801383356787, -0.996730250961462, -1.043317279343706, -1.0176579764660623, -1.0408972605773106, -0.8908279700435976, -0.996679926429091, -1.0140054347884941, -1.030499389557346, -1.0264701508364436, -1.0214194354944253, -0.9681386715297019, -1.011722734717269, -1.020413902810739, -0.992035168044049, -0.9909265107554389, -1.0122141013745127, -1.0054580709511483, -1.0049579508042605, -0.9460731812753859]}