{"generation": 13610, "inputs": ["cart.x", "cart.vel", "bob.x", "bob.y", "bob.vel"], "outputs": ["acceleration"], "layers": [5, 10, 10, 1], "hidden_activation": "tanh", "output_activation": "tanh", "ticks": 2765820000, "time": 74548.68425869942, "weights": [0.19771505018406793, 0.3659903709147952, -0.43250362536066467, -0.26020032709351437, -0.5426817099233286, 0.31244828317856727, -0.5603367154060706, 0.5250599382429079, -0.4102662120176509, 0.11741929106403053, 0.8966424727241153, -0.9489258701809292, -0.6703939809189295, -0.6840070902571249, 0.20251281282286723, -0.8937776358979752, -0.40466400275955744, 1.1685016005763953, 0.7159953957862786, -0.6556720798295218, -1.1089695506470845, 0.24238431377473754, -0.43584628526934655, -1.015157461846841, 1.10992177552012, 0.6867763769554515, 1.0057369968750987, 2.645333652719212, -1.4901241301140344, 0.14691152225945375, -0.7058026188441527, 0.9285668102713708, -0.9535488890862864, -0.13915364142038703, 0.5808553751809642, -0.5052914340810509, 0.00873819172482711, -0.19444812555316657, -0.8412917739156033, 0.787092968372574, -0.44681965384909267, -1.4825007438837863, 0.45449311507986023, -0.1611766690764915, 0.7516057241854389, 0.5287897230297526, 0.4037180333471858, -0.5942986360192898, -0.06918138841011842, 0.6015085230379884, 1.0177765901676565, 0.928364240276307, 0.3971312701473292, 0.266049633107746, 0.29656282632836617, 0.8305003042589216, -0.26741930787930634, 0.8672116191942021, 0.857831399391301, 1.0028797861596517, -0.04648244988324642, -0.35958684975295213, -0.0657127116306695, -0.29415200458260143, -0.45936894469847805, 0.9642289368514072, 0.2871723230326158, -1.0999212928136717, 0.8859419877501249, -0.1558098828708655, -0.014020242195447077, 1.1052932524899215, -1.0002920546573841, 1.2814028213758435, 0.12119953357490468, 0.04155969937975737, -0.42728555898352033, -0.9158668958680186, 0.5267478154173806, -0.9518950561299127, 0.2712202493800239, 0.9437209638173295, -0.7559203405401927, 0.7159660390801115, -0.2640131172929034, 0.0595736615299842, -0.9030374667518861, 0.4616488144437197, -0.2635685771075633, 0.36330177191044166, -0.5323680775299771, 0.7756820691212557, 0.04226986404424079, 0.3385002880457421, 0.6867202436838484, -0.5473836357052175, -0.1334668901844001, 0.6893710692196613, -0.7269985295638194, 0.36825981560143517, -0.6776941241226077, -0.8743976995045076, -1.0099173670632464, 0.7371273106672089, 0.8474401612917396, 0.016520279086504847, 0.27968591414092847, -0.9330978042068374, -0.5597200790907056, -0.024506622456725594, -0.8444376935437378, -0.8766023150426201, 0.9120748507938028, -0.6497975861659057, 0.8190885277759242, -0.1198908756865327, -0.35828906340238126, -0.5679963445640646, -0.6298640086909328, 0.03876902185781144, -0.37408939314601514, -1.030440566190284, 0.6792812570832738, -0.74614876238123, 0.43086074726216333, 0.6768904644393823, -0.8490728360984866, -0.1598555813051783, -0.5625786835875325, 0.45256575222771267, 0.26772001260502926, 0.403863207380686, 1.4481745345397625, 0.20218757014985114, -0.1614017859804187, -0.8509258985354067, -0.1576044648275475, 1.3780606128146706, 0.7825564149967795, -0.24699989877342182, 0.8633731641911346, -0.66181080960214, 0.7650966460882204, -0.006809604621303408, 0.6047696551030729, 0.8813284032783071, 0.5862892857286551, 0.5016721456370241, 0.5341094990085445, -1.030736955327355, -0.9920957628520565, -0.6067632717278758, 0.31817081563542066, -0.6373118051354674, -0.2970203180709168, 0.2994114529627177, 0.2269303876565768, 0.16104619705579712, -0.9044350204330034, 0.07082685121754405], "biases": [-1.0165821683475524, -1.2615936373982333, -0.9484660902353467, -0.846552412365258, -0.916536431939996, -1.1326876101429275, -0.9124904407088119, -0.952709854844884, -0.9929409944653242, -0.8768265027714836, -1.0501788999296164, -0.9605427579667172, -0.35187669546248207, -0.7724032212201741, -1.3758710102641976, -0.8098300187163453, -1.0747797111117112, -0.742786704751689, -0.9780840295012578, -0.8102759949430663, -0.9267486275145744]}