{"generation": 14750, "inputs": ["cart.x", "cart.vel", "bob.x", "bob.y", "bob.vel"], "outputs": ["acceleration"], "layers": [5, 10, 10, 1], "hidden_activation": "tanh", "output_activation": "tanh", "ticks": 3113040000, "time": 83009.17102122307, "weights": [0.24973941524422774, 0.32912015561090563, -0.44100687159317337, -0.24491943555209766, -0.6306476503715971, 0.23985547716535408, -0.672152785167164, 0.47226007251623625, -0.4462850452812688, 0.1369481158548278, 0.8620704117615607, -0.8462421416020416, -0.6924981135115459, -0.8167250879809943, 0.192763149510079, -0.8619211615361451, -0.43245882635916477, 1.146046185455276, 0.7702498940088723, -0.6862321717487091, -1.0706830103345673, 0.3386856062865218, -0.4482336031982849, -1.0825341747748336, 1.0694082873566135, 0.6887618722869532, 1.0371015853105316, 2.6189117301934304, -1.5512152639431906, 0.12496035387219304, -0.7042978672259125, 0.9020487114851728, -0.9535488890862864, -0.1594418430979171, 0.580350838001953, -0.5445311451271108, 0.01780483481731843, -0.19873205180021505, -0.8055752956865221, 0.8034378317307086, -0.45973312576585634, -1.4825007438837863, 0.465225420725801, -0.12610743805594618, 0.6572703349991208, 0.645809125099892, 0.4280133920406624, -0.6693951688515939, 0.04468963746737323, 0.7269010607519963, 1.0339232025441856, 0.9468916517381577, 0.3827108985970008, 0.2806657256712753, 0.2565861631060017, 0.8947821156829948, -0.28506437440408505, 0.8886629756847068, 0.857831399391301, 0.9917163595747326, 0.017289461112623798, -0.3856759213595281, -0.08425510961369714, -0.33588152282162875, -0.45995846149385383, 1.0339855339548831, 0.3040938896565635, -1.1321956359026917, 0.890231096253012, -0.15112100183466698, -0.014020242195447077, 1.0970230594104027, -0.959967136073144, 1.2873061657453162, 0.11113565628064147, 0.09564435249577107, -0.4674212934108406, -0.8729788466038078, 0.4919399252776757, -0.9208661381928012, 0.2653347236896861, 0.9437209638173295, -0.75589447528254, 0.699181862156582, -0.32236870937905104, 0.03432809195042591, -0.8985828090110477, 0.4602026275751253, -0.2635685771075633, 0.36330177191044166, -0.5670652474497051, 0.7756820691212557, 0.042506340375799694, 0.33744195422586765, 0.6005688317551849, -0.5722107682180451, -0.2218315472164402, 0.7009050038589342, -0.7269985295638194, 0.3954854895197286, -0.6914462420537038, -0.9178891500897346, -0.8785797079148645, 0.7709579611913675, 0.8545599426466897, -0.02364216353660998, 0.32706830369433326, -0.848374922826135, -0.6036643448527415, -0.02285255272106658, -0.863733856966692, -0.8653313942407295, 0.9191434734082448, -0.6002845118172329, 0.7639802058244344, -0.1509775477943839, -0.3299733020661458, -0.5764173556203823, -0.6516328162439392, 0.008303549079662936, -0.3488604412574747, -1.0345863328503402, 0.599905530146907, -0.74614876238123, 0.4624040975861505, 0.6360587408819286, -0.8632312256943523, -0.15850690000899806, -0.5990589674540929, 0.4821754013542665, 0.3060185049817216, 0.37648402536645575, 1.4416991387777491, 0.14212611990829593, -0.16735098850151156, -0.8538145357989951, -0.1504092796131996, 1.3810764509564966, 0.786522258945226, -0.27082503267641994, 0.8726920744679254, -0.66181080960214, 0.6756087444667324, -0.021029822385227034, 0.7922842460719979, 0.8950361910576969, 0.5785486164664161, 0.47738598100561214, 0.516207996040556, -1.0763514295958492, -0.9495562875984787, -0.59884583081007, 0.3210082294015849, -0.6011140222680484, -0.25903184310524147, 0.27840828997960015, 0.27000790256757257, 0.17809065489199452, -0.8612738015028224, 0.07082685121754405], "biases": [-1.0114939187465133, -1.255455835960669, -0.968619481420366, -0.8617273795085494, -0.899694898529161, -1.139082342918431, -0.9422443043969516, -0.9403281315498548, -0.9509629107586433, -0.9870777997335127, -1.1254384952490237, -0.9727295365353714, -0.33793650138753517, -0.7504141220243452, -1.3730440644593256, -0.7956496151099922, -1.1113874271791844, -0.7460217556814802, -0.9936516470807771, -0.8608749437372134, -0.9006018801191503]}