{"generation": 13260, "inputs": ["cart.x", "cart.vel", "bob.x", "bob.y", "bob.vel"], "outputs": ["acceleration"], "layers": [5, 10, 10, 1], "hidden_activation": "tanh", "output_activation": "tanh", "ticks": 2702820000, "time": 72659.58608984947, "weights": [0.17876326705418893, 0.3265121391666499, -0.45726106674347206, -0.19426700806111213, -0.5650615027298446, 0.31244828317856727, -0.5266671099161419, 0.511539926310454, -0.4056060128869254, 0.12351810173099219, 0.8629623013124217, -0.9688034881253892, -0.6198967085791348, -0.6451762186715181, 0.2447200798661576, -0.9005774826487465, -0.22310866570991844, 1.032078521365922, 0.7069889274151624, -0.7725126467962746, -1.0959777626337368, 0.22998644184792655, -0.43873921818685957, -0.9799355305225712, 1.1657529329015826, 0.6483593370683692, 1.0213144651178063, 2.6359490454131764, -1.4347948682224707, 0.11637647239096076, -0.7058026188441527, 0.9079827767877761, -0.9535488890862864, -0.13915364142038703, 0.5808553751809642, -0.5052914340810509, 0.01916020506251335, -0.1840443466759913, -0.8412917739156033, 0.8205937823487967, -0.259499437517242, -1.4825007438837863, 0.5552950469728475, -0.1927421543192882, 0.771645572982076, 0.5613304184377809, 0.5867738464435142, -0.5593173674981404, -0.12156368409039141, 0.44274949213157666, 1.036841142529327, 0.9321034069692429, 0.3971312701473292, 0.266049633107746, 0.28069073458606053, 0.8314776209113982, -0.30311428572391563, 0.8611476071601878, 0.857831399391301, 0.9581216303093204, -0.04648244988324642, -0.35958684975295213, -0.10360594897583131, -0.333733314645479, -0.40061121658085924, 0.9037697901328328, 0.2871723230326158, -1.0569554793799174, 0.8739169844972053, -0.13940408270174123, -0.05869154917488774, 1.0447659684594834, -0.9671756679534996, 1.2180625252353763, 0.18497214225426337, 0.20136228441992635, -0.42728555898352033, -0.9158668958680186, 0.5646852071820075, -0.8885785332279872, 0.24073679688738572, 0.9437209638173295, -0.7299251697285082, 0.7159660390801115, -0.2534735319808028, 0.09998624000412701, -0.9030374667518861, 0.44916090182008866, -0.2635685771075633, 0.37907772179378335, -0.5384779101183111, 0.7756820691212557, 0.05413141303715558, 0.3828076924133054, 0.76052839221178, -0.622016528598199, -0.18452744763815251, 0.7174976978837766, -0.7269985295638194, 0.3688261672588137, -0.6776941241226077, -0.8743976995045076, -1.0099173670632464, 0.7371273106672089, 0.8529162774532074, 0.016520279086504847, 0.27968591414092847, -0.9330978042068374, -0.5856806167231152, -0.028032012498563103, -0.8444376935437378, -0.8659134770226895, 0.9120748507938028, -0.6497975861659057, 0.7893577895668903, -0.20089348984739863, -0.37235451334019515, -0.5660068305815905, -0.642915919995226, 0.03876902185781144, -0.3455859534384205, -0.9884494208503218, 0.7193641389435235, -0.7802485923337367, 0.38570957285185653, 0.7818030914199652, -0.8720443605847334, -0.20255070948947915, -0.5183136380850356, 0.45256575222771267, 0.26772001260502926, 0.3302298986486097, 1.445218405304139, 0.1669301054281564, -0.2230666187537396, -0.8872803784540779, -0.1576044648275475, 1.3780606128146706, 0.7944368185573365, -0.28052726473547923, 0.8516080185881851, -0.66181080960214, 0.7650966460882204, -0.006809604621303408, 0.5033438241223535, 0.861896369044542, 0.5453499163563492, 0.4910257562379986, 0.5341094990085445, -1.0017778277116935, -0.9969864674807293, -0.6536790058333631, 0.31817081563542066, -0.6641006700962666, -0.2970203180709168, 0.2994114529627177, 0.17731375500487553, 0.20342528098190774, -0.9219913617344035, 0.10669990094749743], "biases": [-1.029066179718899, -1.200121175453915, -0.925488280057583, -0.8721755623772304, -0.8955749785673137, -1.1261442912499986, -0.8990702586386132, -0.9686022384664369, -0.9794490968723323, -0.965436899089917, -1.0575419859111512, -0.9771038420965059, -0.3968836122669428, -0.7970367170465862, -1.361707186957475, -0.7918350130492237, -1.0509461979638959, -0.7619046010289475, -0.9846023256691381, -0.8356923867273307, -0.9400791739176426]}