{"generation": 17000, "inputs": ["cart.x", "cart.vel", "bob.x", "bob.y", "bob.vel"], "outputs": ["acceleration"], "layers": [5, 10, 10, 1], "hidden_activation": "tanh", "output_activation": "tanh", "ticks": 4078830000, "time": 112097.27295589447, "weights": [0.2500632731006568, 0.33028931226331304, -0.4458671610122668, -0.24637590484772362, -0.6322543071816542, 0.24068445081434814, -0.671406505137491, 0.4771546364779053, -0.4473321713849246, 0.13580476931278374, 0.8637788132409504, -0.8456755636950379, -0.6930001921227894, -0.8172883122785566, 0.1904993729625014, -0.8628135392782612, -0.4336189701334987, 1.14706591170295, 0.7701724914794285, -0.686107028963409, -1.0677878176691729, 0.33804421065412704, -0.44432868809678705, -1.0830656329671846, 1.071737534385236, 0.689278097636939, 1.0348908516190203, 2.6143490867301225, -1.5476480473931553, 0.12579321149896705, -0.7019814895028778, 0.9000020277139766, -0.9465270285745218, -0.16029527067272992, 0.5798593529998233, -0.549072112624354, 0.01876015633743573, -0.20006529054518712, -0.8044869036289765, 0.8025275631626764, -0.4596791090370916, -1.4837131212313344, 0.46519023072824056, -0.12795811322801534, 0.6562859531790746, 0.6457216388908792, 0.426787680012102, -0.6716902832084845, 0.043945521656413994, 0.7272218088368095, 1.0349529046810162, 0.9457065805924632, 0.38330952784325717, 0.28361399833313317, 0.2529246954235016, 0.8924531489948696, -0.282398603160975, 0.8872276395199798, 0.856695778086459, 0.9919891416569111, 0.017542547231501577, -0.3836449521438518, -0.08453046458679778, -0.33501850166836455, -0.4605944357909276, 1.0320579986030087, 0.30470178502912704, -1.1330675427095196, 0.8909528910346999, -0.1510405838823447, -0.016761355944471402, 1.0964914026419748, -0.9578152179144982, 1.287309507817782, 0.1131137497866992, 0.09880898591167749, -0.46725793040557223, -0.873734431131496, 0.49413960071710833, -0.9227693661836145, 0.2674003257508079, 0.945508824570949, -0.7556101238992063, 0.6977512914558419, -0.3163800857977366, 0.033182125642362136, -0.9013196534547578, 0.46125454504144814, -0.26454960717912124, 0.36435971487637586, -0.5668481248680592, 0.7763308582538647, 0.04219506886971577, 0.33836036535558733, 0.5998097627000887, -0.5692034089104596, -0.22256622990249408, 0.7015676685127493, -0.726113437924624, 0.3949631595961881, -0.6920036573203517, -0.916657496878136, -0.8778754685109647, 0.7738976203071347, 0.8566726247963551, -0.023460894147947064, 0.32686800614130584, -0.849087876426259, -0.6029659362757371, -0.023950491681966352, -0.8647406511839948, -0.8618333052230297, 0.91681925511857, -0.598902592614189, 0.7637116498084783, -0.15058163525121881, -0.3317664376701848, -0.5758700920658061, -0.6495944061302528, 0.008506209566934084, -0.3432573288023065, -1.0355494671307535, 0.5995411583942527, -0.7448275846979777, 0.4598812733700204, 0.6367343677265246, -0.8626728359327056, -0.15752931545181814, -0.5951820250129433, 0.4814636975407551, 0.30492067374207243, 0.37724327184241585, 1.4405804892609746, 0.1413603065947606, -0.1631182637198758, -0.8562220211861497, -0.1523036337340675, 1.3779033542671262, 0.7864749745920324, -0.2703622588805327, 0.8734451422015727, -0.6630171524249792, 0.67691791643928, -0.020272886465038234, 0.7915773748383998, 0.8971555805617429, 0.5788679522654391, 0.47861697230917016, 0.5161863575098398, -1.0768763108030726, -0.9484628198875626, -0.5926442097098886, 0.32179816611745105, -0.6030320200319115, -0.2610752792513531, 0.27712878555741843, 0.2704304953730196, 0.17665925874122584, -0.8624043222673571, 0.07010601228681261], "biases": [-1.0158005170252997, -1.254208311450246, -0.9716040724134101, -0.8633682307947566, -0.9026197471753056, -1.1393284277821025, -0.9416861532547129, -0.9371182792438747, -0.9488751349321884, -0.9855170926568853, -1.1281479613302532, -0.9748376550162818, -0.3383089293511068, -0.7501192540105973, -1.3718463728340624, -0.7952433928408249, -1.1092652855445895, -0.7447321611158948, -0.9924575266134092, -0.8615709557382487, -0.9032693415578288]}