{"generation": 14500, "inputs": ["cart.x", "cart.vel", "bob.x", "bob.y", "bob.vel"], "outputs": ["acceleration"], "layers": [5, 10, 10, 1], "hidden_activation": "tanh", "output_activation": "tanh", "ticks": 3023040000, "time": 80595.98006725311, "weights": [0.24973941524422774, 0.32912015561090563, -0.44100687159317337, -0.24491943555209766, -0.6286889506860719, 0.23677102184799534, -0.672152785167164, 0.4706550158239234, -0.4462850452812688, 0.13249598470765675, 0.8620704117615607, -0.8462421416020416, -0.6924981135115459, -0.8167250879809943, 0.192763149510079, -0.8619211615361451, -0.43245882635916477, 1.146046185455276, 0.7702498940088723, -0.6787459112591048, -1.0706830103345673, 0.3368798640131053, -0.44940359720468803, -1.0825341747748336, 1.0694082873566135, 0.6887618722869532, 1.0371015853105316, 2.6189117301934304, -1.555202024421303, 0.12029074338758096, -0.7074989589377557, 0.9020487114851728, -0.9535488890862864, -0.1594418430979171, 0.580350838001953, -0.5445311451271108, 0.01780483481731843, -0.19873205180021505, -0.8055752956865221, 0.8050086901467461, -0.45973312576585634, -1.4825007438837863, 0.465225420725801, -0.12610743805594618, 0.6572703349991208, 0.645809125099892, 0.4280133920406624, -0.6693951688515939, 0.044862246107606744, 0.7260709153015515, 1.0339232025441856, 0.9468916517381577, 0.3792822723879473, 0.2806657256712753, 0.2629848129367833, 0.8947821156829948, -0.28506437440408505, 0.8893869830580563, 0.857831399391301, 0.9917163595747326, 0.017289461112623798, -0.3856759213595281, -0.08665315259045994, -0.33588152282162875, -0.45995846149385383, 1.0339855339548831, 0.3040938896565635, -1.1321956359026917, 0.890231096253012, -0.15351049564398386, -0.014020242195447077, 1.0970230594104027, -0.955667995569576, 1.2873061657453162, 0.10937373762400647, 0.09564435249577107, -0.4674212934108406, -0.8729788466038078, 0.4919399252776757, -0.9208661381928012, 0.2653347236896861, 0.9437209638173295, -0.75589447528254, 0.699181862156582, -0.32236870937905104, 0.03432809195042591, -0.8985828090110477, 0.4611272897247003, -0.2635685771075633, 0.36330177191044166, -0.566525790572722, 0.7756820691212557, 0.042506340375799694, 0.3385002880457421, 0.6005688317551849, -0.5722107682180451, -0.2218315472164402, 0.701068290946407, -0.7269985295638194, 0.3954854895197286, -0.6914462420537038, -0.9178891500897346, -0.8786441879890075, 0.7691029001509292, 0.8545599426466897, -0.028138923203147655, 0.32706830369433326, -0.8558577647827813, -0.6036643448527415, -0.02285255272106658, -0.863733856966692, -0.8653313942407295, 0.9191434734082448, -0.6002845118172329, 0.7608921579357877, -0.1489606332992314, -0.3299733020661458, -0.5764173556203823, -0.6516328162439392, 0.008303549079662936, -0.3488604412574747, -1.0345863328503402, 0.5979786728571763, -0.74614876238123, 0.4624040975861505, 0.6344736981553594, -0.8632312256943523, -0.15850690000899806, -0.5990589674540929, 0.4821754013542665, 0.3060185049817216, 0.37648402536645575, 1.4389415591927859, 0.14212611990829593, -0.16735098850151156, -0.8538145357989951, -0.1504092796131996, 1.3810764509564966, 0.786522258945226, -0.27082503267641994, 0.8726920744679254, -0.66181080960214, 0.6756087444667324, -0.021029822385227034, 0.7987636929578513, 0.8939969420490849, 0.5785486164664161, 0.48016447258303896, 0.516207996040556, -1.0763514295958492, -0.9495562875984787, -0.59884583081007, 0.3210082294015849, -0.6011140222680484, -0.25903184310524147, 0.27840828997960015, 0.266362438590633, 0.17809065489199452, -0.8615618748650163, 0.07082685121754405], "biases": [-1.012172952606268, -1.2541511021245633, -0.9683857977582573, -0.8617273795085494, -0.899895718935136, -1.1393906655260684, -0.9424972995626588, -0.9402570676380438, -0.9517430766287738, -0.9865658994831902, -1.1250489619071764, -0.9730789742555692, -0.3360535357290186, -0.7504539952605478, -1.3740942643546368, -0.7953303359126893, -1.1115187790960626, -0.7460217556814802, -0.9935061282100371, -0.8610343487239976, -0.9006018801191503]}