{"generation": 13850, "inputs": ["cart.x", "cart.vel", "bob.x", "bob.y", "bob.vel"], "outputs": ["acceleration"], "layers": [5, 10, 10, 1], "hidden_activation": "tanh", "output_activation": "tanh", "ticks": 2809020000, "time": 75236.40460157394, "weights": [0.20317322454978926, 0.3659903709147952, -0.4109855355116861, -0.25456331349335376, -0.5426817099233286, 0.31244828317856727, -0.5875365010125273, 0.47110589183467894, -0.4462850452812688, 0.11741929106403053, 0.9074323922815668, -0.8562481001053114, -0.6867581476892889, -0.7813579101492156, 0.20251281282286723, -0.8838270969210109, -0.36713606147565103, 1.1595340857612662, 0.7379718992704852, -0.6647913212055812, -1.0937209627133997, 0.3178798572311685, -0.42880874760873317, -1.039889968792878, 1.0694082873566135, 0.6867763769554515, 1.0007363750641631, 2.6695451350656403, -1.5170885002423118, 0.14691152225945375, -0.7058026188441527, 0.9285668102713708, -0.9535488890862864, -0.14989293900866524, 0.5808553751809642, -0.5445311451271108, 0.00873819172482711, -0.19444812555316657, -0.8055752956865221, 0.786203996392711, -0.4371619789201161, -1.4825007438837863, 0.4304023929974854, -0.15731254956622465, 0.6572703349991208, 0.5767254305674222, 0.39527556846891826, -0.6693951688515939, 0.013648325552050554, 0.6538069824386807, 1.0177765901676565, 0.9468916517381577, 0.3984470416190613, 0.266049633107746, 0.31389632009962565, 0.8522143428551441, -0.28506437440408505, 0.8893869830580563, 0.857831399391301, 1.0028797861596517, -0.04648244988324642, -0.35958684975295213, -0.0657127116306695, -0.33522511995355775, -0.45936894469847805, 1.0101318504985017, 0.2871723230326158, -1.0999212928136717, 0.890231096253012, -0.1558098828708655, -0.014020242195447077, 1.1052932524899215, -0.9585520390316958, 1.2870750182023813, 0.057837873840659, 0.04155969937975737, -0.4674212934108406, -0.9017295725197555, 0.5267478154173806, -0.9189494637404432, 0.2712202493800239, 0.9437209638173295, -0.7559203405401927, 0.7159660390801115, -0.28990948366551184, 0.057472035729923134, -0.8985828090110477, 0.46201017960756424, -0.2635685771075633, 0.36330177191044166, -0.566525790572722, 0.7756820691212557, 0.04226986404424079, 0.3385002880457421, 0.6867202436838484, -0.5817628313695069, -0.2036426336674045, 0.6783290052086867, -0.7269985295638194, 0.36825981560143517, -0.6776941241226077, -0.8749620184250216, -0.9541726883151324, 0.7696007755879176, 0.8849044764994648, 0.02111394160459739, 0.3244867476697081, -0.8553505446308733, -0.5597200790907056, -0.05925235575460687, -0.8444376935437378, -0.8766023150426201, 0.9120748507938028, -0.6497975861659057, 0.8190885277759242, -0.1198908756865327, -0.33860693875541464, -0.5679963445640646, -0.6298640086909328, 0.01764141511703761, -0.37408939314601514, -1.0370093859668272, 0.6792812570832738, -0.74614876238123, 0.43086074726216333, 0.6833902704870403, -0.8490728360984866, -0.1598555813051783, -0.5625786835875325, 0.45256575222771267, 0.26722679238764246, 0.37648402536645575, 1.430903552490131, 0.16416382549676592, -0.1973552004133352, -0.8727986555144153, -0.1504092796131996, 1.3692073210357831, 0.7825564149967795, -0.24699989877342182, 0.868395772442595, -0.66181080960214, 0.6756087444667324, -0.006809604621303408, 0.6047696551030729, 0.915442173369925, 0.5878086739544875, 0.5016721456370241, 0.5160563656603088, -1.0631504582548121, -0.9495562875984787, -0.6067632717278758, 0.31817081563542066, -0.6011140222680484, -0.25903184310524147, 0.2994114529627177, 0.266362438590633, 0.16104619705579712, -0.8615618748650163, 0.07082685121754405], "biases": [-1.0077323702314809, -1.2233694547841312, -0.9490446041459158, -0.8472698846710548, -0.8958709516296821, -1.1439534879927646, -0.9133501229796112, -0.9375828040270582, -0.9823108274212298, -0.9045317517130458, -1.0743121059016787, -0.9639931183534749, -0.3784480345840064, -0.755749901880717, -1.372769098998867, -0.794377254439301, -1.0756054955019911, -0.7381618826915537, -0.9873790544291199, -0.833932241841082, -0.9109145249680973]}