{"generation": 15740, "inputs": ["cart.x", "cart.vel", "bob.x", "bob.y", "bob.vel"], "outputs": ["acceleration"], "layers": [5, 10, 10, 1], "hidden_activation": "tanh", "output_activation": "tanh", "ticks": 3549900000, "time": 95641.9532546997, "weights": [0.24909003771745145, 0.3292242073472567, -0.44236086665760915, -0.2462712440013825, -0.6308536885266428, 0.2409468184542871, -0.6719842378009724, 0.47605211514703344, -0.44674235629716613, 0.1360032269329248, 0.8620704117615607, -0.8464967044920461, -0.6924981135115459, -0.817091227623525, 0.19067701407743676, -0.8626710829481387, -0.43272259504269045, 1.1471452510705995, 0.770858015005359, -0.6863368749429519, -1.0689065402766447, 0.3385783400545336, -0.4479852547484196, -1.0830658453066069, 1.071588122566602, 0.6875695249071343, 1.035753739022164, 2.6151225178654904, -1.5491159989484662, 0.12563470176298125, -0.7045985807781708, 0.9013312760770398, -0.9535488890862864, -0.1594418430979171, 0.5808307806061287, -0.5455212147659877, 0.017898242078518006, -0.19878931919884738, -0.8049328899444138, 0.8026233849115728, -0.4596234407094548, -1.4820394178442704, 0.46534116690367683, -0.12632243511516814, 0.6568678909878808, 0.6456933262109225, 0.42783031432211566, -0.6698333661174898, 0.04471762419648482, 0.7281900891230134, 1.0337703175272508, 0.9468916517381577, 0.3822811072294331, 0.28186082044131516, 0.2540013196067219, 0.8942794541651006, -0.28506437440408505, 0.8870569476797115, 0.8577034966072484, 0.9918232542445851, 0.01708098836510289, -0.3856759213595281, -0.08465663018010382, -0.33588152282162875, -0.4605323191075875, 1.0327864078561297, 0.3041978828855798, -1.131403317985207, 0.890231096253012, -0.151828415464754, -0.015856876388572805, 1.0970230594104027, -0.9592656315339583, 1.287423810716427, 0.11100019705939249, 0.09516876180035647, -0.4674212934108406, -0.8722096564615895, 0.4928803753770952, -0.9208661381928012, 0.2653347236896861, 0.9435513881887935, -0.7554971854097841, 0.6970464022483096, -0.31776410409863354, 0.034243063023286245, -0.898335733604705, 0.4603877472791753, -0.2635685771075633, 0.36330177191044166, -0.5672255020050264, 0.7758133180102998, 0.04304255889026513, 0.33744195422586765, 0.5998097627000887, -0.5694215455811162, -0.22102625846469884, 0.7011789129624858, -0.7260785564408074, 0.3952418725941858, -0.6927671092322946, -0.9174658795651679, -0.878203155465971, 0.7720995188723638, 0.85593606098392, -0.022470589167674252, 0.3272326657658097, -0.8487560461710578, -0.6036643448527415, -0.02319649057039481, -0.8642157117240998, -0.8627119861175689, 0.9183827151291988, -0.5999909641197413, 0.7646248965588486, -0.1517026292924174, -0.3305868769371094, -0.5769860227528165, -0.6516269132162404, 0.00916576329080109, -0.3443878768251974, -1.0353846620518823, 0.5999410003494517, -0.7460885091066437, 0.46214677126344883, 0.6368954778993509, -0.8638270190055563, -0.15655968196758346, -0.598197954079079, 0.48166919829387134, 0.3059709433040587, 0.3766513964472335, 1.4421330993202037, 0.14212611990829593, -0.1623269942611605, -0.8555742714922839, -0.15070832882920282, 1.3802818588482941, 0.786522258945226, -0.27072905014852033, 0.8726920744679254, -0.6625714189403903, 0.6757260899684482, -0.02075575568946445, 0.7908837046383378, 0.8956737741376645, 0.5786581551001833, 0.47738598100561214, 0.5156760062762297, -1.0784650818064634, -0.9487821277140535, -0.5947276520378466, 0.321160391242517, -0.6011140222680484, -0.25904815233590256, 0.27840828997960015, 0.27011322964714307, 0.1774626121264222, -0.8604572678260926, 0.07072142874606864], "biases": [-1.0122119146341508, -1.2543155885021577, -0.9691901073550002, -0.8626529787218007, -0.8997257037594423, -1.1401871037397708, -0.9409172382826981, -0.9381985708179056, -0.9488736217063808, -0.9875810984662127, -1.1258072800711125, -0.9732799530136871, -0.33792471623755627, -0.7511799479565058, -1.3707531438167189, -0.7961081620995011, -1.1107248735692379, -0.7478546861096917, -0.9936146247992991, -0.8610615325977279, -0.9006520476225969]}