{"generation": 16050, "inputs": ["cart.x", "cart.vel", "bob.x", "bob.y", "bob.vel"], "outputs": ["acceleration"], "layers": [5, 10, 10, 1], "hidden_activation": "tanh", "output_activation": "tanh", "ticks": 3689400000, "time": 99880.17979550362, "weights": [0.24909003771745145, 0.3292242073472567, -0.44358482712110975, -0.24681024088520087, -0.6308536885266428, 0.2412506060926884, -0.6719842378009724, 0.47605211514703344, -0.4458793922723749, 0.1360032269329248, 0.8620704117615607, -0.8463075176395551, -0.6924981135115459, -0.8168849375484752, 0.19147364063588485, -0.8626710829481387, -0.4328779392496678, 1.1471452510705995, 0.770858015005359, -0.6863368749429519, -1.0684792716345994, 0.3385783400545336, -0.44705607051775476, -1.0830658453066069, 1.071588122566602, 0.6875695249071343, 1.035753739022164, 2.6151225178654904, -1.5480616188268272, 0.1262110057250804, -0.7045985807781708, 0.9014783960517, -0.9537271585026168, -0.1594418430979171, 0.5808307806061287, -0.546218264188979, 0.017898242078518006, -0.19878931919884738, -0.8049328899444138, 0.8026233849115728, -0.4596234407094548, -1.4833626409402103, 0.46534116690367683, -0.12632243511516814, 0.6568678909878808, 0.6456933262109225, 0.42783031432211566, -0.6698333661174898, 0.04471762419648482, 0.7281900891230134, 1.0337703175272508, 0.9468916517381577, 0.3831706863002698, 0.28186082044131516, 0.25330358946798803, 0.8942794541651006, -0.2849271789544592, 0.8870569476797115, 0.8577034966072484, 0.9918232542445851, 0.01708098836510289, -0.3856759213595281, -0.08465663018010382, -0.33588152282162875, -0.46006379853485796, 1.0327864078561297, 0.3041978828855798, -1.131403317985207, 0.890231096253012, -0.151828415464754, -0.015856876388572805, 1.0970230594104027, -0.9574385673069375, 1.287423810716427, 0.11100019705939249, 0.09556371925466416, -0.4674212934108406, -0.8722096564615895, 0.4928803753770952, -0.9208661381928012, 0.2653347236896861, 0.9435513881887935, -0.7550399293825739, 0.6970464022483096, -0.31776410409863354, 0.034243063023286245, -0.9005812788067111, 0.4625039909043312, -0.2635685771075633, 0.36330177191044166, -0.5672255020050264, 0.7758133180102998, 0.04304255889026513, 0.33744195422586765, 0.5998097627000887, -0.5691573270092823, -0.22102625846469884, 0.7011789129624858, -0.7260785564408074, 0.3952418725941858, -0.6927671092322946, -0.9174658795651679, -0.878203155465971, 0.7720995188723638, 0.8561310558018976, -0.02370575434264924, 0.3272326657658097, -0.8487560461710578, -0.6036643448527415, -0.02319649057039481, -0.8642157117240998, -0.8627119861175689, 0.9183827151291988, -0.5992914551474652, 0.764223296562767, -0.1517026292924174, -0.3305868769371094, -0.5769860227528165, -0.6516269132162404, 0.008979950326963684, -0.3443878768251974, -1.0353846620518823, 0.5999410003494517, -0.7460885091066437, 0.46126639484988824, 0.6362092578500719, -0.8638270190055563, -0.156911011423623, -0.597987161773745, 0.48166919829387134, 0.3059709433040587, 0.3766513964472335, 1.4421330993202037, 0.1422033998124391, -0.1623269942611605, -0.8562220211861497, -0.15070832882920282, 1.3802818588482941, 0.786522258945226, -0.27079557671963783, 0.8726920744679254, -0.6625714189403903, 0.6757260899684482, -0.02120870569567561, 0.7908837046383378, 0.8956051486493419, 0.5789629263701109, 0.47693080018060935, 0.5156760062762297, -1.0784650818064634, -0.9487821277140535, -0.594461019412117, 0.321160391242517, -0.6011140222680484, -0.25904815233590256, 0.27840828997960015, 0.27011322964714307, 0.1774626121264222, -0.8604572678260926, 0.07072142874606864], "biases": [-1.0121926087444562, -1.2545051823152866, -0.9689486474676388, -0.8629286605888842, -0.9000118867062704, -1.1402134730298787, -0.9409992806308876, -0.9381648434733041, -0.9490565077812599, -0.9875080491348612, -1.1253325029744439, -0.9732799530136871, -0.3379951941186361, -0.7504064474319392, -1.3716828165851753, -0.796199654740467, -1.110443214564325, -0.7483111381808422, -0.9939306410937458, -0.8610542158005194, -0.9005717146837063]}