{"generation": 13530, "inputs": ["cart.x", "cart.vel", "bob.x", "bob.y", "bob.vel"], "outputs": ["acceleration"], "layers": [5, 10, 10, 1], "hidden_activation": "tanh", "output_activation": "tanh", "ticks": 2751420000, "time": 74256.69114875793, "weights": [0.20039554893049105, 0.3659903709147952, -0.5152734462420415, -0.26020032709351437, -0.5426817099233286, 0.31244828317856727, -0.5603367154060706, 0.5250599382429079, -0.4056060128869254, 0.11741929106403053, 0.8966424727241153, -0.9489258701809292, -0.6438930226719729, -0.7189006970628343, 0.2447200798661576, -0.8937776358979752, -0.4047020967716789, 1.145332632390897, 0.7159953957862786, -0.6768260015162568, -1.13442540123269, 0.22998644184792655, -0.45088082871854657, -1.015157461846841, 1.1998361644860216, 0.6483593370683692, 0.9576579863422329, 2.639762291588296, -1.4901241301140344, 0.12587682476629758, -0.7058026188441527, 0.9285668102713708, -0.9535488890862864, -0.13915364142038703, 0.5808553751809642, -0.5052914340810509, 0.00873819172482711, -0.1840443466759913, -0.8412917739156033, 0.8332094053431566, -0.3791294086999917, -1.4825007438837863, 0.4451709395127472, -0.1505734516878336, 0.771645572982076, 0.5411948492268421, 0.4476861599367489, -0.5942986360192898, -0.021919466212220184, 0.5007919469570046, 1.0208261653944708, 0.9218548505818729, 0.3971312701473292, 0.266049633107746, 0.29656282632836617, 0.8305003042589216, -0.26741930787930634, 0.8672116191942021, 0.857831399391301, 1.0028797861596517, -0.04648244988324642, -0.35958684975295213, -0.08617161571762548, -0.30318136255370615, -0.44686809610471756, 0.9642289368514072, 0.2871723230326158, -1.0999212928136717, 0.8739169844972053, -0.1558098828708655, -0.014020242195447077, 1.126343870009518, -1.0002920546573841, 1.2814028213758435, 0.12119953357490468, 0.0806947547436373, -0.42728555898352033, -0.9158668958680186, 0.5330684751970991, -0.9370582424841514, 0.24073679688738572, 0.9437209638173295, -0.7299251697285082, 0.7159660390801115, -0.2640131172929034, 0.09998624000412701, -0.9030374667518861, 0.4616488144437197, -0.2635685771075633, 0.36330177191044166, -0.5384779101183111, 0.7756820691212557, 0.04226986404424079, 0.3385002880457421, 0.6867202436838484, -0.5859170890539499, -0.14757525697722002, 0.6893710692196613, -0.7269985295638194, 0.36825981560143517, -0.6776941241226077, -0.8743976995045076, -1.0099173670632464, 0.7371273106672089, 0.8474401612917396, 0.016520279086504847, 0.27968591414092847, -0.9330978042068374, -0.5597200790907056, -0.028032012498563103, -0.8444376935437378, -0.8659134770226895, 0.9120748507938028, -0.6497975861659057, 0.8190885277759242, -0.15547896233994746, -0.35828906340238126, -0.5679963445640646, -0.642915919995226, 0.03876902185781144, -0.3455859534384205, -1.030440566190284, 0.6792812570832738, -0.74614876238123, 0.43400774171089784, 0.7818030914199652, -0.8720443605847334, -0.1598555813051783, -0.5625786835875325, 0.45256575222771267, 0.26772001260502926, 0.3302298986486097, 1.4481745345397625, 0.20218757014985114, -0.17058319729787585, -0.8509258985354067, -0.1576044648275475, 1.3780606128146706, 0.7825564149967795, -0.24699989877342182, 0.8516080185881851, -0.66181080960214, 0.7650966460882204, -0.006809604621303408, 0.6047696551030729, 0.8813284032783071, 0.5453499163563492, 0.4910257562379986, 0.5341094990085445, -1.030736955327355, -0.9920957628520565, -0.6067632717278758, 0.31817081563542066, -0.6373118051354674, -0.2970203180709168, 0.2994114529627177, 0.17731375500487553, 0.16104619705579712, -0.9044350204330034, 0.07082685121754405], "biases": [-1.0186457874432822, -1.2733854395704538, -0.9356602203012034, -0.8616137003672791, -0.9165105321990754, -1.1362346567212696, -0.8979138151853701, -0.9583523543646029, -0.9874756852180469, -0.9157687948674078, -1.046265185761629, -0.9659526611544529, -0.34306644973973766, -0.7724032212201741, -1.3779930673605087, -0.8030709513472252, -1.0759893917184975, -0.7707293718950283, -0.9956311471098788, -0.8135847734571237, -0.9261739338572843]}