{"generation": 13040, "inputs": ["cart.x", "cart.vel", "bob.x", "bob.y", "bob.vel"], "outputs": ["acceleration"], "layers": [5, 10, 10, 1], "hidden_activation": "tanh", "output_activation": "tanh", "ticks": 2663220000, "time": 72021.6762638092, "weights": [0.14444281228405143, 0.330913672452347, -0.5129293453356114, -0.21793038182022068, -0.5572243402723854, 0.31244828317856727, -0.5644365081603563, 0.43817453836427267, -0.4324344278620871, 0.04410786021954354, 0.8620848140006269, -0.9090576548756935, -0.7037432042152678, -0.602445178882151, 0.1692581046871235, -0.9000156551760072, -0.16658733930345354, 1.01458317059322, 0.7076059366540941, -0.6109141707218652, -1.0885908771777093, 0.23296749713524298, -0.40276245021754825, -0.9799355305225712, 1.1753651510199716, 0.5823374240575611, 1.0194362098976315, 2.625950822532893, -1.4771538619980986, 0.20328976554246184, -0.7058026188441527, 0.872511700717595, -0.9535488890862864, -0.13915364142038703, 0.5808553751809642, -0.5052914340810509, 0.01916020506251335, -0.1840443466759913, -0.8412917739156033, 0.7740126857129299, -0.20376531573187562, -1.5246704942844418, 0.515282407605338, -0.12966997664917013, 0.7642345156533552, 0.5253398624489927, 0.6215709964685305, -0.5329920031521173, -0.157463077177501, 0.49213426045263503, 1.036841142529327, 0.9321034069692429, 0.3876622686270253, 0.2558569478696234, 0.2098870539096142, 0.8427928610620684, -0.30311428572391563, 0.8604007057861184, 0.8221108542075487, 0.9983359377750298, -0.04648244988324642, -0.35958684975295213, -0.10360594897583131, -0.34418316318984843, -0.40574527041155517, 0.8818753966186599, 0.2871723230326158, -1.0569554793799174, 0.8739169844972053, -0.13940408270174123, -0.08549726165283811, 1.0724949810257296, -0.9671756679534996, 1.2168265374633873, 0.18497214225426337, 0.20136228441992635, -0.42728555898352033, -0.958300832266463, 0.5551547868618456, -0.9214346618673405, 0.2347438305508091, 0.9437209638173295, -0.7145660937652835, 0.7037270130896304, -0.2361620311375044, 0.14349487469955277, -0.9030374667518861, 0.4645032583076323, -0.2635685771075633, 0.37162472544261865, -0.5384779101183111, 0.7756820691212557, 0.0861550372295887, 0.358641112365649, 0.7455226672179013, -0.622016528598199, -0.18452744763815251, 0.7174976978837766, -0.7262611326442454, 0.36563193100039343, -0.6891704552434043, -0.8743976995045076, -1.0397961714678856, 0.7653967960395741, 0.9144674073247635, 0.023742009460479014, 0.27968591414092847, -0.9088025705356709, -0.5856806167231152, -0.028032012498563103, -0.8387948632490854, -0.8659134770226895, 0.9830550290718675, -0.6497975861659057, 0.7693555004544832, -0.20089348984739863, -0.37235451334019515, -0.5077643524216253, -0.642915919995226, 0.03876902185781144, -0.34622429219290807, -0.9884494208503218, 0.7193641389435235, -0.7802485923337367, 0.38915399509341125, 0.7827928633892938, -0.8720443605847334, -0.20255070948947915, -0.5183136380850356, 0.4401031367457112, 0.2665402202641183, 0.3302298986486097, 1.4998370593618369, 0.1669301054281564, -0.2192998593271277, -0.8011659107185634, -0.11004986107177847, 1.3623361065057102, 0.8214827325457579, -0.3109089143967274, 0.8427156984528393, -0.66181080960214, 0.7834989303912652, -0.006809604621303408, 0.5530086962368508, 0.864044874745355, 0.5261290473034032, 0.4910257562379986, 0.5341094990085445, -1.0035236761044535, -0.9969864674807293, -0.647470737301889, 0.31817081563542066, -0.673736883194119, -0.2970203180709168, 0.2994114529627177, 0.17767706924238946, 0.20342528098190774, -0.9219913617344035, 0.10669990094749743], "biases": [-1.0235846223759248, -1.1883218889982543, -0.9275403515945687, -0.8733539909686432, -0.905510152527652, -1.1028087797914488, -0.8990597556240715, -0.9604187157033006, -0.9939550715186407, -0.9728859731540719, -1.0086875742991146, -0.9784606668486457, -0.3609462464969588, -0.8362552678838432, -1.377345771597458, -0.8498726939708933, -1.02360470438609, -0.8029128593531327, -0.9879727278739255, -0.7944775235265092, -0.9211539725744377]}