{"generation": 13340, "inputs": ["cart.x", "cart.vel", "bob.x", "bob.y", "bob.vel"], "outputs": ["acceleration"], "layers": [5, 10, 10, 1], "hidden_activation": "tanh", "output_activation": "tanh", "ticks": 2717220000, "time": 73040.10641670227, "weights": [0.13429448123708018, 0.3265121391666499, -0.5007962541698586, -0.19426700806111213, -0.5650615027298446, 0.31244828317856727, -0.48255567828322754, 0.511539926310454, -0.4056060128869254, 0.1468260960917171, 0.8629623013124217, -0.9242735256208809, -0.6198967085791348, -0.6451762186715181, 0.2447200798661576, -0.9005774826487465, -0.24578513453753995, 1.0829048052593746, 0.7360596902006235, -0.772465172058819, -1.13442540123269, 0.22998644184792655, -0.45088082871854657, -1.0251809561591276, 1.1657529329015826, 0.6483593370683692, 1.0213144651178063, 2.6359490454131764, -1.470662997292207, 0.08241123335863332, -0.7058026188441527, 0.9079827767877761, -0.9535488890862864, -0.13915364142038703, 0.5808553751809642, -0.5052914340810509, 0.00746114825453496, -0.1840443466759913, -0.8412917739156033, 0.8060086482856113, -0.24759408479273165, -1.4825007438837863, 0.5068134205183897, -0.1927421543192882, 0.771645572982076, 0.5613304184377809, 0.52554701321496, -0.5213784784681886, -0.07808517669205771, 0.4648621493747437, 1.036841142529327, 0.9218548505818729, 0.3971312701473292, 0.266049633107746, 0.31351127020709435, 0.7871939619818784, -0.30311428572391563, 0.8611476071601878, 0.857831399391301, 0.9581216303093204, -0.04648244988324642, -0.35958684975295213, -0.10360594897583131, -0.30695850787616885, -0.40061121658085924, 0.9642289368514072, 0.2871723230326158, -1.0569554793799174, 0.8739169844972053, -0.1558098828708655, -0.05869154917488774, 1.094124811632598, -0.9671756679534996, 1.249128175076482, 0.15605043159061507, 0.20136228441992635, -0.42728555898352033, -0.9158668958680186, 0.5646852071820075, -0.9370582424841514, 0.24073679688738572, 0.9437209638173295, -0.7299251697285082, 0.7159660390801115, -0.2534735319808028, 0.09998624000412701, -0.9030374667518861, 0.4616488144437197, -0.2635685771075633, 0.37907772179378335, -0.5384779101183111, 0.7756820691212557, 0.04226986404424079, 0.3385002880457421, 0.76052839221178, -0.6212290539210727, -0.18452744763815251, 0.6893710692196613, -0.7269985295638194, 0.3688261672588137, -0.6776941241226077, -0.8743976995045076, -1.0099173670632464, 0.7371273106672089, 0.8529162774532074, 0.016520279086504847, 0.27968591414092847, -0.9330978042068374, -0.5856806167231152, -0.028032012498563103, -0.8444376935437378, -0.8659134770226895, 0.9120748507938028, -0.6497975861659057, 0.7893577895668903, -0.20089348984739863, -0.35828906340238126, -0.5278756972560392, -0.642915919995226, 0.03876902185781144, -0.3455859534384205, -0.9884494208503218, 0.7193641389435235, -0.7736660988739567, 0.38977662229895865, 0.7818030914199652, -0.8720443605847334, -0.20255070948947915, -0.5625786835875325, 0.45256575222771267, 0.26772001260502926, 0.3302298986486097, 1.445218405304139, 0.195549931332553, -0.2028117429603411, -0.8872803784540779, -0.1576044648275475, 1.3780606128146706, 0.7944368185573365, -0.28052726473547923, 0.8516080185881851, -0.66181080960214, 0.7650966460882204, -0.006809604621303408, 0.579666921056951, 0.861896369044542, 0.5453499163563492, 0.4910257562379986, 0.5341094990085445, -1.0017778277116935, -0.9913460198572466, -0.6067632717278758, 0.31817081563542066, -0.6641006700962666, -0.2970203180709168, 0.2994114529627177, 0.17731375500487553, 0.17798940396703103, -0.9219913617344035, 0.07082685121754405], "biases": [-1.0288626065368385, -1.1927011910345433, -0.9252553907961928, -0.846978296324236, -0.9076331414178109, -1.1261442912499986, -0.8970605742225246, -0.9792138504791834, -0.9794490968723323, -0.9486001626218769, -1.0535450006339255, -0.9783245442176761, -0.3830854196422387, -0.7964716715394766, -1.3839488935080437, -0.8094980240263105, -1.0657048676051717, -0.7681511033349873, -0.9911020270244555, -0.8281989317917143, -0.9438040467972919]}