{"generation": 16770, "inputs": ["cart.x", "cart.vel", "bob.x", "bob.y", "bob.vel"], "outputs": ["acceleration"], "layers": [5, 10, 10, 1], "hidden_activation": "tanh", "output_activation": "tanh", "ticks": 4013400000, "time": 109812.67550468445, "weights": [0.2494454635827399, 0.3298218354285209, -0.4456364529479526, -0.24681024088520087, -0.6316603983499169, 0.24188440950993773, -0.6719842378009724, 0.4771546364779053, -0.446181308550465, 0.13559760968282622, 0.8620704117615607, -0.845899187853918, -0.692525502787566, -0.8178067879561317, 0.19204364785540842, -0.8626710829481387, -0.4328779392496678, 1.1471452510705995, 0.7710605227389195, -0.6863368749429519, -1.0684792716345994, 0.33804421065412704, -0.44705607051775476, -1.0824584140511526, 1.0718514158641814, 0.6881927431823851, 1.035753739022164, 2.6145161756775286, -1.5476977473648803, 0.1262110057250804, -0.7045985807781708, 0.8996802574155516, -0.9537271585026168, -0.1596883281576508, 0.5808307806061287, -0.5469041331115414, 0.017898242078518006, -0.19944119759719908, -0.8049328899444138, 0.8035780988766711, -0.4596234407094548, -1.4833626409402103, 0.46534116690367683, -0.12632243511516814, 0.6570113665061125, 0.6458788554054, 0.42783031432211566, -0.6698333661174898, 0.04471762419648482, 0.7281900891230134, 1.0337703175272508, 0.9468916517381577, 0.3835173053047519, 0.28186082044131516, 0.2528577801967181, 0.8939538224972052, -0.2847495168371616, 0.8872546411923645, 0.8577560378070709, 0.9928184027289682, 0.01708098836510289, -0.3856759213595281, -0.08395967152985749, -0.33588152282162875, -0.46006379853485796, 1.0322946141514906, 0.30425343355459866, -1.131174710991622, 0.8902131831584867, -0.15024244139447665, -0.015856876388572805, 1.0964914026419748, -0.9581723896681705, 1.287363124440803, 0.11126121767014019, 0.09749877483573645, -0.4674212934108406, -0.8715230930405266, 0.4924570747026937, -0.921276617823696, 0.2654367171306967, 0.9444563259733906, -0.7549938367211836, 0.6967527107540628, -0.3172908278434726, 0.03369104901083056, -0.9005812788067111, 0.4622161090496645, -0.265117512421254, 0.36330177191044166, -0.5672255020050264, 0.7758133180102998, 0.04219506886971577, 0.33744195422586765, 0.5998097627000887, -0.5691573270092823, -0.22187458118858655, 0.7017113545119734, -0.7260785564408074, 0.3942592993548388, -0.6928997675136047, -0.9172553510856005, -0.878203155465971, 0.7720995188723638, 0.8562812431017772, -0.023132492114459197, 0.32714166626075136, -0.8491021758160222, -0.6036643448527415, -0.022739546818184568, -0.8637036355784615, -0.8627119861175689, 0.9174020225626766, -0.5993024333754716, 0.7643678438396845, -0.15179360663231717, -0.33163956765747626, -0.5769860227528165, -0.6506231702396935, 0.008979950326963684, -0.34366821187777974, -1.0353846620518823, 0.5991242519049167, -0.7460885091066437, 0.46060130049810927, 0.6362825671036425, -0.8635452704271775, -0.1576508772059959, -0.597584432119838, 0.48166919829387134, 0.30572407857311823, 0.3766513964472335, 1.442541525102447, 0.14180745476882745, -0.16261203152067452, -0.8562220211861497, -0.15038173615425934, 1.3802818588482941, 0.786522258945226, -0.27079557671963783, 0.8725797280170225, -0.6625714189403903, 0.6757260899684482, -0.02120870569567561, 0.7914347344682435, 0.8959805177441773, 0.5789629263701109, 0.4778337621236122, 0.5157599342233656, -1.0775986204523795, -0.9487821277140535, -0.5943735209888943, 0.321160391242517, -0.6011140222680484, -0.25904815233590256, 0.27840828997960015, 0.27011322964714307, 0.1774626121264222, -0.8604572678260926, 0.07072142874606864], "biases": [-1.012076122076395, -1.2524773871511148, -0.9690663755020388, -0.8633309450252031, -0.9006837673729645, -1.1394181580270868, -0.9411928893251559, -0.9375969380312854, -0.9491631681114268, -0.9862704211454814, -1.1247913584602238, -0.9727481549780198, -0.3379041921300953, -0.7495506983619412, -1.3721350661372882, -0.7959190698462418, -1.1101654736885822, -0.7469742235781726, -0.9943480198012009, -0.8617083761350255, -0.9009190293458061]}