{"generation": 13140, "inputs": ["cart.x", "cart.vel", "bob.x", "bob.y", "bob.vel"], "outputs": ["acceleration"], "layers": [5, 10, 10, 1], "hidden_activation": "tanh", "output_activation": "tanh", "ticks": 2681220000, "time": 72316.72249174118, "weights": [0.17876326705418893, 0.3265121391666499, -0.4781629613441725, -0.21793038182022068, -0.5572243402723854, 0.31244828317856727, -0.5266671099161419, 0.4932043889130043, -0.4324344278620871, 0.0817058329400348, 0.8629623013124217, -0.9090576548756935, -0.6534120823991897, -0.602445178882151, 0.2447200798661576, -0.9000156551760072, -0.22310866570991844, 1.006153572316483, 0.7076059366540941, -0.677675289613465, -1.0885908771777093, 0.22998644184792655, -0.40276245021754825, -0.9799355305225712, 1.1753651510199716, 0.6092117878742696, 1.0194362098976315, 2.643420849313335, -1.4771538619980986, 0.14898530613828578, -0.7058026188441527, 0.9079827767877761, -0.9535488890862864, -0.13915364142038703, 0.5808553751809642, -0.5052914340810509, 0.01916020506251335, -0.1840443466759913, -0.8412917739156033, 0.7740126857129299, -0.16791147371766996, -1.5246704942844418, 0.5216138564289496, -0.14627112577711268, 0.724252032408956, 0.5748467596777054, 0.627769054505885, -0.5716869912331808, -0.12156368409039141, 0.45348504035117115, 1.036841142529327, 0.9321034069692429, 0.3876622686270253, 0.266049633107746, 0.2098870539096142, 0.8457188234077875, -0.30311428572391563, 0.8643841065984461, 0.8221108542075487, 0.9983359377750298, -0.04648244988324642, -0.35958684975295213, -0.10360594897583131, -0.333733314645479, -0.40574527041155517, 0.9037697901328328, 0.2871723230326158, -1.0569554793799174, 0.8739169844972053, -0.13940408270174123, -0.05869154917488774, 1.0467989339058115, -0.9671756679534996, 1.228868136686689, 0.18497214225426337, 0.20136228441992635, -0.42728555898352033, -0.958300832266463, 0.5551547868618456, -0.9214346618673405, 0.24073679688738572, 0.9437209638173295, -0.7299251697285082, 0.7037270130896304, -0.2501683031263133, 0.09998624000412701, -0.9030374667518861, 0.4571248202335674, -0.2635685771075633, 0.37162472544261865, -0.5384779101183111, 0.7756820691212557, 0.0861550372295887, 0.3828076924133054, 0.7455226672179013, -0.622016528598199, -0.18452744763815251, 0.7174976978837766, -0.7262611326442454, 0.3688261672588137, -0.6891704552434043, -0.8743976995045076, -1.0397961714678856, 0.7371273106672089, 0.8876802128677789, 0.023742009460479014, 0.27968591414092847, -0.9330978042068374, -0.5856806167231152, -0.028032012498563103, -0.8444376935437378, -0.8659134770226895, 0.9385085684176355, -0.6497975861659057, 0.7893577895668903, -0.20089348984739863, -0.37235451334019515, -0.5297631626537829, -0.642915919995226, 0.03876902185781144, -0.34622429219290807, -0.9884494208503218, 0.7193641389435235, -0.7802485923337367, 0.38915399509341125, 0.7818030914199652, -0.8720443605847334, -0.20255070948947915, -0.5183136380850356, 0.4401031367457112, 0.22152494030516434, 0.3302298986486097, 1.4693570391795623, 0.1669301054281564, -0.18328251489575648, -0.8526647040009606, -0.11004986107177847, 1.3623361065057102, 0.8214827325457579, -0.28052726473547923, 0.8427156984528393, -0.66181080960214, 0.7834989303912652, -0.006809604621303408, 0.5033438241223535, 0.8583709482934153, 0.5453499163563492, 0.4910257562379986, 0.5341094990085445, -1.0035236761044535, -0.9969864674807293, -0.6474969058622085, 0.31817081563542066, -0.6641006700962666, -0.2970203180709168, 0.2994114529627177, 0.17731375500487553, 0.20342528098190774, -0.9219913617344035, 0.10669990094749743], "biases": [-1.026503167961272, -1.2078472693841973, -0.9275403515945687, -0.8719088847690142, -0.8907162048975703, -1.109759527488055, -0.8990702586386132, -0.9626340026159842, -0.9877950170064991, -0.9684231566822543, -1.0361454292658991, -0.9772744572292371, -0.36936569722606494, -0.8334665647945374, -1.3423981662648425, -0.8249585661068185, -1.0417180292266457, -0.7932767561363054, -0.9920721735023064, -0.8216841335522189, -0.9318912765217781]}