{"generation": 2396, "inputs": ["cart.x", "cart.vel", "bob.x", "bob.y", "bob.vel"], "outputs": ["acceleration"], "layers": [5, 10, 10, 1], "hidden_activation": "tanh", "output_activation": "tanh", "ticks": 747300000, "time": 26025.98084807396, "weights": [0.31790880334968674, 0.27617564432457237, -0.3618864861158361, -0.2358504303272281, -0.7582840059755882, 0.28586730087158974, -0.5699744086373131, 0.2040202348242357, -0.48218753149340127, -0.0032455170626001784, 0.7425376677792724, -0.7985527663590324, -0.710143279709185, -0.31103568760020595, 0.22435299769645664, -0.8523242744340148, -0.3885163370054223, -0.36179168185188115, 0.8048442783096386, -0.719868880254971, -1.0723843362402425, 0.5802809063032619, -0.36945171245286346, -0.4182934557872149, 0.985227786342732, 0.5302356542023278, 0.925577407337155, 1.6884906383658602, -1.2972480754159075, -0.026796379629226798, -0.7115807442782721, 0.6155991254395682, -0.9535488890862864, -0.13792041896438612, 0.5746970347690407, -0.5054996071920614, -0.016178999869357388, -0.13991852752663833, -0.8385607744583502, 0.9536858227186806, -0.19280595226066413, -0.7775307663330854, 0.5553585166775961, -0.48633494644054326, 0.6464685588742021, 0.6360194872434158, 0.5877825443427299, -0.7487124885190864, -0.19633386057856664, 0.5208532178679129, 1.0318615283119983, 0.920956269350589, 0.503364144802241, 0.23331903246531982, 0.28111186201378163, 0.7784197030363995, -0.33490063971591333, 0.8404054461177836, 0.9340490890696393, 0.8165963611552998, -0.04847273851931771, -0.36373670155337723, 0.07692358248613691, -0.34119737205014516, -0.4913682726040518, 0.7255759878038784, 0.2491919624457284, -0.9500538995275485, 0.8626150861023584, -0.04311475040511016, -0.46093582225376734, 0.9151304313586661, -0.5830832498062702, 1.1554764170211034, 0.036377627428869456, 0.16027732667652272, -0.15870589389315892, -0.19228858942282678, 0.4947426817677346, 0.08002616642699877, 0.19813797976687886, 0.9039219588309315, -0.7126630775928015, 0.8020920317167791, -0.21773417994614094, 0.12377447201929301, -0.7693519511616119, 0.47735599925786604, -0.30831786303460934, 0.42230886415424446, -0.5270296775754502, 0.8126866705170493, 0.07920909049178049, 0.41050061512160774, 0.9563104294647018, -0.7344110729332065, -0.23409226168415875, 0.6749028685763809, -0.6676039101698861, 0.30747216220233214, -0.726682215429873, -0.8996035302198662, -0.6399652879565765, 0.7542270307198253, 0.9822118868860042, -0.04601030775510342, 0.2870253080398079, -0.7911799129289014, -0.5918768464742457, -0.03122823559309458, -0.838005754250142, -0.8654098293518895, 0.8655470616987523, -0.6650076155758472, 0.34730286367014185, -0.36860324789047105, -0.31511231783539, -0.4749511285049737, -0.6076111669391542, 0.022664254855407164, -0.3812356957938743, -0.9550588504314981, 0.7872130239742762, -0.7613140208482911, 0.5549190845373145, 0.7239537383721798, -0.8691550776260446, -0.21862184745447566, -0.5397400890343823, 0.4958105500332458, 0.2785660448841871, 0.33729855934112585, 0.9068789833560104, 0.3991512249257588, -0.32975380613456257, -0.7832265282699641, -0.11008272042986822, 0.8474997379138419, 0.8465313521300877, -0.3523967269034912, 0.84698317986885, -0.6539194453549769, 0.8261333003898892, -0.006809604621303408, 0.44933606170581936, 0.9008619584628456, 0.5278650018228443, 0.585661087580917, 0.5621898225384101, -1.0751530183252354, -0.9016035726702076, -0.670757525204748, 0.301136523241502, -0.7299641490319284, -0.27425117924380926, 0.3674614086588591, 0.16715428625516596, 0.25147960823205323, -0.8822333994582606, 0.1490423873971553], "biases": [-1.056393780302582, -0.9661488966143492, -0.9567623585633012, -0.9905205544709439, -1.0080245464038555, -1.1000469960009387, -0.9061079125483703, -0.9791978041745828, -1.0051810587593635, -0.9839008254799367, -1.0246218561186526, -1.0036289183073988, -0.8852984672240284, -0.9095888042879409, -1.1491826137982124, -0.9354121008905938, -0.9803823141078651, -0.9234599570543768, -0.971954967188546, -1.0008562841515105, -0.9410089990667205]}