{"generation": 2785, "inputs": ["cart.x", "cart.vel", "bob.x", "bob.y", "bob.vel"], "outputs": ["acceleration"], "layers": [5, 10, 10, 1], "hidden_activation": "tanh", "output_activation": "tanh", "ticks": 817320000, "time": 27550.39756131172, "weights": [0.31790880334968674, 0.28047776324834456, -0.35624357841259574, -0.22111481465388177, -0.7824532732265919, 0.22964160352014584, -0.6057797813567847, 0.2040202348242357, -0.4404260923912102, 0.05617455877104025, 0.7425376677792724, -0.8026101305000717, -0.710143279709185, -0.4549602071745236, 0.22435299769645664, -0.8498373279923148, -0.3885163370054223, -0.24970562596991225, 0.8048442783096386, -0.719868880254971, -1.084073615821414, 0.5781229832233616, -0.36945171245286346, -0.633641185991252, 0.9596981689946126, 0.5302356542023278, 0.925577407337155, 1.9248131497504843, -1.3135788671298922, -0.01286956883393952, -0.7115807442782721, 0.6155991254395682, -0.9535488890862864, -0.13792041896438612, 0.5361608037948429, -0.5054996071920614, -0.016178999869357388, -0.13991852752663833, -0.8385607744583502, 0.9536858227186806, -0.19280595226066413, -0.8461073077770722, 0.5553585166775961, -0.2894528997559275, 0.6750624919094137, 0.6360194872434158, 0.5877825443427299, -0.7884524784872766, -0.19633386057856664, 0.5208532178679129, 1.0318615283119983, 0.9204561579618604, 0.5654221862196319, 0.23486902647931854, 0.2194147374567197, 0.7766592527790197, -0.33490063971591333, 0.8404054461177836, 0.9340490890696393, 0.8165963611552998, -0.04847273851931771, -0.36373670155337723, 0.07692358248613691, -0.34119737205014516, -0.47759493277354936, 0.7254809094097077, 0.2491919624457284, -0.9500538995275485, 0.8626150861023584, -0.04311475040511016, -0.4390573039936704, 0.9817902518833458, -0.5865916846965818, 1.2107510767113019, 0.03732002882290348, 0.07074304096002647, -0.32830574189899964, -0.2953673934269087, 0.6814759449828344, 0.0641832964761229, 0.19813797976687886, 0.9039219588309315, -0.7126630775928015, 0.7587413695164887, -0.1989833617468289, 0.12377447201929301, -0.8068512607468008, 0.47735599925786604, -0.30831786303460934, 0.42230886415424446, -0.5270296775754502, 0.8126866705170493, 0.07920909049178049, 0.41050061512160774, 0.9128514692906015, -0.7361889118962143, -0.21822557948063934, 0.6749028685763809, -0.6676039101698861, 0.3450769988641672, -0.726682215429873, -0.8996035302198662, -0.6366094532950474, 0.7542270307198253, 0.9798412027693547, -0.03749187258698374, 0.2943120189724197, -0.7911799129289014, -0.5918768464742457, -0.011588312786755026, -0.838005754250142, -0.8654098293518895, 0.8853984368369557, -0.6717705808497553, 0.39060388270626084, -0.38187781305521507, -0.31511231783539, -0.4749511285049737, -0.6076111669391542, 0.022664254855407164, -0.3812356957938743, -0.9550588504314981, 0.7731484285962733, -0.7613140208482911, 0.5662102988932199, 0.7529811412003244, -0.8691550776260446, -0.21862184745447566, -0.5397400890343823, 0.4947289628607683, 0.2785660448841871, 0.34875702778685214, 0.9780840693714308, 0.35519548688038616, -0.3998674357121752, -0.7954665421256824, -0.11008272042986822, 0.8240542790554837, 0.8465313521300877, -0.3515039862507075, 0.84698317986885, -0.6539194453549769, 0.8261333003898892, -0.006809604621303408, 0.46586770229553714, 0.9237206519931416, 0.530210324756723, 0.585661087580917, 0.5621898225384101, -1.0751530183252354, -0.9016035726702076, -0.6625060902966523, 0.301136523241502, -0.7299641490319284, -0.27425117924380926, 0.3674614086588591, 0.16715428625516596, 0.25147960823205323, -0.8822333994582606, 0.1490423873971553], "biases": [-1.0563619832282665, -0.9683588856766472, -0.9567243777079071, -0.9905205544709439, -0.914346784709473, -1.1000519844572847, -0.9061079125483703, -0.9756130531954972, -1.0051810587593635, -0.989976272989195, -1.0279260342960694, -1.006600457251691, -0.8460682839697865, -0.9032614632886499, -1.2101431162058869, -0.9094268698186111, -0.9782007477112101, -0.9051136317772577, -0.9631296654904175, -0.9735949905783756, -0.9323330176998467]}