{"generation": 2042, "inputs": ["cart.x", "cart.vel", "bob.x", "bob.y", "bob.vel"], "outputs": ["acceleration"], "layers": [5, 10, 10, 1], "hidden_activation": "tanh", "output_activation": "tanh", "ticks": 680700000, "time": 24381.911374092102, "weights": [0.31790880334968674, 0.27587835513292286, -0.4005572821636031, -0.26612351975348825, -0.7659086073243764, 0.3250686469062474, -0.5699744086373131, 0.2543093389088187, -0.5535922663294112, 0.050952767220456587, 0.7425376677792724, -0.8254792817426283, -0.7040486891387759, -0.1255135442392829, 0.21797394060909842, -0.8523242744340148, -0.3885163370054223, -0.6648911698728335, 0.8048442783096386, -0.719868880254971, -1.0562669070447899, 0.5840169676513954, -0.36945171245286346, -0.24789219690320702, 0.9863751120445976, 0.5198657923560523, 0.925577407337155, 1.5417217689390224, -1.287296488659254, -0.018894253700905007, -0.6859301199851449, 0.6390305841431849, -0.9535488890862864, -0.13792041896438612, 0.6576964185365745, -0.5054996071920614, -0.016178999869357388, -0.12553976682340184, -0.8385607744583502, 0.9536858227186806, -0.19280595226066413, -0.7827995369959116, 0.5553585166775961, -0.7780995040597564, 0.6673703356506611, 0.6360194872434158, 0.5877825443427299, -0.572824996874123, -0.19633386057856664, 0.5191254684722508, 1.0318615283119983, 0.920956269350589, 0.4177931106604491, 0.3133533150236939, 0.29828888661044295, 0.8224150700158356, -0.4233812840390002, 0.8404054461177836, 0.9311432924548972, 0.8163260871481759, -0.04847273851931771, -0.3436976634551169, 0.09129645088158746, -0.27610284716446565, -0.4913682726040518, 0.7255759878038784, 0.2491919624457284, -0.8740074713895383, 0.8626150861023584, -0.08569777861357586, -0.5077363873662326, 0.7347911993443544, -0.49161989510124016, 0.7735685486554449, 0.055197898410112696, 0.1544239674479187, 0.018081374182782828, -0.13928765951276612, 0.33090562330807516, 0.23591324059170193, 0.20770703348954564, 0.9039219588309315, -0.6578238195420235, 0.8898040540221465, -0.23924572784342957, 0.171036045609986, -0.7715316901777749, 0.5252420611503852, -0.30831786303460934, 0.49875480652375537, -0.5270296775754502, 0.8126866705170493, 0.059608077621357315, 0.43394822685396084, 0.9503117780253594, -0.7344110729332065, -0.22906914766496625, 0.6749028685763809, -0.6676039101698861, 0.2650635520688512, -0.743797329558516, -0.8996035302198662, -0.5785837720428129, 0.7897458186581452, 0.894343411533515, -0.04830408879826099, 0.33615671322710533, -0.7707210727544724, -0.6120568863390048, 0.018629911619321662, -0.838005754250142, -0.8654098293518895, 0.8861378331814109, -0.621646579994036, 0.34371470713840574, -0.37283518953552486, -0.3220931442029011, -0.4749511285049737, -0.6076111669391542, 0.019772105626270926, -0.3812356957938743, -0.9550588504314981, 0.7606637362321413, -0.7613140208482911, 0.5545400657140561, 0.7283844533250783, -0.8691550776260446, -0.21862184745447566, -0.5397400890343823, 0.48409229637965595, 0.3163670600075451, 0.4353847430281793, 0.9442574678006976, 0.45271142295969613, -0.2969038601260401, -0.782753303007659, -0.1485441678447089, 0.8572388888580444, 0.8465313521300877, -0.38594891976850937, 0.84698317986885, -0.6102163694838324, 0.8261333003898892, -0.006809604621303408, 0.5428866691169016, 0.8527252460675571, 0.5278650018228443, 0.641540140111369, 0.554228832429201, -1.013099553312809, -0.993170065064684, -0.6716586290098069, 0.301136523241502, -0.698970426698128, -0.27425117924380926, 0.3674614086588591, 0.1819584600577156, 0.25147960823205323, -0.9151816199590128, 0.1490423873971553], "biases": [-1.0384804040299727, -0.978452629973744, -1.001465631503747, -1.0429687617136103, -1.0653227009268396, -1.0869904010220253, -0.8898924658061503, -0.9892400380862514, -1.009725577967295, -1.070175924163787, -1.0058392604310997, -1.025405127049959, -0.9619861211722872, -0.9719334527917913, -1.1140123294342492, -0.9103801706751664, -0.9592108726588664, -0.963462378277544, -0.9938917958484129, -1.0076554152780244, -0.9460731812753859]}