{"generation": 2328, "inputs": ["cart.x", "cart.vel", "bob.x", "bob.y", "bob.vel"], "outputs": ["acceleration"], "layers": [5, 10, 10, 1], "hidden_activation": "tanh", "output_activation": "tanh", "ticks": 735060000, "time": 25687.736398935318, "weights": [0.31790880334968674, 0.2610622362293557, -0.3618864861158361, -0.2509261751421837, -0.7582840059755882, 0.2943310437153992, -0.5699744086373131, 0.2040202348242357, -0.4948875554761833, 0.018207789357932304, 0.7425376677792724, -0.7985527663590324, -0.710143279709185, -0.31042042769528727, 0.22435299769645664, -0.8523242744340148, -0.3885163370054223, -0.36179168185188115, 0.8048442783096386, -0.719868880254971, -1.0723843362402425, 0.5802809063032619, -0.36945171245286346, -0.4182934557872149, 0.985227786342732, 0.5302356542023278, 0.925577407337155, 1.6884906383658602, -1.2972480754159075, -0.026796379629226798, -0.7115807442782721, 0.6221942600846719, -0.9535488890862864, -0.13792041896438612, 0.5369992489417921, -0.5054996071920614, -0.016178999869357388, -0.13991852752663833, -0.8385607744583502, 0.9536858227186806, -0.19280595226066413, -0.7827995369959116, 0.5553585166775961, -0.5557003586485073, 0.6330514551610229, 0.6360194872434158, 0.5877825443427299, -0.7487124885190864, -0.19633386057856664, 0.5208532178679129, 1.0318615283119983, 0.920956269350589, 0.5064438643841215, 0.23331903246531982, 0.28111186201378163, 0.7784197030363995, -0.33490063971591333, 0.8404054461177836, 0.9340490890696393, 0.8163260871481759, -0.04847273851931771, -0.36373670155337723, 0.09129645088158746, -0.34119737205014516, -0.4913682726040518, 0.7255759878038784, 0.2491919624457284, -0.9242461934265944, 0.8626150861023584, -0.04311475040511016, -0.46093582225376734, 0.9151304313586661, -0.5785568362163138, 1.0758527589133284, 0.035556022011356894, 0.19910322133050068, -0.15870589389315892, -0.20717588728054342, 0.4626090522290336, 0.11418038533610914, 0.19813797976687886, 0.9039219588309315, -0.6949036230590637, 0.8020920317167791, -0.21773417994614094, 0.12377447201929301, -0.7693519511616119, 0.47735599925786604, -0.30831786303460934, 0.4205235586244094, -0.5270296775754502, 0.8126866705170493, 0.07920909049178049, 0.41050061512160774, 0.9563104294647018, -0.7344110729332065, -0.23409226168415875, 0.6749028685763809, -0.6676039101698861, 0.30747216220233214, -0.726682215429873, -0.8996035302198662, -0.6216530261280541, 0.7924345826105657, 0.9822118868860042, -0.05107195228369096, 0.2870253080398079, -0.7911799129289014, -0.6120568863390048, -0.03122823559309458, -0.838005754250142, -0.8654098293518895, 0.8655470616987523, -0.6650076155758472, 0.330921769459427, -0.37283518953552486, -0.31511231783539, -0.4749511285049737, -0.6076111669391542, 0.022664254855407164, -0.3812356957938743, -0.9550588504314981, 0.7872130239742762, -0.7613140208482911, 0.5545400657140561, 0.7239537383721798, -0.8691550776260446, -0.21862184745447566, -0.5397400890343823, 0.4958105500332458, 0.2785660448841871, 0.33729855934112585, 0.9068789833560104, 0.3991512249257588, -0.2969038601260401, -0.7832265282699641, -0.11008272042986822, 0.8474997379138419, 0.8465313521300877, -0.3523967269034912, 0.84698317986885, -0.6539194453549769, 0.8261333003898892, -0.006809604621303408, 0.47225707650075893, 0.9008619584628456, 0.5278650018228443, 0.585661087580917, 0.5621898225384101, -1.0751530183252354, -0.9016035726702076, -0.670757525204748, 0.301136523241502, -0.7299641490319284, -0.27425117924380926, 0.3674614086588591, 0.16715428625516596, 0.25147960823205323, -0.8822333994582606, 0.1490423873971553], "biases": [-1.056393780302582, -0.9621591567638453, -0.9565667963628085, -0.9905205544709439, -1.0286887708920998, -1.1064295367089758, -0.906226539510954, -0.9791978041745828, -1.0051810587593635, -0.9906574673694941, -1.0246218561186526, -1.0036289183073988, -0.8770241206755915, -0.917456976751587, -1.1378552999820646, -0.9166771827071796, -0.9803823141078651, -0.9234599570543768, -0.9825139810872013, -1.0009477684940045, -0.9410089990667205]}