{"generation": 2477, "inputs": ["cart.x", "cart.vel", "bob.x", "bob.y", "bob.vel"], "outputs": ["acceleration"], "layers": [5, 10, 10, 1], "hidden_activation": "tanh", "output_activation": "tanh", "ticks": 761880000, "time": 26459.889326334, "weights": [0.31790880334968674, 0.27617564432457237, -0.3618864861158361, -0.2358504303272281, -0.7824532732265919, 0.28586730087158974, -0.5969458232790201, 0.2040202348242357, -0.4693023066992279, -0.007610212400579401, 0.7425376677792724, -0.7803583172255105, -0.710143279709185, -0.31103568760020595, 0.22435299769645664, -0.8523242744340148, -0.3885163370054223, -0.35349245649120337, 0.8048442783096386, -0.719868880254971, -1.0723843362402425, 0.5354631326877942, -0.36945171245286346, -0.4851500564226143, 0.9600839672692092, 0.5302356542023278, 0.925577407337155, 1.8163663606898495, -1.2972480754159075, -0.026796379629226798, -0.7115807442782721, 0.6155991254395682, -0.9535488890862864, -0.13792041896438612, 0.5330366503591532, -0.5054996071920614, -0.016178999869357388, -0.13991852752663833, -0.8385607744583502, 0.9536858227186806, -0.19280595226066413, -0.7920132932321918, 0.5553585166775961, -0.48633494644054326, 0.6576850341110941, 0.6360194872434158, 0.5877825443427299, -0.7487124885190864, -0.19633386057856664, 0.5208532178679129, 1.0318615283119983, 0.920956269350589, 0.5295698867684836, 0.23486902647931854, 0.261923650857927, 0.7784197030363995, -0.33490063971591333, 0.8404054461177836, 0.9340490890696393, 0.8165963611552998, -0.04847273851931771, -0.36373670155337723, 0.07692358248613691, -0.34119737205014516, -0.4913682726040518, 0.7255759878038784, 0.2491919624457284, -0.9500538995275485, 0.8626150861023584, -0.04311475040511016, -0.46093582225376734, 0.9680893210756577, -0.5830832498062702, 1.1866938656820356, 0.08237107769567181, 0.14038695074145796, -0.27260968428058036, -0.2442321457360884, 0.4947426817677346, 0.11174231820425397, 0.19813797976687886, 0.9039219588309315, -0.7126630775928015, 0.8020920317167791, -0.21773417994614094, 0.12377447201929301, -0.7693519511616119, 0.47735599925786604, -0.30831786303460934, 0.42230886415424446, -0.5270296775754502, 0.8126866705170493, 0.07920909049178049, 0.41050061512160774, 0.9404907764285714, -0.7344110729332065, -0.23409226168415875, 0.6749028685763809, -0.6676039101698861, 0.30747216220233214, -0.726682215429873, -0.8996035302198662, -0.6366094532950474, 0.7542270307198253, 1.0143697971710015, -0.04601030775510342, 0.2870253080398079, -0.7911799129289014, -0.5918768464742457, -0.03122823559309458, -0.838005754250142, -0.8654098293518895, 0.8764331406320358, -0.6650076155758472, 0.34730286367014185, -0.37802586702542607, -0.31511231783539, -0.4749511285049737, -0.6076111669391542, 0.022664254855407164, -0.3812356957938743, -0.9550588504314981, 0.7872130239742762, -0.7613140208482911, 0.5549190845373145, 0.7529811412003244, -0.8691550776260446, -0.21862184745447566, -0.5397400890343823, 0.49397405600166255, 0.2785660448841871, 0.34875702778685214, 0.9068789833560104, 0.3991512249257588, -0.3407960860923733, -0.7832265282699641, -0.11008272042986822, 0.8474997379138419, 0.8465313521300877, -0.3523967269034912, 0.84698317986885, -0.6539194453549769, 0.8261333003898892, -0.006809604621303408, 0.4467100033054673, 0.9008619584628456, 0.5278650018228443, 0.585661087580917, 0.5621898225384101, -1.0751530183252354, -0.9016035726702076, -0.670757525204748, 0.301136523241502, -0.7299641490319284, -0.27425117924380926, 0.3674614086588591, 0.16715428625516596, 0.25147960823205323, -0.8822333994582606, 0.1490423873971553], "biases": [-1.0563619832282665, -0.9734928833181905, -0.9567623585633012, -0.9905205544709439, -0.993572980727898, -1.1000469960009387, -0.9061079125483703, -0.9791978041745828, -1.0051810587593635, -0.9861835649866573, -1.0246218561186526, -1.0036289183073988, -0.8700041728010638, -0.9033266969026795, -1.160942618469968, -0.9041561350613266, -0.9782007477112101, -0.9234599570543768, -0.971954967188546, -1.0043208118502638, -0.9410089990667205]}