{"generation": 2145, "inputs": ["cart.x", "cart.vel", "bob.x", "bob.y", "bob.vel"], "outputs": ["acceleration"], "layers": [5, 10, 10, 1], "hidden_activation": "tanh", "output_activation": "tanh", "ticks": 702120000, "time": 24815.1726834774, "weights": [0.31790880334968674, 0.27587835513292286, -0.38332762580720575, -0.26612351975348825, -0.7582840059755882, 0.30458570607741325, -0.5699744086373131, 0.2040202348242357, -0.5417143447065087, 0.050952767220456587, 0.7425376677792724, -0.8254792817426283, -0.710143279709185, -0.2261447395143554, 0.21797394060909842, -0.8523242744340148, -0.3885163370054223, -0.47098241740846664, 0.8048442783096386, -0.719868880254971, -1.0723843362402425, 0.5840169676513954, -0.36945171245286346, -0.3396070108590039, 0.9451556398312573, 0.5198657923560523, 0.925577407337155, 1.64504800098977, -1.287296488659254, -0.018894253700905007, -0.6859301199851449, 0.6390305841431849, -0.9535488890862864, -0.13792041896438612, 0.6078232404860165, -0.5054996071920614, -0.016178999869357388, -0.12553976682340184, -0.8385607744583502, 0.9536858227186806, -0.19280595226066413, -0.7827995369959116, 0.5553585166775961, -0.6422351008416525, 0.62534999178403, 0.6360194872434158, 0.5877825443427299, -0.6465480482164233, -0.19633386057856664, 0.5191254684722508, 1.0318615283119983, 0.920956269350589, 0.43432269088537934, 0.30042475000663604, 0.29828888661044295, 0.8224150700158356, -0.33490063971591333, 0.8404054461177836, 0.9311432924548972, 0.8163260871481759, -0.04847273851931771, -0.36373670155337723, 0.09129645088158746, -0.27610284716446565, -0.4913682726040518, 0.7255759878038784, 0.2491919624457284, -0.9242461934265944, 0.8626150861023584, -0.07818142893786749, -0.46093582225376734, 0.855755095013396, -0.5381787879022508, 0.8169742064599406, 0.035556022011356894, 0.1544239674479187, -0.017965143963058393, -0.19388129360560347, 0.4049520215453787, 0.19260298480452726, 0.20770703348954564, 0.9039219588309315, -0.6578238195420235, 0.8020920317167791, -0.23924572784342957, 0.12377447201929301, -0.7715316901777749, 0.499414193410159, -0.30831786303460934, 0.49875480652375537, -0.5270296775754502, 0.8126866705170493, 0.059608077621357315, 0.41050061512160774, 0.9503117780253594, -0.7344110729332065, -0.23409226168415875, 0.6749028685763809, -0.6676039101698861, 0.3066460736668142, -0.743797329558516, -0.8996035302198662, -0.5785837720428129, 0.7534331490601838, 0.9078484565867798, -0.05107195228369096, 0.2870253080398079, -0.7707210727544724, -0.6120568863390048, -0.03122823559309458, -0.838005754250142, -0.8654098293518895, 0.8861378331814109, -0.642908083724155, 0.34371470713840574, -0.37283518953552486, -0.3220931442029011, -0.4749511285049737, -0.6076111669391542, 0.019772105626270926, -0.3812356957938743, -0.9550588504314981, 0.7581144463205548, -0.7613140208482911, 0.5545400657140561, 0.7283844533250783, -0.8691550776260446, -0.21862184745447566, -0.5397400890343823, 0.4958105500332458, 0.2785660448841871, 0.4066944725699096, 0.9442574678006976, 0.44223140297173275, -0.2969038601260401, -0.782753303007659, -0.11008272042986822, 0.846618340093839, 0.8465313521300877, -0.38594891976850937, 0.84698317986885, -0.6539194453549769, 0.8261333003898892, -0.006809604621303408, 0.5032564128863893, 0.8527252460675571, 0.5278650018228443, 0.5958019190348083, 0.5621898225384101, -1.0751530183252354, -0.9489918231358266, -0.6716586290098069, 0.301136523241502, -0.698970426698128, -0.27425117924380926, 0.3674614086588591, 0.16618405557271765, 0.25147960823205323, -0.9151816199590128, 0.1490423873971553], "biases": [-1.0384804040299727, -0.9756336388312622, -0.9777567190898958, -0.999996362172894, -1.0548021556002287, -1.1064295367089758, -0.8998624509504746, -0.9830390577729898, -1.0102382020639074, -1.0274607976161585, -1.020177006194961, -1.0136207951968863, -0.9027532825853823, -0.943292932469369, -1.1079874569018833, -0.928454934738142, -0.969926583865898, -0.9475720510486643, -0.9861711720222706, -0.9936943937057687, -0.943409381808275]}