{"generation": 2094, "inputs": ["cart.x", "cart.vel", "bob.x", "bob.y", "bob.vel"], "outputs": ["acceleration"], "layers": [5, 10, 10, 1], "hidden_activation": "tanh", "output_activation": "tanh", "ticks": 692940000, "time": 24652.09917330742, "weights": [0.31790880334968674, 0.27587835513292286, -0.4005572821636031, -0.26612351975348825, -0.7582840059755882, 0.3131697373423805, -0.5699744086373131, 0.1883491953466854, -0.5417143447065087, 0.050952767220456587, 0.7425376677792724, -0.8254792817426283, -0.7040486891387759, -0.2261447395143554, 0.21797394060909842, -0.8523242744340148, -0.3885163370054223, -0.5156560879268448, 0.8048442783096386, -0.719868880254971, -1.0723843362402425, 0.5840169676513954, -0.36945171245286346, -0.3170553339113492, 0.9451556398312573, 0.5198657923560523, 0.925577407337155, 1.5645446945873391, -1.287296488659254, -0.018894253700905007, -0.6859301199851449, 0.6390305841431849, -0.9535488890862864, -0.13792041896438612, 0.6576964185365745, -0.5054996071920614, -0.016178999869357388, -0.12553976682340184, -0.8385607744583502, 0.9536858227186806, -0.19280595226066413, -0.7827995369959116, 0.5553585166775961, -0.6422351008416525, 0.6398029343423784, 0.6360194872434158, 0.5877825443427299, -0.6465480482164233, -0.19633386057856664, 0.5191254684722508, 1.0318615283119983, 0.920956269350589, 0.4177931106604491, 0.3133533150236939, 0.29828888661044295, 0.8224150700158356, -0.33950553811965, 0.8404054461177836, 0.9311432924548972, 0.8163260871481759, -0.04847273851931771, -0.3436976634551169, 0.09129645088158746, -0.27610284716446565, -0.4913682726040518, 0.7255759878038784, 0.2491919624457284, -0.9225729410451989, 0.8626150861023584, -0.07818142893786749, -0.5077363873662326, 0.8354201335354642, -0.5156328063240351, 0.7735685486554449, 0.055197898410112696, 0.1544239674479187, 0.018081374182782828, -0.13928765951276612, 0.38204546876358597, 0.23591324059170193, 0.20770703348954564, 0.9039219588309315, -0.6578238195420235, 0.8020920317167791, -0.23924572784342957, 0.12377447201929301, -0.7715316901777749, 0.5252420611503852, -0.30831786303460934, 0.49875480652375537, -0.5270296775754502, 0.8126866705170493, 0.059608077621357315, 0.43394822685396084, 0.9503117780253594, -0.7344110729332065, -0.22906914766496625, 0.6749028685763809, -0.6676039101698861, 0.3066460736668142, -0.743797329558516, -0.8996035302198662, -0.5785837720428129, 0.7897458186581452, 0.9078484565867798, -0.04830408879826099, 0.2870253080398079, -0.7707210727544724, -0.6120568863390048, 0.018629911619321662, -0.838005754250142, -0.8654098293518895, 0.8861378331814109, -0.642908083724155, 0.34371470713840574, -0.37283518953552486, -0.3220931442029011, -0.4749511285049737, -0.6076111669391542, 0.019772105626270926, -0.3812356957938743, -0.9550588504314981, 0.7581144463205548, -0.7613140208482911, 0.5545400657140561, 0.7283844533250783, -0.8691550776260446, -0.21862184745447566, -0.5397400890343823, 0.4800193168530439, 0.2785660448841871, 0.4066944725699096, 0.9442574678006976, 0.42460360498176014, -0.2969038601260401, -0.782753303007659, -0.15269377037624388, 0.8572388888580444, 0.8465313521300877, -0.38594891976850937, 0.84698317986885, -0.6539194453549769, 0.8261333003898892, -0.006809604621303408, 0.5428866691169016, 0.8527252460675571, 0.5278650018228443, 0.641540140111369, 0.554228832429201, -1.0305222891053984, -0.993170065064684, -0.6716586290098069, 0.301136523241502, -0.698970426698128, -0.27425117924380926, 0.3674614086588591, 0.1819584600577156, 0.25147960823205323, -0.9151816199590128, 0.1490423873971553], "biases": [-1.0384804040299727, -0.9670526056687928, -0.9944762273517188, -1.0101028525450688, -1.0705831222310256, -1.1064295367089758, -0.8898924658061503, -0.9860264891188408, -1.0102382020639074, -1.0493361044556162, -1.0060101862476594, -1.0228763771807428, -0.9148232462321064, -0.9618064713105497, -1.1066931802907805, -0.9068112157021723, -0.9684102922976524, -0.9647492879302366, -0.9905091686073476, -1.012040518918703, -0.9468577564461468]}