{"generation": 2196, "inputs": ["cart.x", "cart.vel", "bob.x", "bob.y", "bob.vel"], "outputs": ["acceleration"], "layers": [5, 10, 10, 1], "hidden_activation": "tanh", "output_activation": "tanh", "ticks": 711300000, "time": 25063.75754213333, "weights": [0.31790880334968674, 0.27587835513292286, -0.38332762580720575, -0.2509261751421837, -0.7582840059755882, 0.30458570607741325, -0.5699744086373131, 0.2040202348242357, -0.5316484997725544, 0.050952767220456587, 0.7425376677792724, -0.8254792817426283, -0.710143279709185, -0.31042042769528727, 0.21797394060909842, -0.8523242744340148, -0.3885163370054223, -0.41823306969442486, 0.8048442783096386, -0.719868880254971, -1.0723843362402425, 0.5840169676513954, -0.36945171245286346, -0.3637864216767565, 0.9451556398312573, 0.5198657923560523, 0.925577407337155, 1.64504800098977, -1.287296488659254, -0.026796379629226798, -0.7115807442782721, 0.6390305841431849, -0.9535488890862864, -0.13792041896438612, 0.5600312585142422, -0.5054996071920614, -0.016178999869357388, -0.13991852752663833, -0.8385607744583502, 0.9536858227186806, -0.19280595226066413, -0.7827995369959116, 0.5553585166775961, -0.6422351008416525, 0.62534999178403, 0.6360194872434158, 0.5877825443427299, -0.737573383332021, -0.19633386057856664, 0.5191254684722508, 1.0318615283119983, 0.920956269350589, 0.43432269088537934, 0.25847412052884866, 0.29828888661044295, 0.8224150700158356, -0.33490063971591333, 0.8404054461177836, 0.9311432924548972, 0.8163260871481759, -0.04847273851931771, -0.36373670155337723, 0.09129645088158746, -0.34119737205014516, -0.4913682726040518, 0.7255759878038784, 0.2491919624457284, -0.9242461934265944, 0.8626150861023584, -0.04311475040511016, -0.46093582225376734, 0.8759170721513498, -0.5381787879022508, 1.0445202567438678, 0.035556022011356894, 0.1544239674479187, -0.017965143963058393, -0.19388129360560347, 0.459959720527896, 0.1547405378038622, 0.19813797976687886, 0.9039219588309315, -0.6578238195420235, 0.8020920317167791, -0.23924572784342957, 0.12377447201929301, -0.7693519511616119, 0.47735599925786604, -0.30831786303460934, 0.459250946667817, -0.5270296775754502, 0.8126866705170493, 0.059608077621357315, 0.41050061512160774, 0.9503117780253594, -0.7344110729332065, -0.23409226168415875, 0.6749028685763809, -0.6676039101698861, 0.3066460736668142, -0.726682215429873, -0.8996035302198662, -0.5785837720428129, 0.7924345826105657, 0.9078484565867798, -0.05107195228369096, 0.2870253080398079, -0.7911799129289014, -0.6120568863390048, -0.03122823559309458, -0.838005754250142, -0.8654098293518895, 0.8861378331814109, -0.6680067308731676, 0.34371470713840574, -0.37283518953552486, -0.31511231783539, -0.4749511285049737, -0.6076111669391542, 0.051838350190034146, -0.3812356957938743, -0.9550588504314981, 0.7500477052890977, -0.7613140208482911, 0.5545400657140561, 0.7283844533250783, -0.8691550776260446, -0.21862184745447566, -0.5397400890343823, 0.4958105500332458, 0.2785660448841871, 0.33729855934112585, 0.9442574678006976, 0.3991512249257588, -0.2969038601260401, -0.7641475846205364, -0.11008272042986822, 0.846618340093839, 0.8465313521300877, -0.38594891976850937, 0.84698317986885, -0.6539194453549769, 0.8261333003898892, -0.006809604621303408, 0.5032564128863893, 0.8588433431082763, 0.5278650018228443, 0.585661087580917, 0.5621898225384101, -1.0751530183252354, -0.9489918231358266, -0.670757525204748, 0.301136523241502, -0.7299641490319284, -0.27425117924380926, 0.3674614086588591, 0.16618405557271765, 0.25147960823205323, -0.8822333994582606, 0.1490423873971553], "biases": [-1.056393780302582, -0.9657504067923064, -0.9565667963628085, -0.9967390564469313, -1.035326207064772, -1.1064295367089758, -0.906226539510954, -0.9827475196488852, -1.0067177944765506, -1.0362051326318298, -1.0237037988993092, -0.9958679648535101, -0.8620348125971375, -0.9298675818731087, -1.1167698144494793, -0.9374955985214568, -0.969724211279902, -0.9341102527625875, -0.9826744651849518, -0.9936943937057687, -0.9410089990667205]}