{"generation": 2615, "inputs": ["cart.x", "cart.vel", "bob.x", "bob.y", "bob.vel"], "outputs": ["acceleration"], "layers": [5, 10, 10, 1], "hidden_activation": "tanh", "output_activation": "tanh", "ticks": 786720000, "time": 26993.507786273956, "weights": [0.31790880334968674, 0.2884329596923908, -0.35624357841259574, -0.22111481465388177, -0.7824532732265919, 0.24754753331293625, -0.6057797813567847, 0.2040202348242357, -0.4693023066992279, 0.05617455877104025, 0.7425376677792724, -0.7336861512199118, -0.710143279709185, -0.39476909053266895, 0.22435299769645664, -0.8523242744340148, -0.3885163370054223, -0.3192809235208575, 0.8048442783096386, -0.719868880254971, -1.084073615821414, 0.5354631326877942, -0.36945171245286346, -0.6220925582509386, 0.9104941898658643, 0.5302356542023278, 0.925577407337155, 1.8866323369031488, -1.320447786102738, -0.026796379629226798, -0.7115807442782721, 0.6155991254395682, -0.9535488890862864, -0.13792041896438612, 0.5330366503591532, -0.5054996071920614, -0.016178999869357388, -0.13991852752663833, -0.8385607744583502, 0.9536858227186806, -0.19280595226066413, -0.8087316894498646, 0.5553585166775961, -0.37668956314542074, 0.6576850341110941, 0.6360194872434158, 0.5877825443427299, -0.7487124885190864, -0.19633386057856664, 0.5208532178679129, 1.0318615283119983, 0.920956269350589, 0.5124509315403502, 0.23486902647931854, 0.2194147374567197, 0.7784197030363995, -0.33490063971591333, 0.8404054461177836, 0.9340490890696393, 0.8165963611552998, -0.04847273851931771, -0.36373670155337723, 0.07692358248613691, -0.34119737205014516, -0.4913682726040518, 0.7254809094097077, 0.2491919624457284, -0.9500538995275485, 0.8626150861023584, -0.04311475040511016, -0.46093582225376734, 0.9680893210756577, -0.542174383611872, 1.1866938656820356, 0.08237107769567181, 0.07074304096002647, -0.32830574189899964, -0.3122377494981556, 0.6369432614767911, 0.11174231820425397, 0.19813797976687886, 0.9039219588309315, -0.7126630775928015, 0.7587413695164887, -0.1989833617468289, 0.12377447201929301, -0.7693519511616119, 0.47735599925786604, -0.30831786303460934, 0.42230886415424446, -0.5270296775754502, 0.8126866705170493, 0.07920909049178049, 0.41050061512160774, 0.9128514692906015, -0.7344110729332065, -0.21822557948063934, 0.6749028685763809, -0.6676039101698861, 0.30747216220233214, -0.726682215429873, -0.8996035302198662, -0.6366094532950474, 0.7542270307198253, 0.9901114151217913, -0.04601030775510342, 0.2870253080398079, -0.7911799129289014, -0.5918768464742457, -0.03122823559309458, -0.838005754250142, -0.8654098293518895, 0.8764331406320358, -0.6717705808497553, 0.34730286367014185, -0.37802586702542607, -0.31511231783539, -0.4749511285049737, -0.6076111669391542, 0.022664254855407164, -0.3812356957938743, -0.9550588504314981, 0.7731484285962733, -0.7613140208482911, 0.5662102988932199, 0.7529811412003244, -0.8691550776260446, -0.21862184745447566, -0.5397400890343823, 0.4947289628607683, 0.2785660448841871, 0.34875702778685214, 0.9055553579504896, 0.35519548688038616, -0.3407960860923733, -0.7832265282699641, -0.11008272042986822, 0.7981280860005573, 0.8465313521300877, -0.3515039862507075, 0.84698317986885, -0.6539194453549769, 0.8261333003898892, -0.006809604621303408, 0.46586770229553714, 0.9154329600221864, 0.530210324756723, 0.585661087580917, 0.5621898225384101, -1.0751530183252354, -0.9016035726702076, -0.6625060902966523, 0.301136523241502, -0.7299641490319284, -0.27425117924380926, 0.3674614086588591, 0.16715428625516596, 0.25147960823205323, -0.8822333994582606, 0.1490423873971553], "biases": [-1.0563619832282665, -0.962480090736245, -0.9567623585633012, -0.9905205544709439, -0.9712972257931599, -1.1000519844572847, -0.9061079125483703, -0.9756130531954972, -1.0051810587593635, -0.9917227660415037, -1.027960931215948, -1.0036289183073988, -0.8555593787832383, -0.9033266969026795, -1.2077279946099522, -0.9030894765923588, -0.9782007477112101, -0.9183803254855354, -0.971954967188546, -0.9826469749925081, -0.9323330176998467]}