{"generation": 3619, "inputs": ["cart.x", "cart.vel", "bob.x", "bob.y", "bob.vel"], "outputs": ["acceleration"], "layers": [5, 10, 10, 1], "hidden_activation": "tanh", "output_activation": "tanh", "ticks": 967440000, "time": 31229.03378844261, "weights": [0.32599429806053576, 0.44077827699488037, -0.3550350595487317, -0.21126729598692032, -0.6881447013681197, 0.15111767570509177, -0.6093697142876524, 0.1736189932400476, -0.4276988422861984, 0.0669587095635483, 0.7425376677792724, -0.8315847905058721, -0.710217559943191, -0.5785197751071289, 0.14067710917346443, -0.8498373279923148, -0.3885163370054223, -0.0725230434826437, 0.8012445471893274, -0.719868880254971, -1.084073615821414, 0.8179094667905308, -0.36945171245286346, -0.8056573750004581, 1.0313352266605165, 0.5193353349315801, 0.9288190376219048, 1.9873370139137367, -1.3457100752963254, -0.014576477677929002, -0.7115807442782721, 0.6403815002540133, -0.9535488890862864, -0.13792041896438612, 0.5185214723648953, -0.5054996071920614, -0.016178999869357388, -0.13991852752663833, -0.8385607744583502, 0.9536858227186806, -0.19280595226066413, -0.9223309281476564, 0.5553585166775961, -0.19006393423326842, 0.6827904324480253, 0.6360194872434158, 0.5877825443427299, -0.8496303168882862, -0.19633386057856664, 0.5199868670645512, 1.0318615283119983, 0.9204561579618604, 0.6032036335979969, 0.22807090678992287, 0.1033755883457913, 0.7762066528619073, -0.33490063971591333, 0.8350814665558468, 0.9340490890696393, 0.8165963611552998, -0.04847273851931771, -0.36373670155337723, -0.013703767934319919, -0.34119737205014516, -0.4588968591444251, 0.7729440783165608, 0.2491919624457284, -0.9500538995275485, 0.8626150861023584, -0.04446774285433708, -0.34478605211430513, 0.9850297153587998, -0.6197309735149445, 1.2904087355229423, 0.08054700516865468, 0.16714210231827042, -0.36087237215095513, -0.3995971835679671, 0.7325720331987982, -0.27827489626580976, 0.19813797976687886, 0.9039219588309315, -0.7250688040402661, 0.7568708177092915, -0.2235369832981186, 0.11718500993433466, -0.8068512607468008, 0.48354403345056396, -0.30831786303460934, 0.42230886415424446, -0.5270296775754502, 0.8126866705170493, 0.09401923850471117, 0.41050061512160774, 0.8415996018105276, -0.7361889118962143, -0.21822557948063934, 0.7235244488829042, -0.6676039101698861, 0.3091571724596798, -0.726682215429873, -0.8881392603716131, -0.6474860350563607, 0.7542270307198253, 1.018445196561702, -0.042804080010124285, 0.2592186781150301, -0.818876370013908, -0.5918768464742457, -0.023543042679597857, -0.838005754250142, -0.8654098293518895, 0.8673473120440456, -0.6717705808497553, 0.4511982653548872, -0.3681915324102311, -0.31511231783539, -0.479973187777008, -0.6076111669391542, 0.04452965587191344, -0.3812356957938743, -0.9550588504314981, 0.7777914452458725, -0.7613140208482911, 0.5343382332801492, 0.7529811412003244, -0.8691550776260446, -0.23961586420407344, -0.5397400890343823, 0.48390396876249975, 0.28085544987157, 0.34875702778685214, 1.0463512020285632, 0.35519548688038616, -0.45310611875344126, -0.7204288042072797, -0.11008272042986822, 0.8240542790554837, 0.8465313521300877, -0.33970054308493813, 0.84698317986885, -0.6816635452904652, 0.8333617944849638, -0.006809604621303408, 0.49658364048643694, 0.9387468274524483, 0.530210324756723, 0.5870086816451203, 0.5621898225384101, -1.0738219545697365, -0.9016035726702076, -0.6625060902966523, 0.301136523241502, -0.7375843939823725, -0.27425117924380926, 0.36294119706621525, 0.16715428625516596, 0.2528538810139643, -0.8822333994582606, 0.1490423873971553], "biases": [-1.0563619832282665, -1.0264721837382185, -0.9531925991593453, -0.9873077273771339, -0.9180523999460796, -1.1090025120536282, -0.9061079125483703, -0.9819996047909695, -1.0051810587593635, -0.992634309761895, -1.0279260342960694, -1.0065616042784653, -0.7742077454006958, -0.8933943318506261, -1.3167429074611676, -0.9429149275151841, -0.9804639743362394, -0.9062344305522025, -0.971222312997084, -0.9755793375928905, -0.9323374283432134]}