{"generation": 331, "inputs": ["cart.x", "cart.vel", "bob.x", "bob.y", "bob.vel"], "outputs": ["acceleration"], "layers": [5, 10, 10, 1], "hidden_activation": "tanh", "output_activation": "tanh", "ticks": 19920000, "time": 2913.487968683243, "weights": [0.181161021396543, 0.32890994142943075, -0.5224322566380336, -0.17605572761349, -0.8689911836779208, 0.6081298462634775, -0.7384808663621979, 0.5892782636174392, -0.6428503322582737, 0.021195444442836386, 0.7449727732931697, -0.6973101119318437, -0.6457125127919938, 0.12377835465448145, 0.17619642694005622, -0.8555141756128651, -0.38203665121459907, -0.8615303293777854, 0.8382410010897596, -0.7203741497569311, -0.8425573404924251, 0.5518089055057649, -0.21050819052983516, 0.28672970593121083, 0.9329931749327307, 0.3405948987266134, 0.908838794238114, 0.5405776342442203, -0.9729012293812948, 0.0180448672236746, -0.6949099670290714, 0.6398696374367174, -0.9205624719002077, -0.1629919309085835, 0.6645986416104462, -0.5291132299618858, -0.010468716564837471, -0.11459323364540454, -0.8539850800391684, 0.9573968804795827, -0.1963039418748249, -0.8127537661788085, 0.5619213634602103, -0.8009443041877278, 0.6711354377833052, 0.6382171006703731, 0.5847675799613372, -0.5064731617670952, -0.19121053439143806, 0.5223671939647125, 0.9914780733099371, 0.9085779705730794, 0.4485587462677316, 0.3587681749179752, 0.2688399363409985, 0.8115402046130771, -0.3909530483270462, 0.8380185058808098, 0.9086741543419457, 0.8044811149250082, -0.0547034180672813, -0.3504422418185091, 0.09389573799843826, -0.2610183928036072, -0.5091693752907038, 0.7079397426255931, 0.2491919624457284, -0.8650904242837938, 0.8598093580555481, -0.1349060725573772, -0.6689747113587154, 0.5228263122817649, -0.3531462007792219, 0.6390344886240822, -0.04853297597461248, 0.15722383013028263, 0.03481285393621281, -0.06497900109134092, 0.16359947192809624, 0.3127247893125886, 0.21566045051398364, 0.908662678957088, -0.5952314439427339, 0.8985724484329527, -0.2816403858415404, 0.14052279964371506, -0.7715316901777749, 0.5770782614986469, -0.28598371182342897, 0.49638827856430184, -0.5161423528323396, 0.8075833782785392, 0.08641295835509626, 0.4514258619064031, 0.979485307923958, -0.7709227410250241, -0.22975757079917045, 0.6809181332842282, -0.6672467831914535, 0.2999260115885747, -0.8192510433213913, -0.9641965714930882, -0.5796057528242864, 0.8215199276687108, 0.8430551065492142, 0.0025446303929343994, 0.34299949851324407, -0.7218644678772581, -0.6783188115156381, 0.05913928754543723, -0.8363282489054312, -0.8540771362519708, 0.8253496380748799, -0.49946566383126734, 0.37869719553509684, -0.37283518953552486, -0.3297139945121861, -0.4749511285049737, -0.5719192318148913, 0.020945098313334354, -0.39560475480504476, -0.9630907367215409, 0.8048256114414306, -0.7610302462673757, 0.47910397672654437, 0.659981453555668, -0.8691550776260446, -0.2634004031779609, -0.5407445620373308, 0.4776808957000551, 0.20559501748839182, 0.5790850083062431, 0.8084194617725577, 0.45606086742138346, -0.2743006251302096, -0.795040108185644, -0.13012515285291038, 0.8883820851928235, 0.927202450669496, -0.4147296652993913, 0.8340091757683705, -0.6088916820261633, 0.7719970588919112, 0.07634880726098414, 0.5864460768851731, 0.8485296787945951, 0.5106449906396306, 0.641540140111369, 0.5556699053551676, -0.970833949169791, -0.9834414622642675, -0.7210503535202865, 0.3176840744517596, -0.6911623845708224, -0.27252201309418667, 0.37822841968638915, 0.23495304115065505, 0.26133470390213615, -0.8993226013261468, 0.16247193433852455], "biases": [-1.017791274194373, -1.0007420971955607, -1.0020657161389046, -1.001815794003297, -0.9990964117583998, -0.9990521486314426, -0.9638822069759686, -0.99670703069281, -1.0226534463730088, -1.0088162485226098, -1.0086376020536754, -1.0044089983281037, -1.0002226035277755, -1.0019248074364118, -1.0102724310008224, -0.9969916383827885, -1.0008501237335987, -1.0005976042157394, -1.0116270650876544, -1.0008504097146413, -0.977317631806399]}