{"generation": 3881, "inputs": ["cart.x", "cart.vel", "bob.x", "bob.y", "bob.vel"], "outputs": ["acceleration"], "layers": [5, 10, 10, 1], "hidden_activation": "tanh", "output_activation": "tanh", "ticks": 1014600000, "time": 32558.606104135513, "weights": [0.32599429806053576, 0.3818516359113079, -0.3550350595487317, -0.21126729598692032, -0.6881447013681197, 0.15111767570509177, -0.6093697142876524, 0.1736189932400476, -0.42376683938692794, 0.019570956849135207, 0.7425376677792724, -0.7494200059260915, -0.710217559943191, -0.5785197751071289, 0.14067710917346443, -0.8498373279923148, -0.3885163370054223, 0.039429801541041705, 0.8012445471893274, -0.719868880254971, -1.0864046132667586, 0.7680571786032184, -0.36945171245286346, -0.8056573750004581, 1.0313352266605165, 0.5193353349315801, 0.9288190376219048, 2.018639798933425, -1.3667809797442192, 0.00952157898503319, -0.7115807442782721, 0.6829208572906272, -0.9535488890862864, -0.13792041896438612, 0.5185214723648953, -0.5054996071920614, -0.016178999869357388, -0.13991852752663833, -0.8385607744583502, 0.9575934781454377, -0.19280595226066413, -1.0019073555025337, 0.5553585166775961, -0.19006393423326842, 0.6827904324480253, 0.6360194872434158, 0.5877825443427299, -0.8467504247065746, -0.19633386057856664, 0.5199868670645512, 1.0318615283119983, 0.9204561579618604, 0.6100861544202222, 0.22807090678992287, 0.1033755883457913, 0.7796023400091497, -0.33490063971591333, 0.8914153985080745, 0.9340490890696393, 0.884823136477846, -0.04847273851931771, -0.36373670155337723, -0.019858906781882193, -0.34119737205014516, -0.4588968591444251, 0.7729440783165608, 0.25270477474221076, -0.9398920202532307, 0.8626150861023584, -0.048955995561006424, -0.34478605211430513, 0.9850297153587998, -0.6928922021765345, 1.2904087355229423, 0.08054700516865468, 0.16714210231827042, -0.36360473685716327, -0.3995971835679671, 0.7325720331987982, -0.30322734710940263, 0.19813797976687886, 0.9039219588309315, -0.7131771642611724, 0.7568708177092915, -0.2235369832981186, 0.12121493747467109, -0.8068512607468008, 0.48354403345056396, -0.30831786303460934, 0.3792406334063432, -0.5270296775754502, 0.8126866705170493, 0.11667601415972946, 0.41050061512160774, 0.8415996018105276, -0.7281957343948047, -0.21632165645594692, 0.7235244488829042, -0.6676039101698861, 0.3424305706691931, -0.726682215429873, -0.8881392603716131, -0.6509482814510513, 0.7542270307198253, 1.018445196561702, -0.04174542868336131, 0.2592186781150301, -0.818876370013908, -0.5918768464742457, -0.023543042679597857, -0.838005754250142, -0.8659134770226895, 0.9725135020348274, -0.6717705808497553, 0.4530093378776626, -0.3766673847640981, -0.31625287297981436, -0.4780537934526609, -0.6071658387334418, 0.04452965587191344, -0.3812356957938743, -0.9550588504314981, 0.7649754474448961, -0.7613140208482911, 0.5343382332801492, 0.7529811412003244, -0.8691550776260446, -0.19431316562396614, -0.5299998707044046, 0.47320525273178077, 0.2809703482259579, 0.34875702778685214, 1.1281631442586624, 0.35519548688038616, -0.45310611875344126, -0.7204288042072797, -0.10927494262035468, 0.872584547734201, 0.8465313521300877, -0.316386155251507, 0.8475250875489263, -0.6539194453549769, 0.8638876048803973, -0.006809604621303408, 0.49658364048643694, 0.9387468274524483, 0.527404350405285, 0.5788292879633434, 0.5621898225384101, -1.0749692633251178, -0.9016035726702076, -0.6625060902966523, 0.301136523241502, -0.7375843939823725, -0.27425117924380926, 0.36294119706621525, 0.16715428625516596, 0.2528538810139643, -0.8822333994582606, 0.1490423873971553], "biases": [-1.0575938035834316, -1.1365375315718944, -0.9531925991593453, -0.9862459530109892, -0.9191548417134843, -1.1088983376614012, -0.9086216330102921, -0.9827769086142444, -1.007977129048287, -0.9957659761575292, -1.0279260342960694, -1.008027992935345, -0.7042792916636524, -0.8923583364828386, -1.3060921539088859, -0.9365007336774183, -0.9804026408821098, -0.8700702736057059, -0.9639333072336265, -0.9585194112580324, -0.9322348253350765]}