{"generation": 3957, "inputs": ["cart.x", "cart.vel", "bob.x", "bob.y", "bob.vel"], "outputs": ["acceleration"], "layers": [5, 10, 10, 1], "hidden_activation": "tanh", "output_activation": "tanh", "ticks": 1028280000, "time": 32946.278497219086, "weights": [0.32599429806053576, 0.3818516359113079, -0.3550350595487317, -0.21126729598692032, -0.6881447013681197, 0.15111767570509177, -0.6093697142876524, 0.1736189932400476, -0.42376683938692794, 0.045899116175419655, 0.7425376677792724, -0.6719983507721964, -0.710217559943191, -0.5785197751071289, 0.14067710917346443, -0.8498373279923148, -0.3885163370054223, 0.06988719732325485, 0.8012445471893274, -0.719868880254971, -1.0864046132667586, 0.7680571786032184, -0.36945171245286346, -0.8056573750004581, 1.0313352266605165, 0.5193353349315801, 0.9288190376219048, 1.9910701973967548, -1.3667809797442192, 0.018752231723194096, -0.7115807442782721, 0.7121576127769587, -0.9535488890862864, -0.13792041896438612, 0.5185214723648953, -0.5054996071920614, -0.016178999869357388, -0.13991852752663833, -0.8385607744583502, 0.9575934781454377, -0.19280595226066413, -1.0019073555025337, 0.5553585166775961, -0.19006393423326842, 0.6827904324480253, 0.6360194872434158, 0.5877825443427299, -0.9105363392758952, -0.19633386057856664, 0.5199868670645512, 1.0318615283119983, 0.9204561579618604, 0.5835418920390196, 0.22807090678992287, 0.1033755883457913, 0.7796023400091497, -0.33490063971591333, 0.8914153985080745, 0.9340490890696393, 0.9017822372307076, -0.04847273851931771, -0.365100824238061, -0.0471030052805447, -0.3418942657401868, -0.4588968591444251, 0.7729440783165608, 0.25270477474221076, -0.9398920202532307, 0.860993468246613, -0.048955995561006424, -0.34478605211430513, 0.9850297153587998, -0.6945125223059104, 1.2904087355229423, 0.08054700516865468, 0.16714210231827042, -0.36360473685716327, -0.3995971835679671, 0.7355657332827462, -0.39008163553554326, 0.19813797976687886, 0.9039219588309315, -0.7131771642611724, 0.7568708177092915, -0.2235369832981186, 0.12121493747467109, -0.8068512607468008, 0.5232744575314816, -0.304620437891105, 0.3792406334063432, -0.5270296775754502, 0.8126866705170493, 0.12670567078141778, 0.41050061512160774, 0.8415996018105276, -0.7256838283266702, -0.21774990145736414, 0.7235244488829042, -0.6676039101698861, 0.36109485580227363, -0.726682215429873, -0.8881392603716131, -0.6692316910305456, 0.7542270307198253, 1.018445196561702, -0.04174542868336131, 0.2592186781150301, -0.8214422716449687, -0.5918768464742457, -0.0351356021356341, -0.838005754250142, -0.8659134770226895, 0.9512427244748397, -0.6717705808497553, 0.4530093378776626, -0.3766673847640981, -0.31625287297981436, -0.49968335893650745, -0.6071658387334418, 0.04452965587191344, -0.3812356957938743, -0.9550588504314981, 0.7649754474448961, -0.7613140208482911, 0.5343382332801492, 0.7529811412003244, -0.8691550776260446, -0.19431316562396614, -0.5217736259583446, 0.4839426229851906, 0.2809703482259579, 0.34875702778685214, 1.122679232850743, 0.35519548688038616, -0.45310611875344126, -0.7204288042072797, -0.10927494262035468, 0.872584547734201, 0.8465313521300877, -0.316386155251507, 0.8475250875489263, -0.66181080960214, 0.8638876048803973, -0.006809604621303408, 0.49658364048643694, 0.9387468274524483, 0.527404350405285, 0.5788292879633434, 0.5621898225384101, -1.0492303308311208, -0.9016035726702076, -0.6625060902966523, 0.301136523241502, -0.7375843939823725, -0.27425117924380926, 0.36294119706621525, 0.16715428625516596, 0.2528538810139643, -0.8822333994582606, 0.1490423873971553], "biases": [-1.0590779145549523, -1.1566460584893443, -0.9579686386903074, -0.9867285408719696, -0.9191548417134843, -1.1094073285687531, -0.9120455457235154, -0.9823316713706319, -1.007977129048287, -0.981388368381377, -1.0295037302652448, -1.0087849608965958, -0.6668646692421506, -0.8923583364828386, -1.3060921539088859, -0.9378861868158426, -0.9804026408821098, -0.8805470172159288, -0.9617165908055996, -0.9296896592822095, -0.9324587783940333]}