{"generation": 3242, "inputs": ["cart.x", "cart.vel", "bob.x", "bob.y", "bob.vel"], "outputs": ["acceleration"], "layers": [5, 10, 10, 1], "hidden_activation": "tanh", "output_activation": "tanh", "ticks": 899580000, "time": 29323.08183813095, "weights": [0.32599429806053576, 0.4084574746313725, -0.35624357841259574, -0.21179498204208774, -0.7005678793726622, 0.1600349536839716, -0.6093697142876524, 0.2040202348242357, -0.4404260923912102, 0.04321122976083312, 0.7425376677792724, -0.8585139865460624, -0.710143279709185, -0.5378978110927207, 0.14067710917346443, -0.8498373279923148, -0.3885163370054223, -0.12426115026104681, 0.8012445471893274, -0.719868880254971, -1.084073615821414, 0.6258630946402779, -0.36945171245286346, -0.8056573750004581, 1.0382797796510668, 0.5222823062543661, 0.924351904648734, 1.9586257151038733, -1.320435122112649, -0.014576477677929002, -0.7115807442782721, 0.619168743600713, -0.9535488890862864, -0.13792041896438612, 0.5185214723648953, -0.5054996071920614, -0.016178999869357388, -0.13991852752663833, -0.8385607744583502, 0.9536858227186806, -0.19280595226066413, -0.9114853764722364, 0.5553585166775961, -0.2548803846576429, 0.7205108246237655, 0.6360194872434158, 0.5877825443427299, -0.8296007307705902, -0.19633386057856664, 0.5208532178679129, 1.0318615283119983, 0.9204561579618604, 0.5654221862196319, 0.23486902647931854, 0.1787412099981026, 0.7762066528619073, -0.33490063971591333, 0.8400150931876337, 0.9340490890696393, 0.8165963611552998, -0.04847273851931771, -0.36373670155337723, 0.010405882646981418, -0.34119737205014516, -0.47194115520279917, 0.7729440783165608, 0.2491919624457284, -0.9500538995275485, 0.8626150861023584, -0.04446774285433708, -0.34478605211430513, 0.9850297153587998, -0.5887969146327412, 1.257651139203186, 0.014510927883713116, 0.13261612942602866, -0.3588759326144122, -0.34144755863937215, 0.7112957796047583, -0.06910261523107929, 0.19813797976687886, 0.9039219588309315, -0.7009868334918662, 0.7568708177092915, -0.17293523121366577, 0.12377447201929301, -0.8068512607468008, 0.47735599925786604, -0.30831786303460934, 0.42230886415424446, -0.5270296775754502, 0.8126866705170493, 0.09401923850471117, 0.41050061512160774, 0.8415996018105276, -0.7361889118962143, -0.21822557948063934, 0.6757382017948865, -0.6676039101698861, 0.2966898625846778, -0.726682215429873, -0.8996035302198662, -0.6366094532950474, 0.7542270307198253, 1.0274799413622437, -0.03749187258698374, 0.2943120189724197, -0.7888023182512868, -0.5918768464742457, -0.010149776540400599, -0.838005754250142, -0.8654098293518895, 0.8627315365404704, -0.6717705808497553, 0.39060388270626084, -0.3681915324102311, -0.31511231783539, -0.4749511285049737, -0.6076111669391542, 0.04452965587191344, -0.3812356957938743, -0.9550588504314981, 0.7731484285962733, -0.7613140208482911, 0.5578539302823444, 0.7529811412003244, -0.8691550776260446, -0.23961586420407344, -0.5397400890343823, 0.48313585626620165, 0.2785660448841871, 0.34875702778685214, 1.022007806824102, 0.35519548688038616, -0.45310611875344126, -0.7681983867417969, -0.11008272042986822, 0.8240542790554837, 0.8465313521300877, -0.33970054308493813, 0.84698317986885, -0.6539194453549769, 0.8245842483131461, -0.006809604621303408, 0.47097937548836394, 0.9237206519931416, 0.530210324756723, 0.5870086816451203, 0.5621898225384101, -1.0739723934304581, -0.9016035726702076, -0.6625060902966523, 0.301136523241502, -0.7375843939823725, -0.27425117924380926, 0.36294119706621525, 0.16715428625516596, 0.2528538810139643, -0.8822333994582606, 0.1490423873971553], "biases": [-1.0563619832282665, -0.9968751141189856, -0.9531925991593453, -0.9902985497539364, -0.8961532166118583, -1.1097302348836067, -0.9061079125483703, -0.9756641157244931, -1.0051810587593635, -0.9866790830145956, -1.0279260342960694, -1.006600457251691, -0.8372923138139144, -0.9031976838769767, -1.2804276751444503, -0.9182395648931687, -0.9804911578751491, -0.9041336980826659, -0.9631296654904175, -0.9773617131065455, -0.9323330176998467]}