{"generation": 3485, "inputs": ["cart.x", "cart.vel", "bob.x", "bob.y", "bob.vel"], "outputs": ["acceleration"], "layers": [5, 10, 10, 1], "hidden_activation": "tanh", "output_activation": "tanh", "ticks": 943320000, "time": 30554.292661190033, "weights": [0.32599429806053576, 0.44077827699488037, -0.35310977155255086, -0.21179498204208774, -0.6881447013681197, 0.15111767570509177, -0.6093697142876524, 0.1736189932400476, -0.4404260923912102, 0.0553988552313263, 0.7425376677792724, -0.8615648339046277, -0.710143279709185, -0.5785197751071289, 0.14067710917346443, -0.8498373279923148, -0.3885163370054223, -0.11542310397219568, 0.8012445471893274, -0.719868880254971, -1.084073615821414, 0.7181300783723283, -0.36945171245286346, -0.8056573750004581, 1.0313352266605165, 0.5193353349315801, 0.9288190376219048, 2.011746465755706, -1.320435122112649, -0.014576477677929002, -0.7115807442782721, 0.6086789274930887, -0.9535488890862864, -0.13792041896438612, 0.5185214723648953, -0.5054996071920614, -0.016178999869357388, -0.13991852752663833, -0.8385607744583502, 0.9536858227186806, -0.19280595226066413, -0.8836480330517329, 0.5553585166775961, -0.19006393423326842, 0.6827904324480253, 0.6360194872434158, 0.5877825443427299, -0.8496303168882862, -0.19633386057856664, 0.5199868670645512, 1.0318615283119983, 0.9204561579618604, 0.5855923263710374, 0.22807090678992287, 0.1033755883457913, 0.7762066528619073, -0.33490063971591333, 0.8350814665558468, 0.9340490890696393, 0.8165963611552998, -0.04847273851931771, -0.36373670155337723, 0.010405882646981418, -0.34119737205014516, -0.4588968591444251, 0.7729440783165608, 0.2491919624457284, -0.9500538995275485, 0.8626150861023584, -0.04446774285433708, -0.34478605211430513, 0.9850297153587998, -0.6197309735149445, 1.2904087355229423, 0.08054700516865468, 0.16714210231827042, -0.3588759326144122, -0.383262623721248, 0.7325720331987982, -0.0934506488630201, 0.19813797976687886, 0.9039219588309315, -0.7009868334918662, 0.7568708177092915, -0.20200132872851848, 0.11718500993433466, -0.8068512607468008, 0.47735599925786604, -0.30831786303460934, 0.42230886415424446, -0.5270296775754502, 0.8126866705170493, 0.09401923850471117, 0.41050061512160774, 0.8415996018105276, -0.7361889118962143, -0.21822557948063934, 0.6757382017948865, -0.6676039101698861, 0.3031508654943053, -0.726682215429873, -0.8881392603716131, -0.6366094532950474, 0.7542270307198253, 1.018445196561702, -0.042804080010124285, 0.2592186781150301, -0.818876370013908, -0.5918768464742457, -0.010149776540400599, -0.838005754250142, -0.8654098293518895, 0.8463750571141702, -0.6717705808497553, 0.44504061106456083, -0.3681915324102311, -0.31511231783539, -0.4749511285049737, -0.6076111669391542, 0.04452965587191344, -0.3812356957938743, -0.9550588504314981, 0.7731484285962733, -0.7613140208482911, 0.5345587655097932, 0.7529811412003244, -0.8691550776260446, -0.23961586420407344, -0.5397400890343823, 0.48390396876249975, 0.2803675178516447, 0.34875702778685214, 1.022007806824102, 0.35519548688038616, -0.45310611875344126, -0.7204288042072797, -0.11008272042986822, 0.8240542790554837, 0.8465313521300877, -0.33970054308493813, 0.84698317986885, -0.6539194453549769, 0.8245842483131461, -0.006809604621303408, 0.47097937548836394, 0.9387468274524483, 0.530210324756723, 0.5870086816451203, 0.5621898225384101, -1.0739723934304581, -0.9016035726702076, -0.6625060902966523, 0.301136523241502, -0.7375843939823725, -0.27425117924380926, 0.36294119706621525, 0.16715428625516596, 0.2528538810139643, -0.8822333994582606, 0.1490423873971553], "biases": [-1.0563619832282665, -0.990595532332485, -0.9531925991593453, -0.9873077273771339, -0.9180523999460796, -1.1097302348836067, -0.9061079125483703, -0.9818546049978019, -1.0051810587593635, -0.9956282448961816, -1.0279260342960694, -1.0065616042784653, -0.8045967342149493, -0.8933943318506261, -1.289314067343315, -0.9406298168217675, -0.9804911578751491, -0.9041336980826659, -0.9646681485297328, -0.9801506783513472, -0.9323374283432134]}