{"generation": 4810, "inputs": ["cart.x", "cart.vel", "bob.x", "bob.y", "bob.vel"], "outputs": ["acceleration"], "layers": [5, 10, 10, 1], "hidden_activation": "tanh", "output_activation": "tanh", "ticks": 1181820000, "time": 37363.21992301941, "weights": [0.32599429806053576, 0.2711590368456898, -0.34427687324583683, -0.21126729598692032, -0.6871353137359286, 0.15290434722384585, -0.609877891432818, 0.08268888364815014, -0.46574945699440146, -0.03845443120255235, 0.7425376677792724, -0.6636892358855421, -0.710217559943191, -0.5785197751071289, 0.14067710917346443, -0.8682844739928588, -0.3885163370054223, 0.2565693378309134, 0.8012445471893274, -0.719868880254971, -1.0862644744164955, 0.7767315118089717, -0.40022443774753447, -0.8056573750004581, 1.0313352266605165, 0.5251919348779598, 0.9288190376219048, 2.0847265501085586, -1.3504785279074853, 0.0521389044780172, -0.7115807442782721, 0.6771570909359337, -0.9535488890862864, -0.13915364142038703, 0.5185214723648953, -0.5052914340810509, -0.016178999869357388, -0.1493329956655628, -0.8385607744583502, 0.9575934781454377, -0.19280595226066413, -1.0566877703681816, 0.5553585166775961, -0.19006393423326842, 0.6827904324480253, 0.6360194872434158, 0.5877825443427299, -0.8888653617970623, -0.19633386057856664, 0.5102272084383097, 0.9943860100407136, 0.9204561579618604, 0.666164284936555, 0.22807090678992287, 0.1033755883457913, 0.81471232663007, -0.33490063971591333, 0.8893321421441907, 0.8965728007412831, 0.9480399575131591, -0.04847273851931771, -0.36136221685211034, -0.00884362763850164, -0.3418942657401868, -0.4588968591444251, 0.7729440783165608, 0.2526691440955805, -0.9423044779798789, 0.8567375587750011, -0.14781350740213584, -0.3716857746272203, 0.9848933408271386, -0.7599792651979501, 1.2880965186968036, 0.08054700516865468, 0.13492527389644648, -0.36360473685716327, -0.4030427132423425, 0.7366210255361244, -0.4999993549964053, 0.19813797976687886, 0.9039219588309315, -0.8074239824405076, 0.7568708177092915, -0.22215455566205966, 0.09176848862535328, -0.8068512607468008, 0.4787259816710859, -0.304620437891105, 0.3978065175293292, -0.5361490841024648, 0.8126866705170493, 0.05159486681898584, 0.41050061512160774, 0.8415996018105276, -0.7160059472627565, -0.2171088299703584, 0.7843261367427908, -0.6676039101698861, 0.34492569411239, -0.7257570588520345, -0.8866557723633397, -0.77411799055739, 0.7542270307198253, 1.015419538088677, -0.03215137186577044, 0.2583358628472043, -0.82215337415501, -0.5918768464742457, -0.04326980250631061, -0.838005754250142, -0.8659134770226895, 0.8924075693461206, -0.6696666689302684, 0.468095309219243, -0.396561041444335, -0.3317167270525767, -0.48797617696390155, -0.6146846476814345, -0.0014919928498838622, -0.37285864836547106, -0.9550588504314981, 0.7306741629604164, -0.7613140208482911, 0.5343382332801492, 0.75490060482999, -0.8634129737437428, -0.22939439817325724, -0.5217736259583446, 0.5350379641316413, 0.2809703482259579, 0.3466408702691466, 1.2133893322509555, 0.35519548688038616, -0.45310611875344126, -0.7190403582548764, -0.13323571056874334, 0.9521828276336345, 0.8429073420293007, -0.37548975080806873, 0.8475250875489263, -0.66181080960214, 0.8823620888022213, -0.006809604621303408, 0.49658364048643694, 0.9685531906825475, 0.5285067701079444, 0.48350889235539857, 0.5621898225384101, -1.0964424330104512, -0.9016035726702076, -0.6625060902966523, 0.301136523241502, -0.7375843939823725, -0.27425117924380926, 0.36294119706621525, 0.16715428625516596, 0.2528538810139643, -0.8822333994582606, 0.1490423873971553], "biases": [-1.0588702250661763, -1.1180085009028258, -0.9639485600041907, -0.9775265606708894, -0.9148877374189798, -1.0908230288021672, -0.904954717816518, -0.9636160377434448, -0.987269959057392, -0.9725729757745477, -1.0224296297011737, -1.004353605244799, -0.6674024231010516, -0.8839286305495165, -1.2980105710837553, -0.9641487157142349, -0.9670610648795858, -0.9514820926839551, -0.9469390232278443, -0.9122416948630125, -0.9330162216287164]}