{"generation": 457, "inputs": ["cart.x", "cart.vel", "bob.x", "bob.y", "bob.vel"], "outputs": ["acceleration"], "layers": [5, 10, 10, 1], "hidden_activation": "tanh", "output_activation": "tanh", "ticks": 27480000, "time": 3391.575535774231, "weights": [0.22765623096296916, 0.32890994142943075, -0.5224322566380336, -0.16675714475298856, -0.8689911836779208, 0.5878257221218316, -0.7441599939752662, 0.5621800910618326, -0.6266841047989827, 0.025405627341591363, 0.7440313328969266, -0.6973101119318437, -0.6451690634208426, 0.12052578202031042, 0.17619642694005622, -0.8555141756128651, -0.38203665121459907, -0.8615303293777854, 0.8335306057827178, -0.7203741497569311, -0.8804431893520372, 0.5518089055057649, -0.21050819052983516, 0.2823374683932826, 0.9329931749327307, 0.3559237058338628, 0.908838794238114, 0.5543023910780267, -0.9859604836615278, 0.007054276481511844, -0.6992384789536004, 0.6398696374367174, -0.9234165073155826, -0.1629919309085835, 0.6645986416104462, -0.5173866284626694, -0.010468716564837471, -0.11857304628129048, -0.8506918834228221, 0.9573968804795827, -0.1963874439677399, -0.8127537661788085, 0.5619213634602103, -0.8009443041877278, 0.6711354377833052, 0.6404599562542109, 0.5927349796280411, -0.5064731617670952, -0.19362677514233606, 0.5174260080201222, 0.9956934898215389, 0.9127158601489486, 0.4485587462677316, 0.3587681749179752, 0.2688399363409985, 0.8115402046130771, -0.3988001437295495, 0.8380185058808098, 0.9086741543419457, 0.8050518914055015, -0.0547034180672813, -0.3463056639231887, 0.09389573799843826, -0.2610183928036072, -0.5091693752907038, 0.7079397426255931, 0.2491919624457284, -0.8650904242837938, 0.8598093580555481, -0.1349060725573772, -0.6689747113587154, 0.5269995317655795, -0.3531462007792219, 0.6390344886240822, -0.04853297597461248, 0.15722383013028263, 0.03481285393621281, -0.06497900109134092, 0.16359947192809624, 0.3127247893125886, 0.21566045051398364, 0.908662678957088, -0.5952314439427339, 0.8968422149206968, -0.2852043993454257, 0.14052279964371506, -0.7715316901777749, 0.5737522262215694, -0.28598371182342897, 0.49638827856430184, -0.5208434209693239, 0.8075833782785392, 0.08641295835509626, 0.451613138062603, 0.979485307923958, -0.7709227410250241, -0.22975757079917045, 0.6809181332842282, -0.6672467831914535, 0.2999260115885747, -0.801697970867027, -0.9604824451831511, -0.5796057528242864, 0.8215199276687108, 0.8430551065492142, 0.0025446303929343994, 0.3406154633815677, -0.7218644678772581, -0.6613466791427479, 0.05913928754543723, -0.838005754250142, -0.8621724120455407, 0.8255743973005597, -0.4983639159826304, 0.37869719553509684, -0.37283518953552486, -0.3297139945121861, -0.4749511285049737, -0.5719192318148913, 0.017652269985701227, -0.39560475480504476, -0.9630907367215409, 0.8048256114414306, -0.7610302462673757, 0.47910397672654437, 0.659981453555668, -0.8691550776260446, -0.2664069879956969, -0.5407445620373308, 0.4776808957000551, 0.20476647536979603, 0.5790850083062431, 0.8084194617725577, 0.45606086742138346, -0.2743006251302096, -0.795040108185644, -0.13012515285291038, 0.8883820851928235, 0.927202450669496, -0.4147296652993913, 0.8386123684571106, -0.6138341190657374, 0.7719970588919112, 0.07634880726098414, 0.5864460768851731, 0.8493678774667413, 0.5106449906396306, 0.641540140111369, 0.5556699053551676, -0.970833949169791, -0.9875812957884692, -0.7142772417478922, 0.3176840744517596, -0.6930779900541272, -0.27404057321480624, 0.37479913400019205, 0.22759568194898644, 0.26133470390213615, -0.8993226013261468, 0.15816447268607847], "biases": [-1.0216041131196127, -0.997993424211525, -1.0045635072739703, -1.0075667798656047, -1.0013868464939495, -1.004565311669268, -0.9428425439571633, -0.9985436867507659, -1.023131219256262, -1.0077902456873138, -1.0098451520396323, -1.0053580089760326, -0.9977548891858845, -1.0008510942592723, -1.0090279219087337, -1.0000412494262445, -1.0020262845232781, -1.0031303858358107, -1.01184125391321, -1.0030694474594422, -0.9663898784885628]}