{"generation": 4250, "inputs": ["cart.x", "cart.vel", "bob.x", "bob.y", "bob.vel"], "outputs": ["acceleration"], "layers": [5, 10, 10, 1], "hidden_activation": "tanh", "output_activation": "tanh", "ticks": 1081020000, "time": 34454.81788825989, "weights": [0.32599429806053576, 0.2975356189256137, -0.3550350595487317, -0.21126729598692032, -0.6871353137359286, 0.15111767570509177, -0.609877891432818, 0.07824391202150832, -0.47077271822259026, -0.03845443120255235, 0.7425376677792724, -0.6719983507721964, -0.710217559943191, -0.5785197751071289, 0.14067710917346443, -0.8682844739928588, -0.3885163370054223, 0.06924630138142106, 0.8012445471893274, -0.719868880254971, -1.0862644744164955, 0.6949089122656558, -0.40022443774753447, -0.8056573750004581, 1.0313352266605165, 0.5255570637727047, 0.9288190376219048, 2.0755760726441066, -1.3504785279074853, 0.020925166339117403, -0.7115807442782721, 0.6395575938448455, -0.9535488890862864, -0.13792041896438612, 0.5185214723648953, -0.5052914340810509, -0.016178999869357388, -0.14689221380304712, -0.8385607744583502, 0.9575934781454377, -0.19280595226066413, -1.0445506036818233, 0.5553585166775961, -0.19006393423326842, 0.6827904324480253, 0.6360194872434158, 0.5877825443427299, -0.8793754168092157, -0.19633386057856664, 0.5199868670645512, 0.998335899712122, 0.9204561579618604, 0.6031157882441155, 0.22807090678992287, 0.1033755883457913, 0.7833155736316723, -0.33490063971591333, 0.863229310722324, 0.9340490890696393, 0.9548558452642997, -0.04847273851931771, -0.3646265760518935, -0.007418727299080517, -0.3418942657401868, -0.4588968591444251, 0.7729440783165608, 0.2526691440955805, -0.9398920202532307, 0.860993468246613, -0.06661014717095809, -0.3716857746272203, 0.9850297153587998, -0.7385402952956471, 1.29042156139969, 0.08054700516865468, 0.1367583154414221, -0.36360473685716327, -0.4429090389564308, 0.7366210255361244, -0.3773651181829972, 0.19813797976687886, 0.9039219588309315, -0.7720153452444829, 0.7568708177092915, -0.2235369832981186, 0.13869079342654766, -0.8068512607468008, 0.47521486373266836, -0.304620437891105, 0.35198976467068815, -0.5270296775754502, 0.8126866705170493, 0.12129852059149793, 0.41050061512160774, 0.8415996018105276, -0.7160059472627565, -0.2171088299703584, 0.7681819907523318, -0.6676039101698861, 0.3416824997380009, -0.7257570588520345, -0.8866557723633397, -0.725635851840192, 0.7542270307198253, 1.018445196561702, -0.042381917238512465, 0.2583358628472043, -0.8323184399806078, -0.5918768464742457, -0.01607723763668026, -0.838005754250142, -0.8659134770226895, 0.9351977455755821, -0.6717705808497553, 0.4530093378776626, -0.3766673847640981, -0.3268737239843991, -0.46914987523791707, -0.6146846476814345, 0.03855695573105955, -0.3786817567768339, -0.9550588504314981, 0.7285804173812176, -0.7613140208482911, 0.5343382332801492, 0.75490060482999, -0.8741405814952584, -0.2055700418656829, -0.5217736259583446, 0.5520009472947317, 0.2809703482259579, 0.34875702778685214, 1.2120444543346534, 0.35519548688038616, -0.45310611875344126, -0.7172786941213133, -0.10927494262035468, 0.9259356790039537, 0.8465313521300877, -0.2872003096659864, 0.8475250875489263, -0.66181080960214, 0.8278678346853554, -0.006809604621303408, 0.49658364048643694, 0.9387468274524483, 0.527404350405285, 0.5788292879633434, 0.5621898225384101, -1.0764529810758656, -0.9016035726702076, -0.6625060902966523, 0.301136523241502, -0.7375843939823725, -0.27425117924380926, 0.36294119706621525, 0.16715428625516596, 0.2528538810139643, -0.8822333994582606, 0.1490423873971553], "biases": [-1.0590779145549523, -1.1210980902079752, -0.9575857998447153, -0.9880206833789661, -0.9117333121227715, -1.0949592108934745, -0.904954717816518, -0.9829597321056797, -0.9918279971270462, -0.9972461647493576, -1.0260025317535193, -1.0107742905153623, -0.6208262133117526, -0.8910018516391469, -1.2960615222977168, -0.9381764662397973, -0.9786933215837857, -0.8983761695279803, -0.9607300323367074, -0.8826605381273752, -0.9324587783940333]}