{"generation": 400, "inputs": ["cart.x", "cart.vel", "bob.x", "bob.y", "bob.vel"], "outputs": ["acceleration"], "layers": [5, 10, 10, 1], "hidden_activation": "tanh", "output_activation": "tanh", "ticks": 24060000, "time": 3243.7952909469604, "weights": [0.20155664085837233, 0.32890994142943075, -0.5224322566380336, -0.1716696376451498, -0.8689911836779208, 0.5927383125546151, -0.7384808663621979, 0.5838312467300507, -0.6341695327665839, 0.021195444442836386, 0.7440313328969266, -0.6973101119318437, -0.6451690634208426, 0.12052578202031042, 0.17619642694005622, -0.8555141756128651, -0.38203665121459907, -0.8615303293777854, 0.8335306057827178, -0.7203741497569311, -0.8620831559582495, 0.5518089055057649, -0.21050819052983516, 0.2823374683932826, 0.9329931749327307, 0.3450361633376986, 0.908838794238114, 0.5496894340734542, -0.9859604836615278, 0.01577055303680354, -0.7023597379886984, 0.6398696374367174, -0.9234165073155826, -0.1629919309085835, 0.6645986416104462, -0.5222928149078493, -0.010468716564837471, -0.11857304628129048, -0.8539850800391684, 0.9573968804795827, -0.1963039418748249, -0.8127537661788085, 0.5619213634602103, -0.8009443041877278, 0.6711354377833052, 0.6404599562542109, 0.5927349796280411, -0.5064731617670952, -0.19362677514233606, 0.5174260080201222, 0.9914780733099371, 0.9085779705730794, 0.4485587462677316, 0.3587681749179752, 0.2688399363409985, 0.8115402046130771, -0.394955115607629, 0.8380185058808098, 0.9086741543419457, 0.8044811149250082, -0.0547034180672813, -0.3463056639231887, 0.09389573799843826, -0.2610183928036072, -0.5091693752907038, 0.7079397426255931, 0.2491919624457284, -0.8650904242837938, 0.8598093580555481, -0.1349060725573772, -0.6689747113587154, 0.5269995317655795, -0.3531462007792219, 0.6390344886240822, -0.04853297597461248, 0.15722383013028263, 0.03481285393621281, -0.06497900109134092, 0.16359947192809624, 0.3127247893125886, 0.21566045051398364, 0.908662678957088, -0.5952314439427339, 0.8985724484329527, -0.2852043993454257, 0.14052279964371506, -0.7715316901777749, 0.5737522262215694, -0.28598371182342897, 0.49638827856430184, -0.5208434209693239, 0.8075833782785392, 0.08641295835509626, 0.4514258619064031, 0.979485307923958, -0.7709227410250241, -0.22975757079917045, 0.6809181332842282, -0.6672467831914535, 0.2999260115885747, -0.8145129857863391, -0.9604824451831511, -0.5796057528242864, 0.8215199276687108, 0.8430551065492142, 0.0025446303929343994, 0.34299949851324407, -0.7218644678772581, -0.6661572325805526, 0.05913928754543723, -0.838005754250142, -0.8575401473625457, 0.8255743973005597, -0.4983639159826304, 0.37869719553509684, -0.37283518953552486, -0.3297139945121861, -0.4749511285049737, -0.5719192318148913, 0.020945098313334354, -0.39560475480504476, -0.9630907367215409, 0.8048256114414306, -0.7610302462673757, 0.47910397672654437, 0.659981453555668, -0.8691550776260446, -0.2634004031779609, -0.5407445620373308, 0.4776808957000551, 0.20476647536979603, 0.5790850083062431, 0.8084194617725577, 0.45606086742138346, -0.2743006251302096, -0.795040108185644, -0.13012515285291038, 0.8883820851928235, 0.927202450669496, -0.4147296652993913, 0.8386123684571106, -0.6138341190657374, 0.7719970588919112, 0.07634880726098414, 0.5864460768851731, 0.8493678774667413, 0.5106449906396306, 0.641540140111369, 0.5556699053551676, -0.970833949169791, -0.9875812957884692, -0.7210503535202865, 0.3176840744517596, -0.6911623845708224, -0.27252201309418667, 0.37822841968638915, 0.23192630328603156, 0.26133470390213615, -0.8993226013261468, 0.15816447268607847], "biases": [-1.0202816017694918, -0.9976216019195102, -1.0020657161389046, -1.0040845658098805, -1.0003604971256728, -1.0036317448530059, -0.9560340638157646, -0.9985436867507659, -1.0236222621440676, -1.010612430844139, -1.0079712695215945, -1.0034670526959106, -0.9988880277683428, -1.0018952145666518, -1.0077048547205134, -0.99944914308653, -1.0022720612773102, -1.0029577889859762, -1.0092130303460993, -0.9994017784873179, -0.9712235372185359]}