{"generation": 4218, "inputs": ["cart.x", "cart.vel", "bob.x", "bob.y", "bob.vel"], "outputs": ["acceleration"], "layers": [5, 10, 10, 1], "hidden_activation": "tanh", "output_activation": "tanh", "ticks": 1075260000, "time": 34288.79904127121, "weights": [0.32599429806053576, 0.2975356189256137, -0.3550350595487317, -0.21126729598692032, -0.6871353137359286, 0.15111767570509177, -0.609877891432818, 0.10527532699787379, -0.47077271822259026, -0.006322639583422874, 0.7425376677792724, -0.6719983507721964, -0.710217559943191, -0.5785197751071289, 0.14067710917346443, -0.8682844739928588, -0.3885163370054223, 0.06924630138142106, 0.8012445471893274, -0.719868880254971, -1.0862644744164955, 0.728625684433313, -0.36945171245286346, -0.8056573750004581, 1.0313352266605165, 0.5255570637727047, 0.9288190376219048, 2.0755760726441066, -1.3504785279074853, 0.020925166339117403, -0.7115807442782721, 0.6395575938448455, -0.9535488890862864, -0.13792041896438612, 0.5185214723648953, -0.5052914340810509, -0.016178999869357388, -0.14689221380304712, -0.8385607744583502, 0.9575934781454377, -0.19280595226066413, -1.0445506036818233, 0.5553585166775961, -0.19006393423326842, 0.6827904324480253, 0.6360194872434158, 0.5877825443427299, -0.8793754168092157, -0.19633386057856664, 0.5199868670645512, 0.998335899712122, 0.9204561579618604, 0.6031157882441155, 0.22807090678992287, 0.1033755883457913, 0.7833155736316723, -0.33490063971591333, 0.9031845359379138, 0.9340490890696393, 0.9548558452642997, -0.04847273851931771, -0.3646265760518935, -0.0471030052805447, -0.3418942657401868, -0.4588968591444251, 0.7729440783165608, 0.2526691440955805, -0.9398920202532307, 0.860993468246613, -0.05777663571929427, -0.3716857746272203, 0.9850297153587998, -0.7474846322820081, 1.29042156139969, 0.08054700516865468, 0.1367583154414221, -0.36360473685716327, -0.4429090389564308, 0.7366210255361244, -0.34519559278170076, 0.19813797976687886, 0.9039219588309315, -0.7720153452444829, 0.7568708177092915, -0.2235369832981186, 0.12261818065708541, -0.8068512607468008, 0.5032235824625095, -0.304620437891105, 0.35198976467068815, -0.5270296775754502, 0.8126866705170493, 0.12129852059149793, 0.41050061512160774, 0.8415996018105276, -0.7160059472627565, -0.2171088299703584, 0.7681819907523318, -0.6676039101698861, 0.3098130397653765, -0.7257570588520345, -0.8866557723633397, -0.7133267238466794, 0.7542270307198253, 1.018445196561702, -0.042381917238512465, 0.2583358628472043, -0.8214422716449687, -0.5918768464742457, -0.01607723763668026, -0.838005754250142, -0.8659134770226895, 0.9351977455755821, -0.6717705808497553, 0.4530093378776626, -0.3766673847640981, -0.31625287297981436, -0.46914987523791707, -0.6146846476814345, 0.03855695573105955, -0.3786817567768339, -0.9550588504314981, 0.7285804173812176, -0.7613140208482911, 0.5343382332801492, 0.75490060482999, -0.8741405814952584, -0.2030357070075878, -0.5217736259583446, 0.5520009472947317, 0.2809703482259579, 0.34875702778685214, 1.2120444543346534, 0.35519548688038616, -0.45310611875344126, -0.7172786941213133, -0.10927494262035468, 0.9259356790039537, 0.8465313521300877, -0.2995006102812517, 0.8475250875489263, -0.66181080960214, 0.8638876048803973, -0.006809604621303408, 0.49658364048643694, 0.9387468274524483, 0.527404350405285, 0.5788292879633434, 0.5621898225384101, -1.0764529810758656, -0.9016035726702076, -0.6625060902966523, 0.301136523241502, -0.7375843939823725, -0.27425117924380926, 0.36294119706621525, 0.16715428625516596, 0.2528538810139643, -0.8822333994582606, 0.1490423873971553], "biases": [-1.0590779145549523, -1.1242884603300427, -0.9575857998447153, -0.9869847085469694, -0.9117333121227715, -1.0963768424642522, -0.9048787963014199, -0.979708035840513, -0.9966706121354303, -0.987762506283607, -1.0260025317535193, -1.0112235494899724, -0.6208262133117526, -0.8910018516391469, -1.2960615222977168, -0.9435875109705049, -0.9786933215837857, -0.8722557282136559, -0.9607300323367074, -0.8843095225618122, -0.9324587783940333]}