{"generation": 4032, "inputs": ["cart.x", "cart.vel", "bob.x", "bob.y", "bob.vel"], "outputs": ["acceleration"], "layers": [5, 10, 10, 1], "hidden_activation": "tanh", "output_activation": "tanh", "ticks": 1041780000, "time": 33332.21462512016, "weights": [0.32599429806053576, 0.338355920074812, -0.3550350595487317, -0.21126729598692032, -0.6881447013681197, 0.15111767570509177, -0.609877891432818, 0.1736189932400476, -0.4731812268238548, 0.01707265110241839, 0.7425376677792724, -0.6719983507721964, -0.710217559943191, -0.5785197751071289, 0.14067710917346443, -0.8498373279923148, -0.3885163370054223, 0.06988719732325485, 0.8012445471893274, -0.719868880254971, -1.0864046132667586, 0.7443088680468638, -0.36945171245286346, -0.8056573750004581, 1.0313352266605165, 0.5193353349315801, 0.9288190376219048, 2.0329795051881794, -1.3667809797442192, 0.018752231723194096, -0.7115807442782721, 0.7057635611849277, -0.9535488890862864, -0.13792041896438612, 0.5185214723648953, -0.5054996071920614, -0.016178999869357388, -0.13991852752663833, -0.8385607744583502, 0.9575934781454377, -0.19280595226066413, -1.0019073555025337, 0.5553585166775961, -0.19006393423326842, 0.6827904324480253, 0.6360194872434158, 0.5877825443427299, -0.9105363392758952, -0.19633386057856664, 0.5199868670645512, 1.0318615283119983, 0.9204561579618604, 0.5835418920390196, 0.22807090678992287, 0.1033755883457913, 0.7796023400091497, -0.33490063971591333, 0.9119561203996708, 0.9340490890696393, 0.9017822372307076, -0.04847273851931771, -0.365100824238061, -0.0471030052805447, -0.3418942657401868, -0.4588968591444251, 0.7729440783165608, 0.25270477474221076, -0.9398920202532307, 0.860993468246613, -0.048955995561006424, -0.3716857746272203, 0.9850297153587998, -0.6945125223059104, 1.2904087355229423, 0.08054700516865468, 0.16714210231827042, -0.36360473685716327, -0.3995971835679671, 0.7355657332827462, -0.39780162404543445, 0.19813797976687886, 0.9039219588309315, -0.7283633944509278, 0.7568708177092915, -0.2235369832981186, 0.12121493747467109, -0.8068512607468008, 0.5232744575314816, -0.304620437891105, 0.35198976467068815, -0.5270296775754502, 0.8126866705170493, 0.12670567078141778, 0.41050061512160774, 0.8415996018105276, -0.7256838283266702, -0.2174188808141057, 0.7708129042523592, -0.6676039101698861, 0.3098130397653765, -0.726682215429873, -0.8881429155270709, -0.6692316910305456, 0.7542270307198253, 1.018445196561702, -0.042381917238512465, 0.2592186781150301, -0.8214422716449687, -0.5918768464742457, -0.01607723763668026, -0.838005754250142, -0.8659134770226895, 0.9472945179472044, -0.6717705808497553, 0.4530093378776626, -0.3766673847640981, -0.31625287297981436, -0.46914987523791707, -0.6146846476814345, 0.03855695573105955, -0.3786817567768339, -0.9550588504314981, 0.7055533822648576, -0.7613140208482911, 0.5343382332801492, 0.7529811412003244, -0.8741405814952584, -0.2030357070075878, -0.5217736259583446, 0.5311893128541149, 0.2809703482259579, 0.34875702778685214, 1.1497095347223933, 0.35519548688038616, -0.45310611875344126, -0.7204288042072797, -0.10927494262035468, 0.890958579947813, 0.8465313521300877, -0.3076205916971342, 0.8475250875489263, -0.66181080960214, 0.8638876048803973, -0.006809604621303408, 0.49658364048643694, 0.9387468274524483, 0.527404350405285, 0.5788292879633434, 0.5621898225384101, -1.0764529810758656, -0.9016035726702076, -0.6625060902966523, 0.301136523241502, -0.7375843939823725, -0.27425117924380926, 0.36294119706621525, 0.16715428625516596, 0.2528538810139643, -0.8822333994582606, 0.1490423873971553], "biases": [-1.0590779145549523, -1.1570643393292812, -0.9579686386903074, -0.9853135236008693, -0.9064481849980003, -1.1094073285687531, -0.9041779769993855, -0.9823316713706319, -1.0064216374689385, -0.9797604628964098, -1.0286924313767065, -1.0103435010310635, -0.6290359276029964, -0.8923583364828386, -1.3050205587821302, -0.9322669704044194, -0.9804026408821098, -0.8901089986599039, -0.9617322126768596, -0.8892876338399215, -0.9324587783940333]}