{"generation": 5443, "inputs": ["cart.x", "cart.vel", "bob.x", "bob.y", "bob.vel"], "outputs": ["acceleration"], "layers": [5, 10, 10, 1], "hidden_activation": "tanh", "output_activation": "tanh", "ticks": 1295760000, "time": 40696.09397816658, "weights": [0.32599429806053576, 0.30776156471021887, -0.3499970689528037, -0.21126729598692032, -0.6774196118403466, 0.15290434722384585, -0.609877891432818, 0.12651515066233082, -0.46574945699440146, -0.03845443120255235, 0.7425376677792724, -0.6305967975802461, -0.710217559943191, -0.5785197751071289, 0.14067710917346443, -0.8682844739928588, -0.3885163370054223, 0.2808169968151496, 0.8012445471893274, -0.719868880254971, -1.0862644744164955, 0.7638821801941099, -0.40022443774753447, -0.8056573750004581, 1.0313352266605165, 0.5392079471339265, 0.9288190376219048, 2.212172186761473, -1.3504785279074853, 0.0521389044780172, -0.7115807442782721, 0.6273616160209468, -0.9535488890862864, -0.13915364142038703, 0.5185214723648953, -0.5052914340810509, -0.020740766474812173, -0.18605963267043812, -0.8407729885628892, 0.9575934781454377, -0.19280595226066413, -1.2317410289633224, 0.5553585166775961, -0.19006393423326842, 0.6821143805697147, 0.6360194872434158, 0.5877825443427299, -0.7616163229862976, -0.19633386057856664, 0.5102272084383097, 0.9943860100407136, 0.9197885627534064, 0.5870766689046393, 0.22807090678992287, 0.1033755883457913, 0.8100366798325962, -0.33490063971591333, 0.8599306483072218, 0.8804517266827774, 0.9306939500632008, -0.04847273851931771, -0.36136221685211034, -0.000736019669461109, -0.3418942657401868, -0.4588968591444251, 0.7729440783165608, 0.2526691440955805, -0.9434578671154431, 0.8567375587750011, -0.14357350718654088, -0.3787438082218338, 0.9848933408271386, -0.7789039738055725, 1.2880965186968036, 0.08054700516865468, 0.13482669130271224, -0.36360473685716327, -0.4438294580221703, 0.7344688458068729, -0.5074564211819681, 0.19813797976687886, 0.9039219588309315, -0.7847082817059241, 0.7568708177092915, -0.22215455566205966, 0.09509559771920806, -0.8497150960137055, 0.4787259816710859, -0.304620437891105, 0.3916997305844487, -0.5361490841024648, 0.8126866705170493, 0.054255093092292234, 0.41050061512160774, 0.8415996018105276, -0.7160059472627565, -0.2171088299703584, 0.733145403119391, -0.6676039101698861, 0.34180403788800584, -0.6882020464446373, -0.8866557723633397, -0.7969481244616428, 0.7599458116119278, 1.015419538088677, -0.025090079458395566, 0.2583358628472043, -0.8746035021926524, -0.5918768464742457, -0.0037966372114013047, -0.838005754250142, -0.8659134770226895, 0.8576704780906381, -0.6696666689302684, 0.5086293132201839, -0.39630236751535297, -0.33242771959747724, -0.5035436185884588, -0.6146846476814345, -0.0016351681391228584, -0.37285864836547106, -0.9550588504314981, 0.7306741629604164, -0.7613140208482911, 0.5343382332801492, 0.75490060482999, -0.8634129737437428, -0.218407771077613, -0.5217736259583446, 0.5199017691557705, 0.2809703482259579, 0.3466408702691466, 1.2866603314459597, 0.35519548688038616, -0.45310611875344126, -0.7190403582548764, -0.13178917107639462, 0.9346705960616093, 0.8126994463323642, -0.3487135635992028, 0.8243738224856957, -0.66181080960214, 0.7796612967334696, -0.006809604621303408, 0.4784015915169768, 0.9685531906825475, 0.5285067701079444, 0.48350889235539857, 0.5833978889349474, -1.009759903629494, -0.9016035726702076, -0.6625060902966523, 0.301136523241502, -0.7375843939823725, -0.27425117924380926, 0.36294119706621525, 0.16715428625516596, 0.2528538810139643, -0.8822333994582606, 0.1490423873971553], "biases": [-1.0644129632894328, -1.2046938910412839, -0.9630151264150116, -0.9775265606708894, -0.9206616976222148, -1.0894129153098673, -0.907801654688891, -1.0012625831614175, -0.9846135617418942, -0.9774426870015733, -1.034759374019859, -0.9934325269080901, -0.7186690031550533, -0.8771000576613698, -1.2902546466103348, -0.978765573095121, -0.9550473362431366, -0.9874516285571672, -0.9460287483210436, -0.8985695088246162, -0.9330162216287164]}