{"generation": 5797, "inputs": ["cart.x", "cart.vel", "bob.x", "bob.y", "bob.vel"], "outputs": ["acceleration"], "layers": [5, 10, 10, 1], "hidden_activation": "tanh", "output_activation": "tanh", "ticks": 1359480000, "time": 42583.068150281906, "weights": [0.32599429806053576, 0.33876915400485236, -0.3499970689528037, -0.21126729598692032, -0.6774196118403466, 0.15300584978435144, -0.609877891432818, 0.1444515054419722, -0.46574945699440146, -0.03845443120255235, 0.7425376677792724, -0.565927964375576, -0.710217559943191, -0.5785197751071289, 0.14067710917346443, -0.8682844739928588, -0.3885163370054223, 0.32613947467936927, 0.8012432780070199, -0.7236611712604467, -1.090844385038635, 0.6937247042786828, -0.40022443774753447, -0.8056573750004581, 1.0313352266605165, 0.5392079471339265, 0.9288190376219048, 2.203988372576782, -1.3504785279074853, 0.0521389044780172, -0.7084151888394357, 0.6494875926685499, -0.9535488890862864, -0.13915364142038703, 0.5185214723648953, -0.5052914340810509, -0.0018751602695247817, -0.18327815119217183, -0.8407729885628892, 0.9575934781454377, -0.19280595226066413, -1.1742356652402937, 0.5553585166775961, -0.19006393423326842, 0.6821143805697147, 0.6360194872434158, 0.5877825443427299, -0.7419751607073619, -0.19633386057856664, 0.5102272084383097, 1.0027319586738594, 0.9197885627534064, 0.4863341316364412, 0.22807090678992287, 0.1033755883457913, 0.8100366798325962, -0.33490063971591333, 0.8934638503991622, 0.8804517266827774, 0.9461820984539882, -0.04637511571379536, -0.36136221685211034, 0.0052296270340899745, -0.3418942657401868, -0.4588968591444251, 0.7729440783165608, 0.2526691440955805, -0.9434578671154431, 0.8567375587750011, -0.14357350718654088, -0.3787438082218338, 0.9848933408271386, -0.7726150214797898, 1.2880965186968036, 0.08054700516865468, 0.13482669130271224, -0.36360473685716327, -0.4344515209656129, 0.7344688458068729, -0.5314069524673231, 0.22792279901532864, 0.9039219588309315, -0.7841281977164832, 0.7568708177092915, -0.2038685894289763, 0.08354028340278945, -0.8712147094193335, 0.4881914173626297, -0.304620437891105, 0.3916997305844487, -0.5361490841024648, 0.8126866705170493, 0.06357862780959063, 0.41050061512160774, 0.8415996018105276, -0.7599089972915898, -0.2171088299703584, 0.6895661607389768, -0.6676039101698861, 0.34180403788800584, -0.6882020464446373, -0.885340675279974, -0.8008999236550098, 0.7599458116119278, 1.015419538088677, -0.025560350717544048, 0.2583358628472043, -0.9175026062988355, -0.5918768464742457, -0.07702080049036121, -0.838005754250142, -0.8659134770226895, 0.895426353812548, -0.6696666689302684, 0.5086293132201839, -0.3559388625821702, -0.33242771959747724, -0.5338295649968459, -0.6143512821860353, 0.0010493467110401847, -0.37285864836547106, -0.9879056501865718, 0.7306741629604164, -0.7613140208482911, 0.5343382332801492, 0.7719586263629354, -0.8634129737437428, -0.218407771077613, -0.5217736259583446, 0.48214714505157086, 0.2809703482259579, 0.3466408702691466, 1.2629037844976287, 0.35519548688038616, -0.45310611875344126, -0.7190403582548764, -0.1543646382992513, 0.9509565165659115, 0.8126994463323642, -0.32218816531426814, 0.8243738224856957, -0.66181080960214, 0.6965906720135066, -0.006809604621303408, 0.4784015915169768, 0.9685531906825475, 0.5285067701079444, 0.4946357991640809, 0.5833978889349474, -1.008840921405073, -0.9016035726702076, -0.6625060902966523, 0.301136523241502, -0.7375843939823725, -0.27425117924380926, 0.36294119706621525, 0.16715428625516596, 0.2528538810139643, -0.8822333994582606, 0.1490423873971553], "biases": [-1.0634597134147905, -1.1641161930582278, -0.952114004468344, -0.9775265606708894, -0.9253926112586082, -1.088943477412384, -0.8958437875869343, -0.9876137923576738, -0.9770478218365573, -0.964198370300293, -1.034759374019859, -0.9862397201097919, -0.6899926589361722, -0.8724656196283294, -1.2836138469049183, -0.9781445787892737, -0.9678188378647729, -1.00834783035303, -0.9491631211994205, -0.9064518879480739, -0.9327579189283671]}