{"generation": 568, "inputs": ["cart.x", "cart.vel", "bob.x", "bob.y", "bob.vel"], "outputs": ["acceleration"], "layers": [5, 10, 10, 1], "hidden_activation": "tanh", "output_activation": "tanh", "ticks": 34140000, "time": 3924.9090156555176, "weights": [0.24426789819095485, 0.32890994142943075, -0.5224322566380336, -0.16238385683075565, -0.8689911836779208, 0.5767730733430717, -0.7573435826008091, 0.5273780233687101, -0.5936655199729541, 0.025405627341591363, 0.7440313328969266, -0.6973101119318437, -0.6451690634208426, 0.12052578202031042, 0.17619642694005622, -0.8555141756128651, -0.3869092156350048, -0.8615303293777854, 0.8351772117062759, -0.7203741497569311, -0.9090415291050243, 0.5518089055057649, -0.21050819052983516, 0.2823374683932826, 0.9329931749327307, 0.37398252153406514, 0.908838794238114, 0.557958313761055, -0.9859604836615278, 0.007054276481511844, -0.700134265128086, 0.6398696374367174, -0.9234165073155826, -0.15482534137324028, 0.6645986416104462, -0.5173866284626694, -0.01900166728523359, -0.11384127653691549, -0.8506918834228221, 0.9573968804795827, -0.19263341735930095, -0.8127537661788085, 0.5619213634602103, -0.8009443041877278, 0.6711354377833052, 0.638743129965602, 0.5888237828350129, -0.5064731617670952, -0.19115038328967218, 0.5174260080201222, 0.9992182890389633, 0.9170191656811227, 0.4485587462677316, 0.36090086043927494, 0.2688399363409985, 0.8115402046130771, -0.3988001437295495, 0.8380185058808098, 0.9114996794141214, 0.8050518914055015, -0.04880448547077842, -0.3463056639231887, 0.09389573799843826, -0.2610183928036072, -0.5091693752907038, 0.7079397426255931, 0.2491919624457284, -0.8650904242837938, 0.8598093580555481, -0.1349060725573772, -0.6689747113587154, 0.5269995317655795, -0.3531462007792219, 0.640227785115075, -0.04853297597461248, 0.15661356854708494, 0.03212422422795592, -0.06497900109134092, 0.16359947192809624, 0.3127247893125886, 0.21566045051398364, 0.908662678957088, -0.5920535453777227, 0.8927351847244375, -0.2852043993454257, 0.14052279964371506, -0.7715316901777749, 0.5737522262215694, -0.28598371182342897, 0.49638827856430184, -0.5208434209693239, 0.8026697106601287, 0.08641295835509626, 0.451613138062603, 0.979485307923958, -0.7709227410250241, -0.22975757079917045, 0.6809181332842282, -0.6700155995702394, 0.2999260115885747, -0.78195244245487, -0.9604824451831511, -0.5796057528242864, 0.8215199276687108, 0.8430551065492142, 0.0025446303929343994, 0.3406154633815677, -0.7218644678772581, -0.6455435115867136, 0.05913928754543723, -0.838005754250142, -0.8621724120455407, 0.8255743973005597, -0.5032691111489255, 0.37869719553509684, -0.37283518953552486, -0.32631097052320923, -0.4749511285049737, -0.5719192318148913, 0.020437521366683583, -0.39560475480504476, -0.9630907367215409, 0.8048256114414306, -0.7607584112494455, 0.474599682236706, 0.659981453555668, -0.8691550776260446, -0.2664069879956969, -0.5407445620373308, 0.4776808957000551, 0.19636073580709315, 0.5790850083062431, 0.8084194617725577, 0.45606086742138346, -0.2743006251302096, -0.795040108185644, -0.13012515285291038, 0.8883820851928235, 0.9224742091963554, -0.40691610154854196, 0.8386123684571106, -0.6102163694838324, 0.7710181031842887, 0.07634880726098414, 0.5864460768851731, 0.8493678774667413, 0.5106449906396306, 0.641540140111369, 0.5556699053551676, -0.970833949169791, -1.0066147206396547, -0.707545809371876, 0.3137131540258469, -0.6978030503674273, -0.27404057321480624, 0.3724577683847835, 0.22304679650028078, 0.26133470390213615, -0.9036365887324109, 0.15816447268607847], "biases": [-1.0214056606583644, -1.0009508382155519, -1.0032566161317378, -1.011867920666667, -0.9996129842996425, -1.01336468890031, -0.9320275241294949, -0.9978717543263912, -1.024279088424903, -1.00856268607282, -1.015150737701352, -1.0068471990773387, -0.99719880560319, -0.9996681999401141, -1.0140700273777863, -1.00224199110744, -1.004774513241993, -1.002658119398003, -1.0134753287401552, -1.0031693104866777, -0.9604561223184588]}