{"generation": 5898, "inputs": ["cart.x", "cart.vel", "bob.x", "bob.y", "bob.vel"], "outputs": ["acceleration"], "layers": [5, 10, 10, 1], "hidden_activation": "tanh", "output_activation": "tanh", "ticks": 1377660000, "time": 43127.02141523361, "weights": [0.3351625594090778, 0.35355821912732327, -0.3499970689528037, -0.21126729598692032, -0.6774196118403466, 0.15300584978435144, -0.609877891432818, 0.14507142038257953, -0.46574945699440146, -0.03845443120255235, 0.7425376677792724, -0.6131970600828948, -0.710217559943191, -0.5783372283083485, 0.14067710917346443, -0.8682844739928588, -0.3885163370054223, 0.35309846542272205, 0.8012432780070199, -0.7236611712604467, -1.090844385038635, 0.6767357503478783, -0.40772987249473003, -0.8802231998832795, 1.036366943235116, 0.5392079471339265, 0.9288190376219048, 2.2266008237024306, -1.353198950162932, 0.0521389044780172, -0.7058026188441527, 0.6983245871745966, -0.9535488890862864, -0.13915364142038703, 0.4784955577652078, -0.5052914340810509, -0.0018751602695247817, -0.18327815119217183, -0.8428540123785888, 0.9575934781454377, -0.19280595226066413, -1.1742356652402937, 0.5553585166775961, -0.19006393423326842, 0.6821143805697147, 0.6360194872434158, 0.5877825443427299, -0.7763960494086753, -0.19633386057856664, 0.5102272084383097, 1.0114209103466418, 0.9197885627534064, 0.4863341316364412, 0.22807090678992287, 0.1033755883457913, 0.8164629601963285, -0.33490063971591333, 0.8980568481650811, 0.8804517266827774, 0.9461820984539882, -0.04637511571379536, -0.36136221685211034, 0.0052296270340899745, -0.3418942657401868, -0.4588968591444251, 0.7806650793191011, 0.2526691440955805, -0.9845319829999052, 0.8570673289529808, -0.14357350718654088, -0.3365267010818386, 1.0198043590843724, -0.7726150214797898, 1.2880965186968036, 0.03972570102910461, 0.13482669130271224, -0.3771574276477346, -0.45406991456004964, 0.7344688458068729, -0.5614592938824736, 0.22792279901532864, 0.9039219588309315, -0.7841281977164832, 0.7189922352397738, -0.20815460798213445, 0.08354028340278945, -0.8341894125185486, 0.4881914173626297, -0.304620437891105, 0.3771235588887051, -0.5369729713400954, 0.8126866705170493, 0.1104844370789597, 0.36260073709952373, 0.8415996018105276, -0.7599089972915898, -0.2171088299703584, 0.6895661607389768, -0.6676039101698861, 0.41568857307002344, -0.6882020464446373, -0.8723523180313474, -0.8059808547528452, 0.7376584288382172, 1.015419538088677, -0.025560350717544048, 0.2583358628472043, -0.9175026062988355, -0.5918768464742457, -0.07702080049036121, -0.838005754250142, -0.8659134770226895, 0.8880872646281381, -0.6696666689302684, 0.5507521356169829, -0.3559388625821702, -0.33242771959747724, -0.5330886099099585, -0.6143512821860353, 0.0010493467110401847, -0.37186353030656316, -0.9879056501865718, 0.7306741629604164, -0.7802485923337367, 0.5343382332801492, 0.7322322369668552, -0.8634129737437428, -0.22343233931982784, -0.5217736259583446, 0.48214714505157086, 0.2809703482259579, 0.3466408702691466, 1.2962275515684443, 0.35519548688038616, -0.45310611875344126, -0.7190403582548764, -0.1543646382992513, 0.9509565165659115, 0.7734855304900601, -0.32218816531426814, 0.8243738224856957, -0.66181080960214, 0.6618272026273598, -0.006809604621303408, 0.4784015915169768, 0.9543491616409342, 0.5285067701079444, 0.4946357991640809, 0.5833978889349474, -1.0253428394630506, -0.9016035726702076, -0.6625060902966523, 0.301136523241502, -0.7375843939823725, -0.27425117924380926, 0.36294119706621525, 0.16715428625516596, 0.2528538810139643, -0.8822333994582606, 0.10669990094749743], "biases": [-1.0617977633767455, -1.1842762198281358, -0.952114004468344, -0.96073198514058, -0.9126240167070233, -1.0898321561532873, -0.9005512298121415, -0.9749055530742329, -0.9681741545883218, -0.9632597560950873, -1.0312044014106587, -0.985655985556489, -0.695558449284542, -0.8718344995416066, -1.2780057496327886, -1.007674378157518, -0.9633531585024995, -1.0213521152616278, -0.9562823579311791, -0.8747635232715228, -0.9327984012531457]}