{"generation": 5229, "inputs": ["cart.x", "cart.vel", "bob.x", "bob.y", "bob.vel"], "outputs": ["acceleration"], "layers": [5, 10, 10, 1], "hidden_activation": "tanh", "output_activation": "tanh", "ticks": 1257240000, "time": 39567.641124248505, "weights": [0.32599429806053576, 0.34002245454142227, -0.3499970689528037, -0.21126729598692032, -0.6871353137359286, 0.15290434722384585, -0.609877891432818, 0.12997007567846486, -0.46574945699440146, -0.03845443120255235, 0.7425376677792724, -0.6436279001494705, -0.710217559943191, -0.5785197751071289, 0.14067710917346443, -0.8682844739928588, -0.3885163370054223, 0.2629116049245253, 0.8012445471893274, -0.719868880254971, -1.0862644744164955, 0.7761106056341042, -0.40022443774753447, -0.8056573750004581, 1.0313352266605165, 0.5251919348779598, 0.9288190376219048, 2.233240604659754, -1.3504785279074853, 0.0521389044780172, -0.7115807442782721, 0.6432182720056636, -0.9535488890862864, -0.13915364142038703, 0.5185214723648953, -0.5052914340810509, -0.020740766474812173, -0.1687024632228497, -0.8407729885628892, 0.9575934781454377, -0.19280595226066413, -1.1465173953788728, 0.5553585166775961, -0.19006393423326842, 0.6827904324480253, 0.6360194872434158, 0.5877825443427299, -0.7714634597082081, -0.19633386057856664, 0.5102272084383097, 0.9943860100407136, 0.9197885627534064, 0.6111060687185095, 0.22807090678992287, 0.1033755883457913, 0.81471232663007, -0.33490063971591333, 0.8893321421441907, 0.8804517266827774, 0.9538685970333433, -0.04847273851931771, -0.36136221685211034, -0.000736019669461109, -0.3418942657401868, -0.4588968591444251, 0.7729440783165608, 0.2526691440955805, -0.9434578671154431, 0.8567375587750011, -0.14357350718654088, -0.3787438082218338, 0.9848933408271386, -0.8319400836442147, 1.2880965186968036, 0.08054700516865468, 0.13147540296686241, -0.36360473685716327, -0.46588162257906873, 0.7344688458068729, -0.5437920856241308, 0.19813797976687886, 0.9039219588309315, -0.7847082817059241, 0.7568708177092915, -0.22215455566205966, 0.09509559771920806, -0.8399232286857146, 0.4787259816710859, -0.304620437891105, 0.3787551631686323, -0.5361490841024648, 0.8126866705170493, 0.054255093092292234, 0.41050061512160774, 0.8415996018105276, -0.7160059472627565, -0.2171088299703584, 0.7804912396808713, -0.6676039101698861, 0.34492569411239, -0.7257570588520345, -0.8866557723633397, -0.77411799055739, 0.7599458116119278, 1.015419538088677, -0.03215137186577044, 0.2583358628472043, -0.8552693233389033, -0.5918768464742457, -0.061105807800416835, -0.838005754250142, -0.8659134770226895, 0.8924075693461206, -0.6696666689302684, 0.5086293132201839, -0.3883335345643153, -0.3317167270525767, -0.49543116820552824, -0.6146846476814345, -0.0016351681391228584, -0.37285864836547106, -0.9550588504314981, 0.7306741629604164, -0.7613140208482911, 0.5343382332801492, 0.75490060482999, -0.8634129737437428, -0.218407771077613, -0.5217736259583446, 0.5350379641316413, 0.2809703482259579, 0.3466408702691466, 1.3337014150331479, 0.35519548688038616, -0.45310611875344126, -0.7190403582548764, -0.13178917107639462, 0.9098003305859428, 0.8241347733548355, -0.3713843653310562, 0.8475250875489263, -0.66181080960214, 0.8436803212042179, -0.006809604621303408, 0.49658364048643694, 0.9685531906825475, 0.5285067701079444, 0.48350889235539857, 0.5833978889349474, -1.0344831358818627, -0.9016035726702076, -0.6625060902966523, 0.301136523241502, -0.7375843939823725, -0.27425117924380926, 0.36294119706621525, 0.16715428625516596, 0.2528538810139643, -0.8822333994582606, 0.1490423873971553], "biases": [-1.0588702250661763, -1.196709026170811, -0.9629739426980501, -0.9775265606708894, -0.9206616976222148, -1.0885458364859355, -0.9064686530330761, -0.9980460873675484, -0.9887131993922891, -0.9716431643028357, -1.034759374019859, -1.004353605244799, -0.7366167968968121, -0.8773252926522044, -1.297211456386262, -0.9664473341813965, -0.9550473362431366, -0.98017661370402, -0.9469390232278443, -0.9160459700337827, -0.9330162216287164]}