{"generation": 6270, "inputs": ["cart.x", "cart.vel", "bob.x", "bob.y", "bob.vel"], "outputs": ["acceleration"], "layers": [5, 10, 10, 1], "hidden_activation": "tanh", "output_activation": "tanh", "ticks": 1444620000, "time": 45108.026314258575, "weights": [0.3351625594090778, 0.29970304783103463, -0.3477922654920652, -0.21126729598692032, -0.6774196118403466, 0.15291062584871756, -0.609877891432818, 0.13900646378222625, -0.46574945699440146, -0.03845443120255235, 0.7425376677792724, -0.6277985447783937, -0.710217559943191, -0.5783372283083485, 0.14051505321854707, -0.8682844739928588, -0.3885163370054223, 0.4002573931373438, 0.8012432780070199, -0.7236611712604467, -1.090844385038635, 0.7164434522915211, -0.40772987249473003, -0.8802231998832795, 1.034468748155311, 0.5392079471339265, 0.9282353714552758, 2.2488738220599926, -1.3812130886695217, 0.0521389044780172, -0.7058026188441527, 0.7202666871526946, -0.9535488890862864, -0.13915364142038703, 0.4784955577652078, -0.5052914340810509, -0.0018751602695247817, -0.1840443466759913, -0.844149309389333, 0.9575934781454377, -0.19280595226066413, -1.1703092734621774, 0.5553585166775961, -0.19006393423326842, 0.6821143805697147, 0.6360194872434158, 0.5877825443427299, -0.8594078403896911, -0.19633386057856664, 0.5098508309315527, 1.0114209103466418, 0.9197885627534064, 0.5199300103820351, 0.22807090678992287, 0.1033755883457913, 0.8188640258842748, -0.33490063971591333, 0.8790464379422004, 0.8801603670923137, 0.9621600263945348, -0.04637511571379536, -0.36286052990150497, 0.01501259535339669, -0.34374715949637175, -0.4588968591444251, 0.8115513608781132, 0.2526691440955805, -0.9858879300046175, 0.8570673289529808, -0.15815973449659507, -0.3353210586336932, 1.0198043590843724, -0.8543811938126802, 1.2880965186968036, 0.03972570102910461, 0.12803427162472203, -0.3771574276477346, -0.5254540008162347, 0.7344688458068729, -0.6384975831533898, 0.22792279901532864, 0.9039219588309315, -0.830469197392519, 0.7189922352397738, -0.20815460798213445, 0.08350266073135103, -0.8341894125185486, 0.5044633216130485, -0.304620437891105, 0.38392481432633424, -0.5384779101183111, 0.8126866705170493, 0.1104844370789597, 0.36260073709952373, 0.8416392547847087, -0.7599089972915898, -0.2171088299703584, 0.7014374330668367, -0.6676039101698861, 0.4349614127683207, -0.6882020464446373, -0.8723523180313474, -0.8602398718310502, 0.7378543873638874, 1.015419538088677, -0.025560350717544048, 0.2583358628472043, -0.9175026062988355, -0.5918768464742457, -0.05121260401504994, -0.8380083351096473, -0.8659134770226895, 0.8747173777392533, -0.6677621707894403, 0.5360803832091504, -0.35380461571485416, -0.3464599644136045, -0.5730019580174741, -0.6143512821860353, 0.0183392299692232, -0.37186353030656316, -0.9884730379873495, 0.7306741629604164, -0.7802485923337367, 0.5343382332801492, 0.7317753048528505, -0.8634129737437428, -0.22508500540294196, -0.5217736259583446, 0.4848704723221219, 0.2809703482259579, 0.35955322018273056, 1.2929932285633865, 0.35519548688038616, -0.45310611875344126, -0.7219763676577885, -0.15292105881541648, 1.1668552142871853, 0.7734855304900601, -0.28340326333287147, 0.8243738224856957, -0.66181080960214, 0.692901098815063, -0.006809604621303408, 0.4784015915169768, 0.9543491616409342, 0.5264308870771981, 0.4843956999946982, 0.5833978889349474, -1.012140073600598, -0.9016035726702076, -0.6625060902966523, 0.301136523241502, -0.7375843939823725, -0.27425117924380926, 0.36294119706621525, 0.16715428625516596, 0.2528538810139643, -0.8822333994582606, 0.10669990094749743], "biases": [-1.0614791703332043, -1.191582971450817, -0.9536216931018402, -0.96073198514058, -0.9124248317036685, -1.0898705960463018, -0.9005512298121415, -0.9729909758662171, -0.9681346255708684, -0.973039165753933, -1.0308211663523086, -0.9862455414166104, -0.7424875242965865, -0.8707622613217506, -1.2787752349751629, -1.0061820090566058, -0.9735655936668202, -1.0101296961389294, -0.9541259223449904, -0.8980306751614632, -0.9327984012531457]}