{"generation": 6809, "inputs": ["cart.x", "cart.vel", "bob.x", "bob.y", "bob.vel"], "outputs": ["acceleration"], "layers": [5, 10, 10, 1], "hidden_activation": "tanh", "output_activation": "tanh", "ticks": 1541640000, "time": 47998.88205218315, "weights": [0.3351625594090778, 0.19282040313299056, -0.3477922654920652, -0.21126729598692032, -0.6774196118403466, 0.15825297875468924, -0.609877891432818, 0.1445491108972038, -0.46574945699440146, -0.03845443120255235, 0.7425376677792724, -0.6096863475070002, -0.710217559943191, -0.6179504386910302, 0.14051505321854707, -0.8682844739928588, -0.3885163370054223, 0.4497893192920959, 0.8012432780070199, -0.7236611712604467, -1.1028914235696798, 0.7503687292658842, -0.41771934162874774, -0.8802231998832795, 1.034468748155311, 0.5074754196215662, 0.9282353714552758, 2.401875536502673, -1.3812130886695217, 0.05113397482926551, -0.7058026188441527, 0.7850066782931242, -0.9535488890862864, -0.13915364142038703, 0.4784955577652078, -0.5052914340810509, -0.0018751602695247817, -0.1840443466759913, -0.844149309389333, 0.9569053963688533, -0.19280595226066413, -1.2312918248367544, 0.5553585166775961, -0.19006393423326842, 0.6821143805697147, 0.6360194872434158, 0.5877825443427299, -0.7592039487704536, -0.19633386057856664, 0.5098508309315527, 1.010652362907472, 0.9197885627534064, 0.3990556508451247, 0.22807090678992287, 0.10030678561551976, 0.8567481231393002, -0.33490063971591333, 0.8800572655338972, 0.8610880237441902, 0.9621600263945348, -0.04637511571379536, -0.36286052990150497, -0.015173105578767283, -0.34418316318984843, -0.45885235094741356, 0.8115513608781132, 0.2530830512724363, -0.9970436942203335, 0.8570673289529808, -0.16877306114820803, -0.33491188175976083, 1.0198043590843724, -0.8894487068894171, 1.2880965186968036, 0.03922771532182066, 0.12522299453523023, -0.3771574276477346, -0.49483999691821023, 0.7344688458068729, -0.627590224584633, 0.22792279901532864, 0.9039219588309315, -0.9097716720173246, 0.7189907453333849, -0.20815460798213445, 0.09477954205358122, -0.8434734782323254, 0.4597239063216611, -0.304620437891105, 0.38392481432633424, -0.5384779101183111, 0.77356278589911, 0.1101015833740823, 0.36370907584755935, 0.8416392547847087, -0.7599089972915898, -0.2171088299703584, 0.6923103394182739, -0.6676039101698861, 0.38861620827601456, -0.6891704552434043, -0.8723523180313474, -0.8616476257987621, 0.7378543873638874, 1.015419538088677, -0.01955394368468208, 0.2583358628472043, -0.901521557126184, -0.5918768464742457, -0.009620671228331726, -0.8387142732125522, -0.8659134770226895, 0.8737177767162745, -0.6677621707894403, 0.6114179284105979, -0.36898500915381693, -0.3454965424784175, -0.5730019580174741, -0.6143512821860353, 0.014749541781893666, -0.37186353030656316, -0.9877688891795142, 0.7306741629604164, -0.7802485923337367, 0.5343382332801492, 0.7323187248746941, -0.8634129737437428, -0.23294264550337185, -0.5217736259583446, 0.4820041990231716, 0.2794421693834988, 0.3973375863815703, 1.402613657759074, 0.35519548688038616, -0.45310611875344126, -0.7219763676577885, -0.15292105881541648, 1.1977132347190302, 0.7734855304900601, -0.276483981763195, 0.8243738224856957, -0.66181080960214, 0.7168641696232118, -0.006809604621303408, 0.47983445046808476, 0.945466192352002, 0.5264308870771981, 0.4900665174201362, 0.5844848842352921, -1.0127400842068583, -0.9016035726702076, -0.6476751025916754, 0.301136523241502, -0.7375843939823725, -0.27425117924380926, 0.330011955105848, 0.16715428625516596, 0.2528538810139643, -0.8822333994582606, 0.10669990094749743], "biases": [-1.0614791703332043, -1.1994435786781057, -0.9543088974597976, -0.9608786207679899, -0.9131927599019338, -1.091864551462675, -0.9004085930138412, -0.978974120979256, -0.9665444242805105, -0.9692159156926502, -1.0305253459834571, -0.9787752268454312, -0.6785768833527608, -0.8656327909202743, -1.2893717660503667, -1.0158361084038972, -0.9796529519228171, -1.0157884497089686, -0.940644365962551, -0.9485424676784233, -0.9327984012531457]}