{"generation": 6611, "inputs": ["cart.x", "cart.vel", "bob.x", "bob.y", "bob.vel"], "outputs": ["acceleration"], "layers": [5, 10, 10, 1], "hidden_activation": "tanh", "output_activation": "tanh", "ticks": 1506000000, "time": 46929.222526073456, "weights": [0.3351625594090778, 0.22876200032752544, -0.3477922654920652, -0.21126729598692032, -0.6774196118403466, 0.15291062584871756, -0.609877891432818, 0.12679972801153108, -0.46574945699440146, -0.03845443120255235, 0.7425376677792724, -0.6190903282527805, -0.710217559943191, -0.6179504386910302, 0.14051505321854707, -0.8682844739928588, -0.3885163370054223, 0.3979865201544278, 0.8012432780070199, -0.7236611712604467, -1.1028914235696798, 0.7524288396306748, -0.41771934162874774, -0.8802231998832795, 1.034468748155311, 0.5074754196215662, 0.9282353714552758, 2.401875536502673, -1.3812130886695217, 0.0521389044780172, -0.7058026188441527, 0.7850066782931242, -0.9535488890862864, -0.13915364142038703, 0.4784955577652078, -0.5052914340810509, -0.0018751602695247817, -0.1840443466759913, -0.844149309389333, 0.9569053963688533, -0.19280595226066413, -1.258008595214263, 0.5553585166775961, -0.19006393423326842, 0.6821143805697147, 0.6360194872434158, 0.5877825443427299, -0.838288831624362, -0.19633386057856664, 0.5098508309315527, 1.0114209103466418, 0.9197885627534064, 0.4211212240712785, 0.22807090678992287, 0.10030678561551976, 0.8567481231393002, -0.33490063971591333, 0.8896893809485861, 0.8610880237441902, 0.9621600263945348, -0.04637511571379536, -0.36286052990150497, -0.015173105578767283, -0.34418316318984843, -0.45885235094741356, 0.8115513608781132, 0.2532905110440545, -0.9858879300046175, 0.8570673289529808, -0.1776798988560973, -0.3353210586336932, 1.0198043590843724, -0.8543811938126802, 1.2880965186968036, 0.03922771532182066, 0.12522299453523023, -0.3771574276477346, -0.45142772777304047, 0.7344688458068729, -0.6242991241405963, 0.22792279901532864, 0.9039219588309315, -0.8610233369135106, 0.7189922352397738, -0.20815460798213445, 0.09477954205358122, -0.8434734782323254, 0.4597239063216611, -0.304620437891105, 0.38392481432633424, -0.5384779101183111, 0.77356278589911, 0.1101015833740823, 0.36260073709952373, 0.8416392547847087, -0.7599089972915898, -0.2171088299703584, 0.7014374330668367, -0.6676039101698861, 0.38861620827601456, -0.6891704552434043, -0.8723523180313474, -0.9002233887544401, 0.7378543873638874, 1.015419538088677, -0.01955394368468208, 0.2583358628472043, -0.8940982792482538, -0.5918768464742457, -0.07194181919826874, -0.8387142732125522, -0.8659134770226895, 0.8737177767162745, -0.6677621707894403, 0.6114179284105979, -0.373371552590039, -0.3454965424784175, -0.5730019580174741, -0.6143512821860353, 0.014749541781893666, -0.37186353030656316, -0.9877688891795142, 0.7306741629604164, -0.7802485923337367, 0.5343382332801492, 0.7317753048528505, -0.8634129737437428, -0.22508500540294196, -0.5217736259583446, 0.4848704723221219, 0.2794421693834988, 0.39718241098907175, 1.320117881220356, 0.35519548688038616, -0.45310611875344126, -0.7219763676577885, -0.15292105881541648, 1.1977132347190302, 0.7734855304900601, -0.276483981763195, 0.8243738224856957, -0.66181080960214, 0.6850317885737429, -0.006809604621303408, 0.47983445046808476, 0.945466192352002, 0.5264308870771981, 0.4900665174201362, 0.5844848842352921, -1.004830979099593, -0.9016035726702076, -0.6476751025916754, 0.301136523241502, -0.7375843939823725, -0.27425117924380926, 0.330011955105848, 0.16715428625516596, 0.2528538810139643, -0.8822333994582606, 0.10669990094749743], "biases": [-1.0614791703332043, -1.2235315863469167, -0.9543088974597976, -0.9608786207679899, -0.9134386415431135, -1.0898641917668874, -0.9005512298121415, -0.9740471418227358, -0.9665444242805105, -0.9692159156926502, -1.030664478377281, -0.9787752268454312, -0.7286403350893178, -0.8658893175297748, -1.2893717660503667, -1.0144389569134227, -0.9799039076233906, -1.0199998602983522, -0.940644365962551, -0.8994890475241327, -0.9327984012531457]}