{"generation": 7994, "inputs": ["cart.x", "cart.vel", "bob.x", "bob.y", "bob.vel"], "outputs": ["acceleration"], "layers": [5, 10, 10, 1], "hidden_activation": "tanh", "output_activation": "tanh", "ticks": 1754940000, "time": 54444.88079023361, "weights": [0.3349726415724554, 0.19714828350555838, -0.3340813993299863, -0.2115854614758042, -0.6774196118403466, 0.1958262797291296, -0.609877891432818, 0.3463688814185278, -0.46574945699440146, -0.03475503183694156, 0.7425376677792724, -0.8989953606041494, -0.710217559943191, -0.6183726984129223, 0.14115625375648128, -0.8611337319513359, -0.3885163370054223, 0.6671834835465111, 0.8012432780070199, -0.7236611712604467, -1.1028914235696798, 0.5791428822259563, -0.41771934162874774, -0.9107313723442179, 1.0575620927937965, 0.5075965583199434, 0.9282353714552758, 2.480579699642103, -1.4223496003291387, 0.05113397482926551, -0.7058026188441527, 0.8404419912802595, -0.9535488890862864, -0.13915364142038703, 0.4784955577652078, -0.5052914340810509, -0.0018751602695247817, -0.1840443466759913, -0.8413510477542023, 0.9569053963688533, -0.19280595226066413, -1.2266095366398202, 0.5528124745261841, -0.19006393423326842, 0.6821143805697147, 0.6360194872434158, 0.5877825443427299, -0.6269263424831408, -0.19633386057856664, 0.5098508309315527, 0.9961358692636034, 0.9197885627534064, 0.372529812302518, 0.22563155038653843, 0.11323243616106003, 0.900552374370034, -0.3393343873399625, 0.8541383615145653, 0.8221108542075487, 0.9310943199964616, -0.04637511571379536, -0.36217666781221347, -0.11654476582518983, -0.34418316318984843, -0.45885235094741356, 0.8438704743093582, 0.253583467620115, -1.015425800005931, 0.8570673289529808, -0.16690517793012358, -0.33422360690833225, 0.9742805363482737, -0.8232851242269844, 1.2880965186968036, 0.03922771532182066, 0.12259618159644689, -0.39488567221628046, -0.6211174118690135, 0.679246554127626, -0.6609707040010754, 0.22792279901532864, 0.9324669102152828, -0.8247261771956671, 0.7189907453333849, -0.2252175054580333, 0.10295456547948932, -0.8360716309583479, 0.4597239063216611, -0.304620437891105, 0.41945843637255553, -0.5384779101183111, 0.77356278589911, 0.10319892749564646, 0.3581804812493213, 0.8693988396220309, -0.7421101801763447, -0.22109663854589706, 0.6923103394182739, -0.6676039101698861, 0.3808586043024436, -0.6891704552434043, -0.8723523180313474, -0.9558002877972271, 0.7378543873638874, 1.0138814300197265, -0.023053483533694227, 0.2583358628472043, -0.8851013579702627, -0.5907567177656305, 0.023466082617067348, -0.8387948632490854, -0.8659134770226895, 0.9162615800048047, -0.6677621707894403, 0.6117831631042495, -0.35771335858170555, -0.3454965424784175, -0.4919434701584946, -0.6146884801214486, 0.022091324178878748, -0.36793549399943454, -0.9877688891795142, 0.7324244577715116, -0.7802485923337367, 0.5343382332801492, 0.7453169416199109, -0.8625509597118312, -0.19770314524197502, -0.5216556155353506, 0.5381359454709344, 0.2697647090354547, 0.38251107989022326, 1.4057167750472963, 0.30815494939319266, -0.45310611875344126, -0.7913930504560497, -0.14034651963930592, 1.1180989751469719, 0.7602448405931959, -0.27601629089394, 0.8243738224856957, -0.66181080960214, 0.7615143434537684, -0.006809604621303408, 0.49008732381528286, 0.9146308596523747, 0.5264308870771981, 0.5003710145635332, 0.5835077981541845, -1.0017643899329776, -0.9016035726702076, -0.6476751025916754, 0.301136523241502, -0.7375843939823725, -0.2744547748871115, 0.330011955105848, 0.1772704082169937, 0.2528538810139643, -0.8822333994582606, 0.10669990094749743], "biases": [-1.0592332819029544, -1.1693659471325557, -0.954288006168821, -0.9462950305555898, -0.9309269639642421, -1.1022905605048487, -0.8943408983428793, -0.9506979175714447, -0.9630874863382655, -0.9543841219126322, -1.0297381703298687, -0.97236992463177, -0.5635064744105697, -0.8383038934558231, -1.3014637304675147, -0.9925949797991415, -0.9946599085741761, -0.9038828962108009, -0.9434222774465717, -0.851358563110152, -0.9331722302122855]}