{"generation": 7254, "inputs": ["cart.x", "cart.vel", "bob.x", "bob.y", "bob.vel"], "outputs": ["acceleration"], "layers": [5, 10, 10, 1], "hidden_activation": "tanh", "output_activation": "tanh", "ticks": 1621740000, "time": 50417.64097428322, "weights": [0.3351625594090778, 0.15307463207539088, -0.34479428550433655, -0.21126729598692032, -0.6774196118403466, 0.15825297875468924, -0.609877891432818, 0.13944181944523937, -0.46574945699440146, -0.03850307158587689, 0.7425376677792724, -0.687931233855898, -0.710217559943191, -0.6179504386910302, 0.14051505321854707, -0.8682844739928588, -0.3885163370054223, 0.4923871440459027, 0.8012432780070199, -0.7236611712604467, -1.1028914235696798, 0.686781493950785, -0.41771934162874774, -0.8802231998832795, 1.034468748155311, 0.5075965583199434, 0.9282353714552758, 2.4954141064300437, -1.3812130886695217, 0.05113397482926551, -0.7058026188441527, 0.7508226396826276, -0.9535488890862864, -0.13915364142038703, 0.4784955577652078, -0.5052914340810509, -0.0018751602695247817, -0.1840443466759913, -0.844149309389333, 0.9569053963688533, -0.19280595226066413, -1.182975709303546, 0.5528124745261841, -0.19006393423326842, 0.6821143805697147, 0.6360194872434158, 0.5877825443427299, -0.7120150963730897, -0.19633386057856664, 0.5098508309315527, 0.9961358692636034, 0.9197885627534064, 0.35957257861349384, 0.22807090678992287, 0.10030678561551976, 0.8751489765976255, -0.33490063971591333, 0.8750186633645194, 0.8610880237441902, 0.9456293065803519, -0.04637511571379536, -0.36217666781221347, -0.038437520322881, -0.34418316318984843, -0.45885235094741356, 0.8430281335977055, 0.253583467620115, -0.9970436942203335, 0.8570673289529808, -0.16877306114820803, -0.3383003470483411, 1.0198043590843724, -0.8732407955842609, 1.2880965186968036, 0.03922771532182066, 0.12522299453523023, -0.3771574276477346, -0.5637883808406894, 0.679246554127626, -0.6603570361057778, 0.22792279901532864, 0.9324669102152828, -0.9017450029552374, 0.7189907453333849, -0.20815460798213445, 0.16515735346942684, -0.8360716309583479, 0.4597239063216611, -0.304620437891105, 0.38608930673192005, -0.5384779101183111, 0.77356278589911, 0.1101015833740823, 0.36370907584755935, 0.8419783579116092, -0.7398251912909647, -0.2171088299703584, 0.6923103394182739, -0.6676039101698861, 0.38861620827601456, -0.6891704552434043, -0.8723523180313474, -0.9105176997246567, 0.7378543873638874, 1.0138814300197265, -0.01955394368468208, 0.2583358628472043, -0.8983731940047965, -0.5907567177656305, -0.0063795197144488475, -0.8387142732125522, -0.8659134770226895, 0.8891035864078372, -0.6677621707894403, 0.6117831631042495, -0.3709159295263725, -0.3454965424784175, -0.5379832326830694, -0.6143512821860353, 0.016499232525958744, -0.37186353030656316, -0.9877688891795142, 0.7324244577715116, -0.7802485923337367, 0.5343382332801492, 0.7329652571883851, -0.8634129737437428, -0.2179765540136902, -0.5216556155353506, 0.4940733837626902, 0.2697647090354547, 0.3973375863815703, 1.479267990460779, 0.35519548688038616, -0.45310611875344126, -0.7219763676577885, -0.13820823444490601, 1.2033157467266498, 0.7602448405931959, -0.27601629089394, 0.8243738224856957, -0.66181080960214, 0.7442954947333933, -0.006809604621303408, 0.49008732381528286, 0.9572552970170892, 0.5264308870771981, 0.5003710145635332, 0.5844848842352921, -0.9799650311825632, -0.9016035726702076, -0.6476751025916754, 0.301136523241502, -0.7375843939823725, -0.2744547748871115, 0.330011955105848, 0.16715428625516596, 0.2528538810139643, -0.8822333994582606, 0.10669990094749743], "biases": [-1.0614791703332043, -1.1995443250316766, -0.9543088974597976, -0.9608786207679899, -0.9111524697500507, -1.099116249847384, -0.8927334541282336, -0.975239614517485, -0.9658546352519589, -0.948601590053623, -1.0301546245377573, -0.977838835184768, -0.6630640746027411, -0.8495741351589199, -1.2911555122668978, -1.0311376158829537, -0.9855284604362758, -0.9816768833280454, -0.940644365962551, -0.8982832867142847, -0.9327984012531457]}