{"generation": 7410, "inputs": ["cart.x", "cart.vel", "bob.x", "bob.y", "bob.vel"], "outputs": ["acceleration"], "layers": [5, 10, 10, 1], "hidden_activation": "tanh", "output_activation": "tanh", "ticks": 1649820000, "time": 51260.82452726364, "weights": [0.3351625594090778, 0.20581623911039787, -0.34479428550433655, -0.2115854614758042, -0.6774196118403466, 0.15825297875468924, -0.609877891432818, 0.13944181944523937, -0.46574945699440146, -0.03850307158587689, 0.7425376677792724, -0.6967693042127849, -0.710217559943191, -0.6179504386910302, 0.14051505321854707, -0.8682844739928588, -0.3885163370054223, 0.4923871440459027, 0.8012432780070199, -0.7236611712604467, -1.1028914235696798, 0.6241511143200982, -0.41771934162874774, -0.9107313723442179, 1.034468748155311, 0.5075965583199434, 0.9282353714552758, 2.504808263647521, -1.3812130886695217, 0.05113397482926551, -0.7058026188441527, 0.7868646565159164, -0.9535488890862864, -0.13915364142038703, 0.4784955577652078, -0.5052914340810509, -0.0018751602695247817, -0.1840443466759913, -0.844149309389333, 0.9569053963688533, -0.19280595226066413, -1.182975709303546, 0.5528124745261841, -0.19006393423326842, 0.6821143805697147, 0.6360194872434158, 0.5877825443427299, -0.6461962456650507, -0.19633386057856664, 0.5098508309315527, 0.9961358692636034, 0.9197885627534064, 0.3906285630679757, 0.22807090678992287, 0.10030678561551976, 0.900552374370034, -0.33490063971591333, 0.8513438108232433, 0.8610880237441902, 0.9456293065803519, -0.04637511571379536, -0.36217666781221347, -0.065582570272873, -0.34418316318984843, -0.45885235094741356, 0.8438704743093582, 0.253583467620115, -0.9970436942203335, 0.8570673289529808, -0.1666284759602571, -0.3383003470483411, 1.0198043590843724, -0.8745463599666808, 1.2880965186968036, 0.03922771532182066, 0.12522299453523023, -0.3771574276477346, -0.5453027533960392, 0.679246554127626, -0.6737858566337662, 0.22792279901532864, 0.9324669102152828, -0.9017450029552374, 0.7189907453333849, -0.20815460798213445, 0.16515735346942684, -0.8360716309583479, 0.4597239063216611, -0.304620437891105, 0.38608930673192005, -0.5384779101183111, 0.77356278589911, 0.1101015833740823, 0.36370907584755935, 0.8693988396220309, -0.7398251912909647, -0.2171088299703584, 0.6923103394182739, -0.6676039101698861, 0.3808586043024436, -0.6891704552434043, -0.8723523180313474, -0.9166064522826992, 0.7378543873638874, 1.0138814300197265, -0.01955394368468208, 0.2583358628472043, -0.8951213913349849, -0.5907567177656305, 0.029881515667240906, -0.8387948632490854, -0.8659134770226895, 0.8830315587931006, -0.6677621707894403, 0.6117831631042495, -0.3709159295263725, -0.3454965424784175, -0.5379832326830694, -0.6143512821860353, 0.03352343849082525, -0.37186353030656316, -0.9877688891795142, 0.7324244577715116, -0.7802485923337367, 0.5343382332801492, 0.7329652571883851, -0.8625509597118312, -0.2179765540136902, -0.5216556155353506, 0.4940733837626902, 0.2697647090354547, 0.3973375863815703, 1.4163280663702573, 0.35519548688038616, -0.45310611875344126, -0.7527306410441864, -0.13820823444490601, 1.199680472369123, 0.7602448405931959, -0.27601629089394, 0.8243738224856957, -0.66181080960214, 0.7448630908698881, -0.006809604621303408, 0.49008732381528286, 0.9572552970170892, 0.5264308870771981, 0.5003710145635332, 0.5844848842352921, -0.9799650311825632, -0.9016035726702076, -0.6476751025916754, 0.301136523241502, -0.7375843939823725, -0.2744547748871115, 0.330011955105848, 0.16715428625516596, 0.2528538810139643, -0.8822333994582606, 0.10669990094749743], "biases": [-1.0614791703332043, -1.1662186208871017, -0.9543088974597976, -0.9608786207679899, -0.9107361943602584, -1.099116249847384, -0.8925661064140575, -0.9767004057840931, -0.9658546352519589, -0.9658744176848725, -1.0301546245377573, -0.9779210812162438, -0.6122365724493628, -0.8495741351589199, -1.289106034913141, -1.0273091471505704, -0.9940662013448787, -0.9723369363909242, -0.940644365962551, -0.8900935237761625, -0.9327984012531457]}