{"generation": 7809, "inputs": ["cart.x", "cart.vel", "bob.x", "bob.y", "bob.vel"], "outputs": ["acceleration"], "layers": [5, 10, 10, 1], "hidden_activation": "tanh", "output_activation": "tanh", "ticks": 1721640000, "time": 53434.20160007477, "weights": [0.3349726415724554, 0.19714828350555838, -0.3340813993299863, -0.2115854614758042, -0.6774196118403466, 0.1958262797291296, -0.609877891432818, 0.3191753270650595, -0.46574945699440146, -0.03475503183694156, 0.7425376677792724, -0.8150475637367273, -0.710217559943191, -0.6183726984129223, 0.14051505321854707, -0.8611337319513359, -0.3885163370054223, 0.5632356569212418, 0.8012432780070199, -0.7236611712604467, -1.1028914235696798, 0.6073042532337181, -0.41771934162874774, -0.9107313723442179, 1.0575620927937965, 0.5075965583199434, 0.9282353714552758, 2.49497732818257, -1.4223496003291387, 0.05113397482926551, -0.7058026188441527, 0.8549225298688553, -0.9535488890862864, -0.13915364142038703, 0.4784955577652078, -0.5052914340810509, -0.0018751602695247817, -0.1840443466759913, -0.8413510477542023, 0.9569053963688533, -0.19280595226066413, -1.2219145807040224, 0.5528124745261841, -0.19006393423326842, 0.6821143805697147, 0.6360194872434158, 0.5877825443427299, -0.6269263424831408, -0.19633386057856664, 0.5098508309315527, 0.9961358692636034, 0.9197885627534064, 0.3375009358293237, 0.22563155038653843, 0.11323243616106003, 0.900552374370034, -0.33490063971591333, 0.8541383615145653, 0.8610880237441902, 0.9310943199964616, -0.04637511571379536, -0.36217666781221347, -0.08778628263198673, -0.34418316318984843, -0.45885235094741356, 0.8438704743093582, 0.253583467620115, -0.9970436942203335, 0.8570673289529808, -0.1666284759602571, -0.32341729564157795, 0.9742805363482737, -0.8283946829835286, 1.2880965186968036, 0.03922771532182066, 0.12259618159644689, -0.3819501665888348, -0.5650649317818222, 0.679246554127626, -0.7162893181198509, 0.22792279901532864, 0.9324669102152828, -0.809975960430086, 0.7189907453333849, -0.20815460798213445, 0.10295456547948932, -0.8360716309583479, 0.4597239063216611, -0.304620437891105, 0.4166235179206373, -0.5384779101183111, 0.77356278589911, 0.1346345630611561, 0.3581804812493213, 0.8693988396220309, -0.7398251912909647, -0.2191330412324075, 0.6923103394182739, -0.6676039101698861, 0.3808586043024436, -0.6891704552434043, -0.8723523180313474, -0.9537735088573053, 0.7378543873638874, 1.0138814300197265, -0.023053483533694227, 0.2583358628472043, -0.8851013579702627, -0.5907567177656305, 0.023466082617067348, -0.8387948632490854, -0.8659134770226895, 0.8975185067905382, -0.6677621707894403, 0.6117831631042495, -0.3572505341895855, -0.3454965424784175, -0.4919434701584946, -0.6146884801214486, 0.030118645979043034, -0.36793549399943454, -0.9877688891795142, 0.7324244577715116, -0.7802485923337367, 0.5343382332801492, 0.7329652571883851, -0.8625509597118312, -0.19770314524197502, -0.5216556155353506, 0.5381359454709344, 0.2697647090354547, 0.38251107989022326, 1.4057167750472963, 0.30815494939319266, -0.45310611875344126, -0.7913930504560497, -0.14034651963930592, 1.1196599794293274, 0.7602448405931959, -0.27601629089394, 0.8243738224856957, -0.66181080960214, 0.7615143434537684, -0.006809604621303408, 0.49008732381528286, 0.9389037024438107, 0.5264308870771981, 0.5003710145635332, 0.5835077981541845, -1.0017643899329776, -0.9016035726702076, -0.6476751025916754, 0.301136523241502, -0.7375843939823725, -0.2744547748871115, 0.330011955105848, 0.1772704082169937, 0.2528538810139643, -0.8822333994582606, 0.10669990094749743], "biases": [-1.0592332819029544, -1.2072844627540649, -0.9542428914327811, -0.9464038083200402, -0.9160418793906688, -1.0992327121032999, -0.8944219603122793, -0.9520021383583703, -0.9637962712528014, -0.969271994044241, -1.0297381703298687, -0.97236992463177, -0.5877912951052094, -0.8383038934558231, -1.2944283531585405, -1.0296800641061081, -0.9946599085741761, -0.9184203178704473, -0.9434125001262795, -0.8503893046779888, -0.9329310470546668]}