{"generation": 756, "inputs": ["cart.x", "cart.vel", "bob.x", "bob.y", "bob.vel"], "outputs": ["acceleration"], "layers": [5, 10, 10, 1], "hidden_activation": "tanh", "output_activation": "tanh", "ticks": 45420000, "time": 4530.176846265793, "weights": [0.2789971792850041, 0.32890994142943075, -0.5224322566380336, -0.15855825990443484, -0.8689911836779208, 0.5339524638695233, -0.7703508461631648, 0.5037660349068048, -0.5565614964151435, 0.027009246366036244, 0.7477612696717666, -0.6973101119318437, -0.6451690634208426, 0.11580559398486018, 0.17619642694005622, -0.8555141756128651, -0.39131815387538077, -0.8615303293777854, 0.8351772117062759, -0.7165347846665883, -0.9277465496846391, 0.5518089055057649, -0.21147292870423653, 0.2823374683932826, 0.9329931749327307, 0.38986994653265217, 0.908838794238114, 0.5749965941290324, -1.0374710322819571, 0.007054276481511844, -0.700134265128086, 0.6398696374367174, -0.9234165073155826, -0.15242132054629406, 0.6645986416104462, -0.5152411596401694, -0.012368719791778962, -0.11384127653691549, -0.8470319602214614, 0.9573968804795827, -0.18820380198962874, -0.8127537661788085, 0.5541108324620465, -0.8009443041877278, 0.6711354377833052, 0.638743129965602, 0.5888237828350129, -0.5108351407463736, -0.1943831037204761, 0.5153346525876978, 1.0175463849349389, 0.9218416159289927, 0.4456984398226191, 0.36090086043927494, 0.2688399363409985, 0.8103347182161912, -0.3988001437295495, 0.8380185058808098, 0.928552272495167, 0.8050518914055015, -0.04880448547077842, -0.3463056639231887, 0.09389573799843826, -0.2610183928036072, -0.5091693752907038, 0.7079397426255931, 0.2491919624457284, -0.8682710990676387, 0.8598093580555481, -0.1349060725573772, -0.665891473171777, 0.5269995317655795, -0.3531462007792219, 0.640227785115075, -0.04853297597461248, 0.15661356854708494, 0.03212422422795592, -0.06497900109134092, 0.16359947192809624, 0.3127247893125886, 0.21566045051398364, 0.908662678957088, -0.5920535453777227, 0.8927351847244375, -0.2852043993454257, 0.14052279964371506, -0.7715316901777749, 0.5737522262215694, -0.28598371182342897, 0.49638827856430184, -0.5249759785612041, 0.8065408492478674, 0.08641295835509626, 0.45491005975261845, 0.9771500463175696, -0.7709227410250241, -0.22975757079917045, 0.6809181332842282, -0.6700155995702394, 0.3039702773810964, -0.7592820010356071, -0.9543971381985888, -0.5768571865400737, 0.8215199276687108, 0.8430551065492142, 0.0025446303929343994, 0.3406154633815677, -0.7265981905981579, -0.6225000252430979, 0.05913928754543723, -0.838005754250142, -0.8654098293518895, 0.8255743973005597, -0.5032691111489255, 0.37869719553509684, -0.37283518953552486, -0.32631097052320923, -0.4749511285049737, -0.5798456125701433, 0.020437521366683583, -0.38501063399901897, -0.9628791238272701, 0.8048256114414306, -0.7607584112494455, 0.474599682236706, 0.659981453555668, -0.8691550776260446, -0.2664069879956969, -0.5407445620373308, 0.4776808957000551, 0.18579757521666676, 0.5790850083062431, 0.8084194617725577, 0.45606086742138346, -0.2743006251302096, -0.7912876009466756, -0.13012515285291038, 0.8864267786557198, 0.9177786269998071, -0.40691610154854196, 0.8386123684571106, -0.6102163694838324, 0.7710181031842887, 0.07939495213109658, 0.5864460768851731, 0.8493678774667413, 0.5106449906396306, 0.641540140111369, 0.5556699053551676, -0.970833949169791, -1.0194331209356593, -0.6888460049054012, 0.30506695430175973, -0.698970426698128, -0.2765449345666618, 0.3743472898585924, 0.20393444025909785, 0.2624947352678026, -0.9027724362400291, 0.1611071983610858], "biases": [-1.026097737934757, -0.996451509845882, -0.9992036005042528, -1.0203188394843867, -0.9965721343059567, -1.025188539073678, -0.9038852728860164, -0.9991868901454032, -1.02208741214262, -1.0130387343156622, -1.018396409014295, -1.011125461923866, -0.9989899501276338, -1.0016722345004472, -1.0137740267517512, -1.0005926618169276, -1.0054147677475958, -0.9944895850451647, -1.010054527656149, -1.0060785363384317, -0.9561530665743142]}