{"generation": 706, "inputs": ["cart.x", "cart.vel", "bob.x", "bob.y", "bob.vel"], "outputs": ["acceleration"], "layers": [5, 10, 10, 1], "hidden_activation": "tanh", "output_activation": "tanh", "ticks": 42420000, "time": 4404.994318723679, "weights": [0.2735292012738423, 0.32890994142943075, -0.5224322566380336, -0.15855825990443484, -0.8689911836779208, 0.5462410223487199, -0.7635664533050378, 0.5059187312985682, -0.5586801776629567, 0.025405627341591363, 0.7477612696717666, -0.6973101119318437, -0.6451690634208426, 0.11580559398486018, 0.17619642694005622, -0.8555141756128651, -0.39131815387538077, -0.8615303293777854, 0.8351772117062759, -0.7165347846665883, -0.9225905453668054, 0.5518089055057649, -0.21147292870423653, 0.2823374683932826, 0.9329931749327307, 0.38986994653265217, 0.908838794238114, 0.5704080526230773, -1.0254756404239418, 0.007054276481511844, -0.700134265128086, 0.6398696374367174, -0.9234165073155826, -0.15242132054629406, 0.6645986416104462, -0.5152411596401694, -0.01900166728523359, -0.11384127653691549, -0.8506918834228221, 0.9573968804795827, -0.18820380198962874, -0.8127537661788085, 0.5541108324620465, -0.8009443041877278, 0.6711354377833052, 0.638743129965602, 0.5888237828350129, -0.5108351407463736, -0.19020549268133324, 0.5174260080201222, 1.0175463849349389, 0.9218416159289927, 0.4456984398226191, 0.36090086043927494, 0.2688399363409985, 0.8103347182161912, -0.3988001437295495, 0.8380185058808098, 0.9195411591701079, 0.8050518914055015, -0.04880448547077842, -0.3463056639231887, 0.09389573799843826, -0.2610183928036072, -0.5091693752907038, 0.7079397426255931, 0.2491919624457284, -0.8650904242837938, 0.8598093580555481, -0.1349060725573772, -0.6689747113587154, 0.5269995317655795, -0.3531462007792219, 0.640227785115075, -0.04853297597461248, 0.15661356854708494, 0.03212422422795592, -0.06497900109134092, 0.16359947192809624, 0.3127247893125886, 0.21566045051398364, 0.908662678957088, -0.5920535453777227, 0.8927351847244375, -0.2852043993454257, 0.14052279964371506, -0.7715316901777749, 0.5737522262215694, -0.28598371182342897, 0.49638827856430184, -0.5208434209693239, 0.8065408492478674, 0.08641295835509626, 0.45491005975261845, 0.979485307923958, -0.7709227410250241, -0.22975757079917045, 0.6809181332842282, -0.6700155995702394, 0.2999260115885747, -0.7643393062194185, -0.9543971381985888, -0.5768571865400737, 0.8215199276687108, 0.8430551065492142, 0.0025446303929343994, 0.3406154633815677, -0.7218644678772581, -0.6225000252430979, 0.05913928754543723, -0.838005754250142, -0.8621724120455407, 0.8255743973005597, -0.5032691111489255, 0.37869719553509684, -0.37283518953552486, -0.32631097052320923, -0.4749511285049737, -0.5798456125701433, 0.020437521366683583, -0.38842651539546735, -0.9628791238272701, 0.8048256114414306, -0.7607584112494455, 0.474599682236706, 0.659981453555668, -0.8691550776260446, -0.2664069879956969, -0.5407445620373308, 0.4776808957000551, 0.18924940682322317, 0.5790850083062431, 0.8084194617725577, 0.45606086742138346, -0.2743006251302096, -0.795040108185644, -0.13012515285291038, 0.8864267786557198, 0.9224742091963554, -0.40691610154854196, 0.8386123684571106, -0.6102163694838324, 0.7710181031842887, 0.07939495213109658, 0.5864460768851731, 0.8493678774667413, 0.5106449906396306, 0.641540140111369, 0.5556699053551676, -0.970833949169791, -1.01614491832318, -0.6978265437699067, 0.30769541762331076, -0.6978030503674273, -0.2765449345666618, 0.3724577683847835, 0.2086537447614648, 0.2624947352678026, -0.9027724362400291, 0.16104109694521063], "biases": [-1.0255497398580218, -1.0005934560273833, -0.9992036005042528, -1.0129394402651002, -0.9965721343059567, -1.0216181251832972, -0.9098440811677175, -0.9977085566654841, -1.0231398384521686, -1.0122474541558937, -1.0183327696273692, -1.0115354116210666, -0.9989899501276338, -1.0000488723019219, -1.0136673611443745, -1.0017766065417586, -1.0054147677475958, -0.9969169337111852, -1.015392560931618, -1.0056231319267313, -0.9599331761141293]}