{"generation": 80, "inputs": ["cart.x", "cart.vel", "bob.x", "bob.y", "bob.vel"], "outputs": ["acceleration"], "layers": [5, 10, 10, 1], "hidden_activation": "tanh", "output_activation": "tanh", "ticks": 4860000, "time": 397.09510612487793, "weights": [0.09246458569640376, 0.32890994142943075, -0.5227660927868953, -0.18705346518004706, -0.8660724801458621, 0.6774855404305378, -0.7288467356927928, 0.6004854957370758, -0.6639436964457899, 0.021195444442836386, 0.753315611071828, -0.6973101119318437, -0.6455102572741482, 0.12529624612327894, 0.17619642694005622, -0.8591790981111382, -0.3859030130689202, -0.8615303293777854, 0.8519396697943846, -0.717615273126041, -0.7945212544428659, 0.5518089055057649, -0.21050819052983516, 0.28672970593121083, 0.9329931749327307, 0.2955742872113567, 0.9056736398205438, 0.5405776342442203, -0.9135362420759765, 0.0180448672236746, -0.7045256906716755, 0.6415019373399331, -0.9175809805426419, -0.18380276282848204, 0.6690120888152935, -0.5312582349895507, -0.0195694785648133, -0.11601404688123733, -0.858072025110794, 0.9528936360997451, -0.1895516806678486, -0.8127537661788085, 0.5619213634602103, -0.8009443041877278, 0.6711354377833052, 0.6303491777951795, 0.5820192359446996, -0.4975791585343565, -0.19572592241156583, 0.5223671939647125, 0.9808517164136239, 0.8959717287063078, 0.4485587462677316, 0.3587681749179752, 0.2688399363409985, 0.8115402046130771, -0.3887461792092033, 0.8380185058808098, 0.9003751741956325, 0.8044811149250082, -0.05679670020706329, -0.3552492577873425, 0.09087558107179694, -0.25642421707337193, -0.5091693752907038, 0.7079397426255931, 0.2491919624457284, -0.8650904242837938, 0.8572639725375837, -0.1349060725573772, -0.6689747113587154, 0.5228263122817649, -0.3531462007792219, 0.6390344886240822, -0.04853297597461248, 0.15722383013028263, 0.03402765580922096, -0.06497900109134092, 0.1593547806069593, 0.3127247893125886, 0.21566045051398364, 0.908662678957088, -0.5936605862573785, 0.8985724484329527, -0.2766943504290522, 0.14052279964371506, -0.7749712378236873, 0.5770782614986469, -0.28255155473655447, 0.4970339895685838, -0.5160341253806912, 0.8034507398803953, 0.08641295835509626, 0.4514258619064031, 0.979485307923958, -0.7709227410250241, -0.23076185569237806, 0.6809181332842282, -0.6672467831914535, 0.2999260115885747, -0.8424498821286377, -0.9694085072766594, -0.5796057528242864, 0.8190875508320743, 0.8430551065492142, 0.0025446303929343994, 0.3416004482920698, -0.7218644678772581, -0.7107661962025397, 0.06405308784952601, -0.8315339342959255, -0.8496720351493912, 0.8253496380748799, -0.49946566383126734, 0.37869719553509684, -0.3770707493335514, -0.3297139945121861, -0.4749511285049737, -0.576606777114222, 0.020945098313334354, -0.39560475480504476, -0.9630907367215409, 0.8048256114414306, -0.7610302462673757, 0.47910397672654437, 0.6593816418515247, -0.8691550776260446, -0.2634004031779609, -0.5424114607214023, 0.4748195095527683, 0.20559501748839182, 0.5790850083062431, 0.8084194617725577, 0.4566143343013944, -0.2743006251302096, -0.795040108185644, -0.13012515285291038, 0.8883820851928235, 0.927202450669496, -0.4147296652993913, 0.8295738488449622, -0.6174053676992888, 0.7719970588919112, 0.07634880726098414, 0.5864460768851731, 0.8485296787945951, 0.5106449906396306, 0.641540140111369, 0.5588530181714113, -0.970833949169791, -0.9719473112828234, -0.7281821877003107, 0.32769035692492543, -0.6885396101865875, -0.2596733656948824, 0.3813590971073899, 0.26038169660875454, 0.26926686904592323, -0.8993226013261468, 0.16995282590882965], "biases": [-1.0041330176419463, -1.0018222125291123, -1.001389956299998, -0.9995357304487709, -1.0025655678275913, -0.998990132823174, -0.9988815486001972, -0.9987065186756154, -1.0075195461348834, -1.0035508021010104, -1.000241196918791, -0.9997034216122015, -1.0005692205745902, -1.0002503108077683, -1.0014508935513897, -0.9983159584063664, -0.9989292949496488, -0.9993810497975106, -1.0000456520188998, -1.0021204972554207, -0.9946605175381109]}