{"generation": 8434, "inputs": ["cart.x", "cart.vel", "bob.x", "bob.y", "bob.vel"], "outputs": ["acceleration"], "layers": [5, 10, 10, 1], "hidden_activation": "tanh", "output_activation": "tanh", "ticks": 1834140000, "time": 56498.63035035133, "weights": [0.3349726415724554, 0.15606860401653228, -0.3337905333181651, -0.2115854614758042, -0.640983915129734, 0.198463320224192, -0.609877891432818, 0.2970538762668796, -0.46536900372546347, -0.03475503183694156, 0.7425376677792724, -0.9220616834524056, -0.710217559943191, -0.6183726984129223, 0.14115625375648128, -0.8611337319513359, -0.3946774106775492, 0.7596710165157399, 0.8012432780070199, -0.7236611712604467, -1.0581416491528794, 0.518322209463011, -0.41771934162874774, -0.9107313723442179, 1.0575620927937965, 0.5075965583199434, 0.9282353714552758, 2.405079436050646, -1.4223496003291387, 0.05113397482926551, -0.7058026188441527, 0.8405467601861114, -0.9535488890862864, -0.13915364142038703, 0.4784955577652078, -0.5052914340810509, -0.0018751602695247817, -0.1840443466759913, -0.8413510477542023, 0.9569053963688533, -0.19280595226066413, -1.2292010910166187, 0.5528124745261841, -0.19006393423326842, 0.6821143805697147, 0.6360194872434158, 0.5877825443427299, -0.660696367227227, -0.19633386057856664, 0.5098508309315527, 0.9961358692636034, 0.9197885627534064, 0.35767689970722527, 0.22563155038653843, 0.091794536821408, 0.900552374370034, -0.33767846120590195, 0.853269576271451, 0.8221108542075487, 0.9388201591632143, -0.04637511571379536, -0.36217666781221347, -0.11402526248411607, -0.34418316318984843, -0.45885235094741356, 0.8438704743093582, 0.253583467620115, -1.015425800005931, 0.8570673289529808, -0.16690517793012358, -0.2864400907892599, 0.9115865735959731, -0.8815673366945792, 1.2880965186968036, 0.03922771532182066, 0.12259618159644689, -0.39488567221628046, -0.5915637155300759, 0.641772408441758, -0.597914450525922, 0.22792279901532864, 0.9324669102152828, -0.8247261771956671, 0.7189907453333849, -0.2252175054580333, 0.09149599695961257, -0.8374472096434344, 0.4597239063216611, -0.304620437891105, 0.4055939247589212, -0.5384779101183111, 0.77356278589911, 0.10319892749564646, 0.3581804812493213, 0.8780410986594882, -0.7200120569089459, -0.2024931919328547, 0.7109398414695294, -0.6676039101698861, 0.37477497167389867, -0.6891704552434043, -0.8723523180313474, -0.9558002877972271, 0.7389130006096857, 1.0138814300197265, -0.023053483533694227, 0.2583358628472043, -0.8673880640839022, -0.5878782431513109, 0.0370341998462324, -0.8387948632490854, -0.8659134770226895, 0.895211856270866, -0.6677621707894403, 0.6108661859382576, -0.40386423605995364, -0.3454965424784175, -0.4911266822596654, -0.6146884801214486, 0.022091324178878748, -0.36793549399943454, -0.9877688891795142, 0.7600969160480902, -0.7802485923337367, 0.5343382332801492, 0.7453169416199109, -0.8625509597118312, -0.2253237297803757, -0.5216556155353506, 0.5381359454709344, 0.2374034116939444, 0.38251107989022326, 1.4358948114073986, 0.30815494939319266, -0.45310611875344126, -0.7913930504560497, -0.12733299126399672, 1.119958060045881, 0.7602448405931959, -0.27601629089394, 0.8356250388538549, -0.66181080960214, 0.811165224273515, -0.006809604621303408, 0.49008732381528286, 0.9073907118164182, 0.5264308870771981, 0.5003710145635332, 0.5835077981541845, -1.0017643899329776, -0.9016035726702076, -0.6476751025916754, 0.301136523241502, -0.7375843939823725, -0.2744547748871115, 0.330011955105848, 0.1772704082169937, 0.2528538810139643, -0.8822333994582606, 0.10669990094749743], "biases": [-1.0592332819029544, -1.1466512873110375, -0.954288006168821, -0.9450935268731473, -0.9217998932893628, -1.1022905605048487, -0.8945724146125201, -0.9484868847549459, -0.9630874863382655, -0.9497015893808349, -1.0297381703298687, -0.9712368043950501, -0.538893559206191, -0.8390915585365458, -1.306019065991339, -1.023090916324683, -1.0007518661042945, -0.9049646120292548, -0.943467755961977, -0.8485315319878363, -0.9331722302122855]}