{"generation": 8908, "inputs": ["cart.x", "cart.vel", "bob.x", "bob.y", "bob.vel"], "outputs": ["acceleration"], "layers": [5, 10, 10, 1], "hidden_activation": "tanh", "output_activation": "tanh", "ticks": 1919460000, "time": 58988.41939210892, "weights": [0.3349726415724554, 0.13735424658031387, -0.3337905333181651, -0.21529100878244659, -0.6513218445901215, 0.19797935704519676, -0.609877891432818, 0.2890276869872849, -0.47211640601823524, -0.03475503183694156, 0.7498472341619892, -1.0169442956797041, -0.710217559943191, -0.6559783088315642, 0.14115625375648128, -0.8611337319513359, -0.3946774106775492, 0.7585743717264531, 0.8012432780070199, -0.7236611712604467, -1.0268210829201623, 0.48904869633432585, -0.4169743842784186, -0.9107313723442179, 1.0575620927937965, 0.5075965583199434, 0.9282353714552758, 2.2794281690817373, -1.4223496003291387, 0.05113397482926551, -0.7058026188441527, 0.8688688571954652, -0.9535488890862864, -0.13915364142038703, 0.4784955577652078, -0.5052914340810509, -0.0018751602695247817, -0.1840443466759913, -0.8413510477542023, 0.9532493205133248, -0.1998492038351773, -1.2409869758571468, 0.5528124745261841, -0.19006393423326842, 0.6821143805697147, 0.6360194872434158, 0.5877825443427299, -0.6239195635995582, -0.19601350077250973, 0.5098508309315527, 0.9961358692636034, 0.9220463504876775, 0.3620558998801921, 0.22563155038653843, 0.091794536821408, 0.9737170090955961, -0.33767846120590195, 0.8529795282825361, 0.8221108542075487, 0.9453548134846342, -0.04637511571379536, -0.36217666781221347, -0.10809547399341585, -0.34418316318984843, -0.45885235094741356, 0.8375436611168326, 0.25183618247431333, -1.015425800005931, 0.8570673289529808, -0.16521390204849978, -0.2864400907892599, 0.9277830645356998, -0.9174205337254502, 1.2880965186968036, 0.03922771532182066, 0.1385023718253503, -0.39410660140448783, -0.5724666825719937, 0.6320063849345608, -0.6467874984265864, 0.22792279901532864, 0.9324669102152828, -0.827424549964928, 0.6953697413871819, -0.2252175054580333, 0.11053787934318061, -0.8429647261706011, 0.4616626372111112, -0.304620437891105, 0.39992977238557603, -0.5384779101183111, 0.77356278589911, 0.10777465202872939, 0.3581804812493213, 0.8681382687091126, -0.68491808056922, -0.20007266069338941, 0.7109398414695294, -0.6676039101698861, 0.37477497167389867, -0.6891704552434043, -0.8743976995045076, -0.9655718613760873, 0.7389130006096857, 1.0134244720050702, 0.0021825761519765063, 0.2583358628472043, -0.8673880640839022, -0.5878782431513109, 0.0370341998462324, -0.8387948632490854, -0.8659134770226895, 0.895211856270866, -0.6677621707894403, 0.6205193708247423, -0.3641854483844827, -0.3454965424784175, -0.48856743598480923, -0.6146884801214486, 0.030472415390548936, -0.36793549399943454, -0.9877688891795142, 0.7530135872964405, -0.7802485923337367, 0.5343382332801492, 0.722447203105585, -0.8625509597118312, -0.2253237297803757, -0.5213053863406016, 0.5067249059108341, 0.2374034116939444, 0.38251107989022326, 1.4414219020092267, 0.30815494939319266, -0.45310611875344126, -0.7721768884335055, -0.11332351668285554, 1.100446296938702, 0.7602448405931959, -0.2709570272360455, 0.8356250388538549, -0.66181080960214, 0.8196295551036542, -0.006809604621303408, 0.49008732381528286, 0.9292890707640469, 0.5264308870771981, 0.5003710145635332, 0.5835077981541845, -1.0017643899329776, -0.9016035726702076, -0.6476751025916754, 0.301136523241502, -0.7375843939823725, -0.2744547748871115, 0.330011955105848, 0.1772704082169937, 0.252749838100239, -0.8822333994582606, 0.10669990094749743], "biases": [-1.0592332819029544, -1.118835501479914, -0.953944748463307, -0.9450935268731473, -0.9399825947716812, -1.1012505497354361, -0.8945724146125201, -0.9464261563646493, -0.9630874863382655, -0.9450833126615148, -1.027166360488743, -0.970082528716913, -0.4859833609565676, -0.8375059599407779, -1.284746744199584, -0.9929528458245228, -0.9949649261052257, -0.9111162693810434, -0.9556837904767562, -0.8382159927636842, -0.9328421108998202]}