{"generation": 847, "inputs": ["cart.x", "cart.vel", "bob.x", "bob.y", "bob.vel"], "outputs": ["acceleration"], "layers": [5, 10, 10, 1], "hidden_activation": "tanh", "output_activation": "tanh", "ticks": 50880000, "time": 4766.175048351288, "weights": [0.3161022258220011, 0.32890994142943075, -0.5193753725192458, -0.15426855180179416, -0.8689911836779208, 0.5213689171249306, -0.7746098116119652, 0.48776284681621324, -0.5413188168738478, 0.027009246366036244, 0.7477612696717666, -0.6973101119318437, -0.6461782299108428, 0.11580559398486018, 0.17619642694005622, -0.8555141756128651, -0.39131815387538077, -0.8615303293777854, 0.830619732352374, -0.7165347846665883, -0.9277465496846391, 0.5518089055057649, -0.21147292870423653, 0.2823374683932826, 0.9340974850682584, 0.3877343008879199, 0.9049460986459372, 0.5773885631254022, -1.0508101922239577, 0.007054276481511844, -0.7029738738983062, 0.6390305841431849, -0.9234165073155826, -0.14866687406488832, 0.6631212491546403, -0.5152411596401694, -0.015248686919186594, -0.11384127653691549, -0.8470319602214614, 0.9573968804795827, -0.19280595226066413, -0.8127537661788085, 0.5541108324620465, -0.8009443041877278, 0.6711354377833052, 0.638743129965602, 0.5888237828350129, -0.5108351407463736, -0.199238401230888, 0.5153346525876978, 1.0305361944030105, 0.9327411951774163, 0.4456984398226191, 0.36090086043927494, 0.2688399363409985, 0.8103347182161912, -0.4016710366315201, 0.8380185058808098, 0.928552272495167, 0.8059414030090234, -0.04880448547077842, -0.3463056639231887, 0.09389573799843826, -0.26416066275865796, -0.5091693752907038, 0.7079397426255931, 0.2491919624457284, -0.8682710990676387, 0.8598093580555481, -0.1349060725573772, -0.665891473171777, 0.5269995317655795, -0.3531462007792219, 0.640227785115075, -0.04853297597461248, 0.15661356854708494, 0.03212422422795592, -0.06497900109134092, 0.16359947192809624, 0.3127247893125886, 0.21566045051398364, 0.908662678957088, -0.5920535453777227, 0.8927351847244375, -0.2852043993454257, 0.13626565033497087, -0.7715316901777749, 0.5689364210006993, -0.28598371182342897, 0.495122821449131, -0.5249759785612041, 0.8065408492478674, 0.08641295835509626, 0.45491005975261845, 0.9771500463175696, -0.7709227410250241, -0.22975757079917045, 0.6762536783130905, -0.6700155995702394, 0.3039702773810964, -0.7546505010732454, -0.9421950705777202, -0.5768571865400737, 0.8215199276687108, 0.8430551065492142, 0.0025446303929343994, 0.33615671322710533, -0.7265981905981579, -0.6225000252430979, 0.05913928754543723, -0.838005754250142, -0.8654098293518895, 0.8255743973005597, -0.501141156342005, 0.37869719553509684, -0.37283518953552486, -0.3220931442029011, -0.4749511285049737, -0.5873299232770807, 0.020437521366683583, -0.38501063399901897, -0.9615011827507368, 0.8048256114414306, -0.7607584112494455, 0.47488590897007826, 0.659981453555668, -0.8691550776260446, -0.2664069879956969, -0.5407445620373308, 0.4776808957000551, 0.18302787069124024, 0.5785954372697392, 0.8084194617725577, 0.45271142295969613, -0.2743006251302096, -0.7912876009466756, -0.13012515285291038, 0.8864267786557198, 0.9140006570326181, -0.40691610154854196, 0.8386123684571106, -0.6102163694838324, 0.7745939095158881, 0.07939495213109658, 0.5864460768851731, 0.8493678774667413, 0.5106449906396306, 0.641540140111369, 0.5503238823962951, -0.970833949169791, -1.0221290273842079, -0.6888460049054012, 0.30506695430175973, -0.698970426698128, -0.2677798511225231, 0.37381506582959645, 0.200241402408566, 0.2624947352678026, -0.9027724362400291, 0.1611071983610858], "biases": [-1.0257896932293884, -0.9935930090788456, -0.9966137489977245, -1.0235489575264485, -1.0009190493241067, -1.0328211211478162, -0.8921720099058443, -0.9986540302452493, -1.0229773958562627, -1.0148283442294945, -1.0191766410988992, -1.0107234325552024, -0.998407667522025, -1.005768004841665, -1.0117210268130195, -0.9989416672974566, -1.0060250701655158, -0.99239764487041, -1.0086499613923707, -1.0060785363384317, -0.9494205303435356]}