{"generation": 9382, "inputs": ["cart.x", "cart.vel", "bob.x", "bob.y", "bob.vel"], "outputs": ["acceleration"], "layers": [5, 10, 10, 1], "hidden_activation": "tanh", "output_activation": "tanh", "ticks": 2004780000, "time": 60569.87659931183, "weights": [0.33949051435340905, 0.20401286492857862, -0.3337905333181651, -0.21529100878244659, -0.6295829331190441, 0.19797935704519676, -0.5657126585098438, 0.276145790240056, -0.450144873424642, -0.03475503183694156, 0.7498472341619892, -0.9465336632746487, -0.710217559943191, -0.6559783088315642, 0.16061109255516337, -0.8611337319513359, -0.3946774106775492, 0.7955467511973972, 0.8012432780070199, -0.7236611712604467, -1.0268210829201623, 0.459778190072072, -0.4169743842784186, -0.9253608765161934, 1.0693341085688775, 0.5075965583199434, 0.9282353714552758, 2.3544238415085164, -1.4223496003291387, 0.05113397482926551, -0.7058026188441527, 0.819654550839485, -0.9535488890862864, -0.13915364142038703, 0.4784955577652078, -0.5052914340810509, -0.0018751602695247817, -0.1840443466759913, -0.8413510477542023, 0.9532493205133248, -0.1998492038351773, -1.333062272681983, 0.5528124745261841, -0.19168582259512973, 0.6821143805697147, 0.6360194872434158, 0.5877825443427299, -0.6298201945968142, -0.19709745301733858, 0.5098508309315527, 0.9961358692636034, 0.9220463504876775, 0.37286293922661984, 0.22563155038653843, 0.07925501719643087, 0.9568881410367402, -0.3449689392050597, 0.8516434983271614, 0.8221108542075487, 0.9533615474920341, -0.04637511571379536, -0.36217666781221347, -0.11384032991485071, -0.34418316318984843, -0.4587390698938416, 0.8375436611168326, 0.24909988246473785, -1.015425800005931, 0.8570673289529808, -0.1664807940872613, -0.2610429625764134, 0.9536915590360973, -0.9444355449236124, 1.2880965186968036, 0.04806627485295602, 0.1515864157432781, -0.39410660140448783, -0.5947639186296066, 0.6348640595591254, -0.6334813671336715, 0.22792279901532864, 0.9437209638173295, -0.827424549964928, 0.6953697413871819, -0.22701202977571133, 0.08998395174615184, -0.8429647261706011, 0.4645032583076323, -0.304620437891105, 0.39992977238557603, -0.5384779101183111, 0.77356278589911, 0.10777465202872939, 0.3581804812493213, 0.8681382687091126, -0.6986372064457229, -0.20007266069338941, 0.7109398414695294, -0.6676039101698861, 0.37477497167389867, -0.6891704552434043, -0.8743976995045076, -0.9682011827635479, 0.7389130006096857, 1.0250495250146796, 0.004836919612686626, 0.2583358628472043, -0.884796928471058, -0.5878782431513109, 0.038558549178845915, -0.8387948632490854, -0.8659134770226895, 0.9113590625721901, -0.6677621707894403, 0.6102175807734764, -0.3641854483844827, -0.3454965424784175, -0.48856743598480923, -0.6146884801214486, 0.030472415390548936, -0.36793549399943454, -0.9877688891795142, 0.7530135872964405, -0.7802485923337367, 0.5481663044718962, 0.722447203105585, -0.8625509597118312, -0.2253237297803757, -0.5213053863406016, 0.5067249059108341, 0.2374034116939444, 0.38251107989022326, 1.4383976534499316, 0.30815494939319266, -0.44762551065821604, -0.7900612949269897, -0.11332351668285554, 1.1588146112691666, 0.7602448405931959, -0.26564137643256186, 0.8356250388538549, -0.66181080960214, 0.8196295551036542, -0.006809604621303408, 0.5269273532870818, 0.9701454446789766, 0.5264308870771981, 0.5003710145635332, 0.5835077981541845, -1.0017643899329776, -0.9016035726702076, -0.6476751025916754, 0.301136523241502, -0.7375843939823725, -0.2744547748871115, 0.330011955105848, 0.17767706924238946, 0.252749838100239, -0.8822333994582606, 0.10669990094749743], "biases": [-1.0592332819029544, -1.1322615662591275, -0.953944748463307, -0.9450935268731473, -0.933166524606577, -1.1012505497354361, -0.8945724146125201, -0.9453427578385373, -0.9630874863382655, -0.9520139537572301, -1.027166360488743, -0.9625516275886548, -0.48744677126383773, -0.836709552336537, -1.2887677107059847, -1.002288566516042, -0.9960956922806076, -0.9188965737472942, -0.9556837904767562, -0.8349076916407365, -0.9328421108998202]}