{"generation": 1220, "inputs": ["cart.x", "cart.vel", "bob.x", "bob.y", "bob.vel"], "outputs": ["acceleration"], "layers": [5, 10, 10, 1], "hidden_activation": "tanh", "output_activation": "tanh", "ticks": 76620000, "time": 6292.970180988312, "weights": [0.361782604575092, 0.33540516570821455, -0.5276320317054362, -0.12520691691059532, -0.8683975127689679, 0.4703631780930744, -0.7811036032838011, 0.48264063566600024, -0.49704335297056246, 0.030977630199185483, 0.7382034544629831, -0.6973101119318437, -0.6485365081472407, 0.10901770791584578, 0.17619642694005622, -0.8555141756128651, -0.3901243242955595, -0.8645427741656141, 0.830619732352374, -0.7165347846665883, -0.9287025550058533, 0.5480900012398168, -0.2047952829267079, 0.2724558199438439, 0.9374190107726817, 0.3927541932773773, 0.9049460986459372, 0.6014952168856095, -1.0530340369870554, 0.007054276481511844, -0.7073997926870351, 0.6390305841431849, -0.9293949126597851, -0.14685441989831668, 0.6655600492246501, -0.5109945332430307, -0.009877798925072744, -0.10703791131803063, -0.8527853801783354, 0.9568450239376454, -0.21116772641653064, -0.8079637245726583, 0.5541108324620465, -0.7967703287723382, 0.6550650396621266, 0.6470222320598966, 0.5983922927842756, -0.5089914702083541, -0.19256867595507363, 0.5247091026883223, 1.0819660954234007, 0.9561791712323195, 0.4456984398226191, 0.36090086043927494, 0.2683567825909198, 0.8073447669836934, -0.3975308614418735, 0.8380185058808098, 0.9400392733334951, 0.7994087653518936, -0.045243187651473595, -0.3434121842396969, 0.09389573799843826, -0.2645249810702269, -0.5091693752907038, 0.7079397426255931, 0.2491919624457284, -0.8693920302691515, 0.8634643985142929, -0.13575982087097352, -0.6669077251656086, 0.5269995317655795, -0.35380576883698084, 0.640227785115075, -0.04853297597461248, 0.15661356854708494, 0.029240787485103906, -0.06430456135017916, 0.16472352695387793, 0.3127247893125886, 0.2117737993783966, 0.908662678957088, -0.592953365868351, 0.8927351847244375, -0.2852043993454257, 0.14117656449092045, -0.7679809237231823, 0.5687686664239308, -0.28598371182342897, 0.501638468492511, -0.5289022565889685, 0.8113715692700322, 0.08734118142235328, 0.45491005975261845, 0.9766845948947587, -0.7570371436114849, -0.22975757079917045, 0.6727748797747156, -0.6700155995702394, 0.3028476451511871, -0.7400093443705552, -0.9321076734487364, -0.5818543730298558, 0.8293757033441365, 0.8385061949528084, 0.006927118458688728, 0.32342179457790937, -0.735796679199624, -0.5979465924461062, 0.06202929029251489, -0.8432720591040205, -0.864471344078746, 0.8255743973005597, -0.5056164105671352, 0.37869719553509684, -0.3684637934894601, -0.32076091261540374, -0.47848996728876997, -0.5855208299158161, 0.020437521366683583, -0.38970358684867973, -0.9604867551696172, 0.8010008086671933, -0.7607584112494455, 0.47488590897007826, 0.6583772767647053, -0.8691550776260446, -0.2705856104402864, -0.5402202535337736, 0.4832416267085629, 0.17054423798920362, 0.5633159754817356, 0.8066272129731668, 0.45288932159068845, -0.2743006251302096, -0.7891953443671925, -0.13226126423124732, 0.8892639882313518, 0.9069828806224101, -0.40691610154854196, 0.8336443283040968, -0.613718274105749, 0.7727745384867036, 0.07801712899415376, 0.5840973970205755, 0.8493257984147283, 0.511647686496052, 0.637621932055975, 0.5508052799978244, -0.9672508722875084, -1.0200528482478437, -0.6803603456876816, 0.3080774503857913, -0.7029959327584064, -0.2629771410087017, 0.3802455396561754, 0.19660129409549787, 0.2635083247557155, -0.9010711346337208, 0.1611071983610858], "biases": [-1.028971158760761, -1.0016885163608442, -0.9973581482746927, -1.03927193334734, -0.9982346398326105, -1.0610218073453916, -0.886694689072891, -1.009666937606148, -1.0007444089966482, -1.0095627210738323, -1.0265106211511748, -1.012183807926037, -0.9966173036846451, -1.0026698547570216, -1.0114575359425124, -1.007109174942693, -1.0020859526843315, -0.9897635999109309, -1.0088540831585904, -1.0022254562694548, -0.9503833660813384]}