{"generation": 1112, "inputs": ["cart.x", "cart.vel", "bob.x", "bob.y", "bob.vel"], "outputs": ["acceleration"], "layers": [5, 10, 10, 1], "hidden_activation": "tanh", "output_activation": "tanh", "ticks": 66780000, "time": 5694.010850429535, "weights": [0.3596843509899201, 0.33269350121173424, -0.5241270150301157, -0.13624013678486654, -0.8710621665395701, 0.48414347154835424, -0.782826235351037, 0.48264063566600024, -0.5010350821033241, 0.027931200869790302, 0.7382034544629831, -0.6973101119318437, -0.6461782299108428, 0.11272260442368398, 0.17619642694005622, -0.8555141756128651, -0.3901243242955595, -0.8645427741656141, 0.830619732352374, -0.7165347846665883, -0.9301316626634983, 0.5520167138889749, -0.20695093225277805, 0.2817466439459048, 0.933458021423093, 0.3927541932773773, 0.9049460986459372, 0.5962824860131151, -1.0547405025531302, 0.007054276481511844, -0.7073997926870351, 0.6390305841431849, -0.9245519402771837, -0.14685441989831668, 0.6672535163671531, -0.5109945332430307, -0.010360991989136675, -0.10802056733128407, -0.8514430586352678, 0.9568450239376454, -0.2016691591448804, -0.8127537661788085, 0.5541108324620465, -0.7967703287723382, 0.663098881853064, 0.6470222320598966, 0.5983922927842756, -0.5089914702083541, -0.20083692024132543, 0.5202202682385345, 1.0677093686610508, 0.9524298994541365, 0.4456984398226191, 0.36090086043927494, 0.2688399363409985, 0.8103347182161912, -0.3975308614418735, 0.8380185058808098, 0.9384275875760817, 0.7994087653518936, -0.045243187651473595, -0.3434121842396969, 0.09389573799843826, -0.26416066275865796, -0.5091693752907038, 0.7079397426255931, 0.2491919624457284, -0.8682710990676387, 0.8634643985142929, -0.13575982087097352, -0.665891473171777, 0.5269995317655795, -0.3531462007792219, 0.640227785115075, -0.04853297597461248, 0.15661356854708494, 0.029240787485103906, -0.06753262598189502, 0.1658813577733075, 0.3127247893125886, 0.2117737993783966, 0.908662678957088, -0.592953365868351, 0.8927351847244375, -0.2852043993454257, 0.13626565033497087, -0.7679809237231823, 0.5725620092442285, -0.28598371182342897, 0.49710416477158004, -0.5289022565889685, 0.8065408492478674, 0.08734118142235328, 0.45491005975261845, 0.9766845948947587, -0.7653517955360319, -0.22975757079917045, 0.6727748797747156, -0.6700155995702394, 0.302601325516047, -0.7452403061851266, -0.9321076734487364, -0.5818543730298558, 0.8320896870467851, 0.8430551065492142, 0.0025446303929343994, 0.329068558370603, -0.7344664807968978, -0.613734139814877, 0.06202929029251489, -0.8432720591040205, -0.863866783418682, 0.8255743973005597, -0.5056164105671352, 0.37869719553509684, -0.36970035697372383, -0.32076091261540374, -0.4749511285049737, -0.5855208299158161, 0.020437521366683583, -0.38970358684867973, -0.9604867551696172, 0.8010008086671933, -0.7607584112494455, 0.47488590897007826, 0.6583772767647053, -0.8691550776260446, -0.2705856104402864, -0.5407445620373308, 0.47828570906160395, 0.17067399088524027, 0.5648871253850035, 0.8084194617725577, 0.45288932159068845, -0.2743006251302096, -0.7891953443671925, -0.13378461478495518, 0.8819485269762428, 0.9069828806224101, -0.40691610154854196, 0.8336443283040968, -0.613718274105749, 0.7745939095158881, 0.07801712899415376, 0.5864460768851731, 0.8493257984147283, 0.5106449906396306, 0.637621932055975, 0.5508052799978244, -0.9672508722875084, -1.0221290273842079, -0.6803603456876816, 0.3080774503857913, -0.7029959327584064, -0.2629771410087017, 0.3802455396561754, 0.200241402408566, 0.2635083247557155, -0.9010711346337208, 0.1611071983610858], "biases": [-1.0315957231908293, -0.995813071018059, -0.9965085183300578, -1.0346765366419308, -1.0004452916146047, -1.0534211043091637, -0.8870595337090664, -1.004725956123924, -1.0132619106900551, -1.0090616657254168, -1.0245033511762875, -1.0132074325358011, -0.996319086621668, -1.0028698870840174, -1.0103742319805882, -0.9986846370189975, -1.0019688158412763, -0.9951155905372739, -1.0091472352146278, -1.0005251507698771, -0.9503833660813384]}