{"generation": 1135, "inputs": ["cart.x", "cart.vel", "bob.x", "bob.y", "bob.vel"], "outputs": ["acceleration"], "layers": [5, 10, 10, 1], "hidden_activation": "tanh", "output_activation": "tanh", "ticks": 68160000, "time": 5764.949609279633, "weights": [0.3596843509899201, 0.33269350121173424, -0.5241270150301157, -0.12992986416000663, -0.8710621665395701, 0.48229070056542317, -0.782826235351037, 0.48264063566600024, -0.49968609534898384, 0.02974796473804617, 0.7382034544629831, -0.6973101119318437, -0.6461782299108428, 0.11272260442368398, 0.17619642694005622, -0.8555141756128651, -0.3901243242955595, -0.8645427741656141, 0.830619732352374, -0.7165347846665883, -0.9301316626634983, 0.5520167138889749, -0.20695093225277805, 0.2817466439459048, 0.933458021423093, 0.3927541932773773, 0.9049460986459372, 0.5962824860131151, -1.0547405025531302, 0.007054276481511844, -0.7073997926870351, 0.6390305841431849, -0.9293949126597851, -0.14685441989831668, 0.6672535163671531, -0.5109945332430307, -0.010360991989136675, -0.10703791131803063, -0.8514430586352678, 0.9568450239376454, -0.2016691591448804, -0.809892681978866, 0.5541108324620465, -0.7967703287723382, 0.6556297917484757, 0.6470222320598966, 0.5983922927842756, -0.5089914702083541, -0.20083692024132543, 0.5202202682385345, 1.0783530123688867, 0.9524298994541365, 0.4456984398226191, 0.36090086043927494, 0.2688399363409985, 0.8103347182161912, -0.3975308614418735, 0.8380185058808098, 0.9400392733334951, 0.7994087653518936, -0.045243187651473595, -0.3434121842396969, 0.09389573799843826, -0.26416066275865796, -0.5091693752907038, 0.7079397426255931, 0.2491919624457284, -0.8682710990676387, 0.8634643985142929, -0.13575982087097352, -0.665891473171777, 0.5269995317655795, -0.3531462007792219, 0.640227785115075, -0.04853297597461248, 0.15661356854708494, 0.029240787485103906, -0.06753262598189502, 0.1658813577733075, 0.3127247893125886, 0.2117737993783966, 0.908662678957088, -0.592953365868351, 0.8927351847244375, -0.2852043993454257, 0.13626565033497087, -0.7679809237231823, 0.5725620092442285, -0.28598371182342897, 0.49710416477158004, -0.5289022565889685, 0.8065408492478674, 0.08734118142235328, 0.45491005975261845, 0.9766845948947587, -0.7570371436114849, -0.22975757079917045, 0.6727748797747156, -0.6700155995702394, 0.302601325516047, -0.7452403061851266, -0.9321076734487364, -0.5818543730298558, 0.8320896870467851, 0.8430551065492142, 0.006927118458688728, 0.329068558370603, -0.7344664807968978, -0.6123571113921257, 0.06202929029251489, -0.8432720591040205, -0.863866783418682, 0.8255743973005597, -0.5056164105671352, 0.37869719553509684, -0.36970035697372383, -0.32076091261540374, -0.4749511285049737, -0.5855208299158161, 0.020437521366683583, -0.38970358684867973, -0.9604867551696172, 0.8010008086671933, -0.7607584112494455, 0.47488590897007826, 0.6583772767647053, -0.8691550776260446, -0.2705856104402864, -0.5402202535337736, 0.47828570906160395, 0.17067399088524027, 0.5633159754817356, 0.8084194617725577, 0.45288932159068845, -0.2743006251302096, -0.7891953443671925, -0.13378461478495518, 0.8852803174481508, 0.9069828806224101, -0.40691610154854196, 0.8336443283040968, -0.613718274105749, 0.7727745384867036, 0.07801712899415376, 0.5840973970205755, 0.8493257984147283, 0.5106449906396306, 0.637621932055975, 0.5508052799978244, -0.9672508722875084, -1.0221290273842079, -0.6803603456876816, 0.3080774503857913, -0.7029959327584064, -0.2629771410087017, 0.3802455396561754, 0.200241402408566, 0.2635083247557155, -0.9010711346337208, 0.1611071983610858], "biases": [-1.0315957231908293, -0.9968291344034935, -0.9966285376153756, -1.035714462617141, -1.0019279573990356, -1.0543843640642607, -0.886694689072891, -1.004725956123924, -1.0132619106900551, -1.0096537295400256, -1.0245033511762875, -1.0132074325358011, -0.996319086621668, -1.0026574061035056, -1.0095795107026817, -1.001442868004628, -1.0000860924567556, -0.9943152397086467, -1.0111237741104697, -1.0005251507698771, -0.9503833660813384]}