{"generation": 1000, "inputs": ["cart.x", "cart.vel", "bob.x", "bob.y", "bob.vel"], "outputs": ["acceleration"], "layers": [5, 10, 10, 1], "hidden_activation": "tanh", "output_activation": "tanh", "ticks": 60060000, "time": 5299.662395477295, "weights": [0.34882330469146317, 0.32890994142943075, -0.5193753725192458, -0.14230865176395951, -0.8710621665395701, 0.48963297172656767, -0.7773419683590385, 0.48546593975850993, -0.5211550472701177, 0.027009246366036244, 0.740795178206013, -0.6973101119318437, -0.6461782299108428, 0.11272260442368398, 0.17619642694005622, -0.8555141756128651, -0.39131815387538077, -0.8601743292868014, 0.830619732352374, -0.7165347846665883, -0.9301316626634983, 0.5520167138889749, -0.21147292870423653, 0.2781597517400327, 0.9340974850682584, 0.3924616295161821, 0.9049460986459372, 0.5809106057812667, -1.0547405025531302, 0.007054276481511844, -0.7073997926870351, 0.6390305841431849, -0.919856449801921, -0.14866687406488832, 0.6631212491546403, -0.5109945332430307, -0.011740572680893287, -0.10802056733128407, -0.8514430586352678, 0.9573968804795827, -0.2016691591448804, -0.8127537661788085, 0.5541108324620465, -0.7967703287723382, 0.6667137742671274, 0.6420814726779821, 0.5935970723026747, -0.5089914702083541, -0.20083692024132543, 0.5202202682385345, 1.0583744868934515, 0.9492136656983495, 0.4456984398226191, 0.36090086043927494, 0.2688399363409985, 0.8103347182161912, -0.3975308614418735, 0.8380185058808098, 0.9347517068988108, 0.8059414030090234, -0.045243187651473595, -0.34562242473414173, 0.09389573799843826, -0.26416066275865796, -0.5091693752907038, 0.7079397426255931, 0.2491919624457284, -0.8682710990676387, 0.8634643985142929, -0.13570667401753536, -0.665891473171777, 0.5269995317655795, -0.3531462007792219, 0.640227785115075, -0.04853297597461248, 0.15661356854708494, 0.03212422422795592, -0.06510125108038775, 0.1658813577733075, 0.3127247893125886, 0.21533920285014446, 0.908662678957088, -0.592953365868351, 0.8927351847244375, -0.2852043993454257, 0.13626565033497087, -0.7679809237231823, 0.5689364210006993, -0.28598371182342897, 0.495122821449131, -0.5289022565889685, 0.8065408492478674, 0.08641295835509626, 0.45491005975261845, 0.9771500463175696, -0.7661265166316282, -0.22975757079917045, 0.6727748797747156, -0.6700155995702394, 0.29950623621022465, -0.7498290644855151, -0.9377742299228569, -0.5768571865400737, 0.829576109737962, 0.8430551065492142, 0.0025446303929343994, 0.3327993265979345, -0.7344664807968978, -0.6184615312133082, 0.05913928754543723, -0.8429149417653127, -0.8654098293518895, 0.8255743973005597, -0.501141156342005, 0.37869719553509684, -0.37283518953552486, -0.3220931442029011, -0.4749511285049737, -0.5855208299158161, 0.020437521366683583, -0.38970358684867973, -0.957463468630665, 0.8011920804569999, -0.7607584112494455, 0.47488590897007826, 0.6583772767647053, -0.8691550776260446, -0.2664069879956969, -0.5407445620373308, 0.4776808957000551, 0.17067399088524027, 0.5670739248246215, 0.8084194617725577, 0.45288932159068845, -0.2743006251302096, -0.7865340677439904, -0.13012515285291038, 0.8864267786557198, 0.9069828806224101, -0.40691610154854196, 0.8386123684571106, -0.613718274105749, 0.7745939095158881, 0.08168224050507865, 0.5864460768851731, 0.8493257984147283, 0.5106449906396306, 0.637621932055975, 0.5464510437978434, -0.9672508722875084, -1.0221290273842079, -0.6811033646922382, 0.3080774503857913, -0.7029959327584064, -0.2629771410087017, 0.3773990054075207, 0.200241402408566, 0.2635083247557155, -0.9010711346337208, 0.1611071983610858], "biases": [-1.0295214541300688, -0.9920104875605, -1.0003717036699267, -1.033692974802279, -1.0004300289714667, -1.043771841779139, -0.8881511708946435, -1.002815618531027, -1.0177926509222623, -1.0121147612347212, -1.0245033511762875, -1.0098296594764102, -0.9998727468021996, -1.0034564479841803, -1.0165563186181754, -0.9980670876187482, -1.003903488144282, -0.9944726335688389, -1.009778909804976, -1.0009541240410056, -0.9503104664096338]}