{"generation": 1173, "inputs": ["cart.x", "cart.vel", "bob.x", "bob.y", "bob.vel"], "outputs": ["acceleration"], "layers": [5, 10, 10, 1], "hidden_activation": "tanh", "output_activation": "tanh", "ticks": 70440000, "time": 5915.538487195969, "weights": [0.361782604575092, 0.33269350121173424, -0.5241270150301157, -0.12992986416000663, -0.8683975127689679, 0.47304728330870993, -0.782826235351037, 0.48264063566600024, -0.49704335297056246, 0.030977630199185483, 0.7382034544629831, -0.6973101119318437, -0.6485365081472407, 0.10901770791584578, 0.17619642694005622, -0.8555141756128651, -0.3901243242955595, -0.8645427741656141, 0.830619732352374, -0.7165347846665883, -0.9287025550058533, 0.5520167138889749, -0.20695093225277805, 0.2817466439459048, 0.933458021423093, 0.3927541932773773, 0.9049460986459372, 0.5988775858971006, -1.0513223945553394, 0.007054276481511844, -0.7073997926870351, 0.6390305841431849, -0.9293949126597851, -0.14685441989831668, 0.6655600492246501, -0.5109945332430307, -0.009877798925072744, -0.10703791131803063, -0.8527853801783354, 0.9568450239376454, -0.21116772641653064, -0.8079637245726583, 0.5541108324620465, -0.7967703287723382, 0.6556297917484757, 0.6470222320598966, 0.5983922927842756, -0.5089914702083541, -0.19618471938359544, 0.5247091026883223, 1.0819660954234007, 0.9524298994541365, 0.4456984398226191, 0.36090086043927494, 0.2683567825909198, 0.8073447669836934, -0.3975308614418735, 0.8380185058808098, 0.9400392733334951, 0.7994087653518936, -0.045243187651473595, -0.3434121842396969, 0.09389573799843826, -0.2645249810702269, -0.5091693752907038, 0.7079397426255931, 0.2491919624457284, -0.8682710990676387, 0.8634643985142929, -0.13575982087097352, -0.665891473171777, 0.5269995317655795, -0.3531462007792219, 0.640227785115075, -0.04853297597461248, 0.15661356854708494, 0.029240787485103906, -0.06761346105196725, 0.1658813577733075, 0.3127247893125886, 0.2117737993783966, 0.908662678957088, -0.592953365868351, 0.8927351847244375, -0.2852043993454257, 0.13626565033497087, -0.7679809237231823, 0.5687686664239308, -0.28598371182342897, 0.49710416477158004, -0.5289022565889685, 0.8091759489396719, 0.08734118142235328, 0.45491005975261845, 0.9766845948947587, -0.7570371436114849, -0.22975757079917045, 0.6727748797747156, -0.6700155995702394, 0.2978667688915871, -0.7442790234510558, -0.9321076734487364, -0.5818543730298558, 0.8293757033441365, 0.8430551065492142, 0.006927118458688728, 0.32428671182418484, -0.7344664807968978, -0.6123571113921257, 0.06202929029251489, -0.8432720591040205, -0.863866783418682, 0.8255743973005597, -0.5056164105671352, 0.37869719553509684, -0.36970035697372383, -0.32076091261540374, -0.47848996728876997, -0.5855208299158161, 0.020437521366683583, -0.38970358684867973, -0.9604867551696172, 0.8010008086671933, -0.7607584112494455, 0.47488590897007826, 0.6583772767647053, -0.8691550776260446, -0.2705856104402864, -0.5402202535337736, 0.4832416267085629, 0.17054423798920362, 0.5633159754817356, 0.8066272129731668, 0.45288932159068845, -0.2743006251302096, -0.7891953443671925, -0.13378461478495518, 0.8852803174481508, 0.9069828806224101, -0.40691610154854196, 0.8336443283040968, -0.613718274105749, 0.7727745384867036, 0.07801712899415376, 0.5840973970205755, 0.8493257984147283, 0.5106449906396306, 0.637621932055975, 0.5508052799978244, -0.9672508722875084, -1.0200528482478437, -0.6803603456876816, 0.3080774503857913, -0.7029959327584064, -0.2629771410087017, 0.3802455396561754, 0.19660129409549787, 0.2635083247557155, -0.9010711346337208, 0.1611071983610858], "biases": [-1.030612573903678, -0.9968291344034935, -0.9966285376153756, -1.0356715094695903, -1.000526533328648, -1.0582493163627635, -0.886694689072891, -1.0060737842563465, -1.004217983347049, -1.0096537295400256, -1.0265106211511748, -1.0126959672529259, -0.996319086621668, -1.0026698547570216, -1.0095795107026817, -1.0037844762543338, -1.001099287187269, -0.9941229345120886, -1.0111237741104697, -1.0005251507698771, -0.9503833660813384]}