{"generation": 923, "inputs": ["cart.x", "cart.vel", "bob.x", "bob.y", "bob.vel"], "outputs": ["acceleration"], "layers": [5, 10, 10, 1], "hidden_activation": "tanh", "output_activation": "tanh", "ticks": 55440000, "time": 5013.542583703995, "weights": [0.3376864472900944, 0.32890994142943075, -0.5193753725192458, -0.14945917617266566, -0.8689911836779208, 0.5053523678413925, -0.7773419683590385, 0.4837889241200437, -0.5335565210712016, 0.027009246366036244, 0.7443988681494348, -0.6973101119318437, -0.6461782299108428, 0.11580559398486018, 0.17619642694005622, -0.8555141756128651, -0.39131815387538077, -0.8601743292868014, 0.830619732352374, -0.7165347846665883, -0.9301316626634983, 0.5518089055057649, -0.21147292870423653, 0.2781597517400327, 0.9340974850682584, 0.3877343008879199, 0.9049460986459372, 0.5809106057812667, -1.0547405025531302, 0.007054276481511844, -0.7073997926870351, 0.6390305841431849, -0.9234165073155826, -0.14866687406488832, 0.6631212491546403, -0.5152411596401694, -0.011740572680893287, -0.11035715932908223, -0.8514430586352678, 0.9573968804795827, -0.19727125196830897, -0.8127537661788085, 0.5541108324620465, -0.8009443041877278, 0.6692279511271143, 0.6420814726779821, 0.5935970723026747, -0.5089914702083541, -0.199238401230888, 0.5202202682385345, 1.04150589713785, 0.936673769987415, 0.4456984398226191, 0.36090086043927494, 0.2688399363409985, 0.8103347182161912, -0.3975308614418735, 0.8380185058808098, 0.9347517068988108, 0.8059414030090234, -0.045243187651473595, -0.34562242473414173, 0.09389573799843826, -0.26416066275865796, -0.5091693752907038, 0.7079397426255931, 0.2491919624457284, -0.8682710990676387, 0.8598093580555481, -0.1349060725573772, -0.665891473171777, 0.5269995317655795, -0.3531462007792219, 0.640227785115075, -0.04853297597461248, 0.15661356854708494, 0.03212422422795592, -0.06497900109134092, 0.1658813577733075, 0.3127247893125886, 0.21533920285014446, 0.908662678957088, -0.592953365868351, 0.8927351847244375, -0.2852043993454257, 0.13626565033497087, -0.7693777827603003, 0.5689364210006993, -0.28598371182342897, 0.495122821449131, -0.5249759785612041, 0.8065408492478674, 0.08641295835509626, 0.45491005975261845, 0.9771500463175696, -0.7709227410250241, -0.22975757079917045, 0.6762536783130905, -0.6700155995702394, 0.3039702773810964, -0.752540614148096, -0.9377742299228569, -0.5768571865400737, 0.829576109737962, 0.8430551065492142, 0.0025446303929343994, 0.3327993265979345, -0.7312001431924161, -0.6184615312133082, 0.05913928754543723, -0.838005754250142, -0.8654098293518895, 0.8255743973005597, -0.501141156342005, 0.37869719553509684, -0.37283518953552486, -0.3220931442029011, -0.4749511285049737, -0.5855208299158161, 0.020437521366683583, -0.38501063399901897, -0.9615011827507368, 0.8011920804569999, -0.7607584112494455, 0.47488590897007826, 0.6583772767647053, -0.8691550776260446, -0.2664069879956969, -0.5407445620373308, 0.4776808957000551, 0.18302787069124024, 0.5742714636759841, 0.8084194617725577, 0.45271142295969613, -0.2743006251302096, -0.7912876009466756, -0.13012515285291038, 0.8864267786557198, 0.9104467352731155, -0.40691610154854196, 0.8386123684571106, -0.613718274105749, 0.7745939095158881, 0.08168224050507865, 0.5864460768851731, 0.8493678774667413, 0.5106449906396306, 0.641540140111369, 0.5503238823962951, -0.9689234547291535, -1.0221290273842079, -0.6837205721780301, 0.3048236983108218, -0.7029959327584064, -0.2629771410087017, 0.37381506582959645, 0.200241402408566, 0.2624947352678026, -0.9010711346337208, 0.1611071983610858], "biases": [-1.0277526640558114, -0.9933352499531376, -0.9982846089099855, -1.0267768338044436, -1.0009190493241067, -1.0423372963562765, -0.8889930703582682, -1.000369916987474, -1.0160674261417424, -1.0156761424943161, -1.0201498961626898, -1.0109973028780013, -0.9998727468021996, -1.0040236384953714, -1.014588928152724, -1.0006551007770321, -1.0061617832586809, -0.99438699242101, -1.0106553242705383, -1.0060785363384317, -0.9510199874073184]}